{"learner":{"attributes":{"scikit_learn":"{\"_estimator_type\": \"classifier\"}"},"feature_names":[],"feature_types":[],"gradient_booster":{"model":{"cats":{"enc":[],"feature_segments":[],"sorted_idx":[]},"gbtree_model_param":{"num_parallel_tree":"1","num_trees":"200"},"iteration_indptr":[0,1,2,3,4,5,6,7,8,9,10,11,12,13,14,15,16,17,18,19,20,21,22,23,24,25,26,27,28,29,30,31,32,33,34,35,36,37,38,39,40,41,42,43,44,45,46,47,48,49,50,51,52,53,54,55,56,57,58,59,60,61,62,63,64,65,66,67,68,69,70,71,72,73,74,75,76,77,78,79,80,81,82,83,84,85,86,87,88,89,90,91,92,93,94,95,96,97,98,99,100,101,102,103,104,105,106,107,108,109,110,111,112,113,114,115,116,117,118,119,120,121,122,123,124,125,126,127,128,129,130,131,132,133,134,135,136,137,138,139,140,141,142,143,144,145,146,147,148,149,150,151,152,153,154,155,156,157,158,159,160,161,162,163,164,165,166,167,168,169,170,171,172,173,174,175,176,177,178,179,180,181,182,183,184,185,186,187,188,189,190,191,192,193,194,195,196,197,198,199,200],"tree_info":[0,0,0,0,0,0,0,0,0,0,0,0,0,0,0,0,0,0,0,0,0,0,0,0,0,0,0,0,0,0,0,0,0,0,0,0,0,0,0,0,0,0,0,0,0,0,0,0,0,0,0,0,0,0,0,0,0,0,0,0,0,0,0,0,0,0,0,0,0,0,0,0,0,0,0,0,0,0,0,0,0,0,0,0,0,0,0,0,0,0,0,0,0,0,0,0,0,0,0,0,0,0,0,0,0,0,0,0,0,0,0,0,0,0,0,0,0,0,0,0,0,0,0,0,0,0,0,0,0,0,0,0,0,0,0,0,0,0,0,0,0,0,0,0,0,0,0,0,0,0,0,0,0,0,0,0,0,0,0,0,0,0,0,0,0,0,0,0,0,0,0,0,0,0,0,0,0,0,0,0,0,0,0,0,0,0,0,0,0,0,0,0,0,0,0,0,0,0,0,0],"trees":[{"base_weights":[1.7466563E-8,2.9332098E-1,-8.228615E-1,6.225879E-1,-4.6417743E-2,-3.991111E-3,-1.166551E0,3.9807463E-1,6.426875E-2,-4.6016544E-2,3.0171075E-1,-7.571965E-2,-3.3618845E-2,1.3753336E-3,3.5445098E-2,-1.7100949E-2,2.9998338E-2],"categories":[],"categories_nodes":[],"categories_segments":[],"categories_sizes":[],"default_left":[0,0,0,0,0,0,0,0,0,0,0,0,0,0,0,0,0],"id":0,"left_children":[1,3,5,7,9,-1,11,13,-1,-1,15,-1,-1,-1,-1,-1,-1],"loss_changes":[3.3187347E1,1.1368234E1,9.134481E0,7.158592E0,1.5739004E1,0E0,3.2159462E0,4.582268E0,0E0,0E0,7.327523E0,0E0,0E0,0E0,0E0,0E0,0E0],"parents":[2147483647,0,0,1,1,2,2,3,3,4,4,6,6,7,7,10,10],"right_children":[2,4,6,8,10,-1,12,14,-1,-1,16,-1,-1,-1,-1,-1,-1],"split_conditions":[3E0,5.4224E-1,2.5362012E-1,3.404E-2,1.32086E0,-3.991111E-3,3.234314E1,4.95E-1,6.426875E-2,-4.6016544E-2,5.6284E-1,-7.571965E-2,-3.3618845E-2,1.3753336E-3,3.5445098E-2,-1.7100949E-2,2.9998338E-2],"split_indices":[6,27,16,21,27,0,42,3,0,0,28,0,0,0,0,0,0],"split_type":[0,0,0,0,0,0,0,0,0,0,0,0,0,0,0,0,0],"sum_hessian":[1.355E2,1.00366455E2,3.513355E1,5.054594E1,4.9820515E1,1.1501068E1,2.3632479E1,3.8951923E1,1.1594017E1,1.37243595E1,3.6096153E1,1.2658119E1,1.09743595E1,1.8264957E1,2.0686966E1,1.1382479E1,2.4713676E1],"tree_param":{"num_deleted":"0","num_feature":"64","num_nodes":"17","size_leaf_vector":"1"}},{"base_weights":[-3.3404637E-4,2.794167E-1,-7.853309E-1,5.9363884E-1,-4.4761766E-2,-8.508438E-3,-1.1724352E0,3.791562E-1,6.1369777E-2,-4.3894E-2,2.8702366E-1,-7.4220695E-2,-3.6750976E-2,-6.5198243E-3,2.9125705E-2,-1.686815E-2,2.9806016E-2],"categories":[],"categories_nodes":[],"categories_segments":[],"categories_sizes":[],"default_left":[0,0,0,0,0,0,0,0,0,0,0,0,0,0,0,0,0],"id":1,"left_children":[1,3,5,7,9,-1,11,13,-1,-1,15,-1,-1,-1,-1,-1,-1],"loss_changes":[3.0183582E1,1.0348899E1,8.399975E0,6.538746E0,1.4295827E1,0E0,1.9104424E0,4.2151647E0,0E0,0E0,7.3592787E0,0E0,0E0,0E0,0E0,0E0,0E0],"parents":[2147483647,0,0,1,1,2,2,3,3,4,4,6,6,7,7,10,10],"right_children":[2,4,6,8,10,-1,12,14,-1,-1,16,-1,-1,-1,-1,-1,-1],"split_conditions":[3E0,5.4224E-1,3.0111077E-1,3.404E-2,1.32086E0,-8.508438E-3,2.3639E-1,4.7E-1,6.1369777E-2,-4.3894E-2,6.667203E4,-7.4220695E-2,-3.6750976E-2,-6.5198243E-3,2.9125705E-2,-1.686815E-2,2.9806016E-2],"split_indices":[6,27,16,21,27,0,20,3,0,0,10,0,0,0,0,0,0],"split_type":[0,0,0,0,0,0,0,0,0,0,0,0,0,0,0,0,0],"sum_hessian":[1.3544661E2,1.00334335E2,3.5112274E1,5.0527473E1,4.980686E1,1.411739E1,2.0994884E1,3.894542E1,1.1582053E1,1.3717097E1,3.6089764E1,1.0857428E1,1.0137457E1,1.1211533E1,2.7733887E1,1.19198265E1,2.4169937E1],"tree_param":{"num_deleted":"0","num_feature":"64","num_nodes":"17","size_leaf_vector":"1"}},{"base_weights":[-8.0975896E-4,2.6618916E-1,-7.505249E-1,5.6616277E-1,-4.3163653E-2,-3.4162556E-3,-1.067217E0,3.6092103E-1,5.8705937E-2,-4.190799E-2,2.7309597E-1,-6.9968514E-2,-3.0001579E-2,9.668E-4,3.2398682E-2,-1.612097E-2,2.8403139E-2],"categories":[],"categories_nodes":[],"categories_segments":[],"categories_sizes":[],"default_left":[0,0,0,0,0,0,0,0,0,0,0,0,0,0,0,0,0],"id":2,"left_children":[1,3,5,7,9,-1,11,13,-1,-1,15,-1,-1,-1,-1,-1,-1],"loss_changes":[2.7485918E1,9.420558E0,7.717495E0,5.9994354E0,1.29954605E1,0E0,2.9712086E0,3.9025908E0,0E0,0E0,6.6965494E0,0E0,0E0,0E0,0E0,0E0,0E0],"parents":[2147483647,0,0,1,1,2,2,3,3,4,4,6,6,7,7,10,10],"right_children":[2,4,6,8,10,-1,12,14,-1,-1,16,-1,-1,-1,-1,-1,-1],"split_conditions":[3E0,5.4224E-1,2.5362012E-1,3.404E-2,1.32086E0,-3.4162556E-3,3.234314E1,4.95E-1,5.8705937E-2,-4.190799E-2,6.2849E-1,-6.9968514E-2,-3.0001579E-2,9.668E-4,3.2398682E-2,-1.612097E-2,2.8403139E-2],"split_indices":[6,27,16,21,27,0,42,3,0,0,28,0,0,0,0,0,0],"split_type":[0,0,0,0,0,0,0,0,0,0,0,0,0,0,0,0,0],"sum_hessian":[1.3531268E2,1.0025384E2,3.5058838E1,5.0477047E1,4.9776794E1,1.1500619E1,2.355822E1,3.892866E1,1.1548385E1,1.3696659E1,3.6080135E1,1.2602756E1,1.0955464E1,1.8263245E1,2.0665417E1,1.1920497E1,2.415964E1],"tree_param":{"num_deleted":"0","num_feature":"64","num_nodes":"17","size_leaf_vector":"1"}},{"base_weights":[-1.0794477E-3,2.2424762E-1,-8.181456E-1,5.1917005E-1,-6.445142E-2,-6.0367193E-3,-6.018274E-2,-4.4043005E-5,6.9886327E-1,-3.5093613E-2,1.9715312E-1,1.9089516E-2,4.876402E-2,-1.9544395E-2,2.6465008E-2],"categories":[],"categories_nodes":[],"categories_segments":[],"categories_sizes":[],"default_left":[0,0,0,0,0,0,0,0,0,0,0,0,0,0,0],"id":3,"left_children":[1,3,5,7,9,-1,-1,-1,11,-1,13,-1,-1,-1,-1],"loss_changes":[2.5239084E1,9.182953E0,7.8218517E0,4.978406E0,9.341786E0,0E0,0E0,0E0,3.0974445E0,0E0,8.0024805E0,0E0,0E0,0E0,0E0],"parents":[2147483647,0,0,1,1,2,2,3,3,4,4,8,8,10,10],"right_children":[2,4,6,8,10,-1,-1,-1,12,-1,14,-1,-1,-1,-1],"split_conditions":[7.390201E0,5.4224E-1,3.0111077E-1,4.7E-1,1.32086E0,-6.0367193E-3,-6.018274E-2,-4.4043005E-5,4.15E-1,-3.5093613E-2,6.667203E4,1.9089516E-2,4.876402E-2,-1.9544395E-2,2.6465008E-2],"split_indices":[14,27,16,3,27,0,0,0,0,0,10,0,0,0,0],"split_type":[0,0,0,0,0,0,0,0,0,0,0,0,0,0,0],"sum_hessian":[1.350926E2,1.0645927E2,2.8633343E1,5.2267124E1,5.419214E1,1.0660674E1,1.797267E1,1.3677657E1,3.858947E1,1.5279482E1,3.8912655E1,1.9082035E1,1.9507433E1,1.3981905E1,2.4930752E1],"tree_param":{"num_deleted":"0","num_feature":"64","num_nodes":"15","size_leaf_vector":"1"}},{"base_weights":[-1.2358682E-3,2.4381606E-1,-6.9117814E-1,5.1786506E-1,-3.856206E-2,-5.6103226E-2,-1.2168822E-2,3.240513E-1,5.4829378E-2,-3.8442004E-2,2.5088647E-1,2.8806897E-3,3.2549873E-2,-1.5885806E-2,2.6663309E-2],"categories":[],"categories_nodes":[],"categories_segments":[],"categories_sizes":[],"default_left":[0,0,0,0,0,0,0,0,0,0,0,0,0,0,0],"id":4,"left_children":[1,3,5,7,9,-1,-1,11,-1,-1,13,-1,-1,-1,-1],"loss_changes":[2.3136274E1,7.8344774E0,6.647049E0,5.400466E0,1.0902505E1,0E0,0E0,3.4348354E0,0E0,0E0,6.1163588E0,0E0,0E0,0E0,0E0],"parents":[2147483647,0,0,1,1,2,2,3,3,4,4,7,7,10,10],"right_children":[2,4,6,8,10,-1,-1,12,-1,-1,14,-1,-1,-1,-1],"split_conditions":[3E0,5.4224E-1,6.5197E-1,3.404E-2,1.32086E0,-5.6103226E-2,-1.2168822E-2,5E-1,5.4829378E-2,-3.8442004E-2,6.667203E4,2.8806897E-3,3.2549873E-2,-1.5885806E-2,2.6663309E-2],"split_indices":[6,27,21,21,27,0,0,3,0,0,10,0,0,0,0],"split_type":[0,0,0,0,0,0,0,0,0,0,0,0,0,0,0],"sum_hessian":[1.3484624E2,9.998163E1,3.4864605E1,5.0315914E1,4.9665714E1,1.7000538E1,1.7864069E1,3.886125E1,1.1454664E1,1.3627454E1,3.603826E1,2.2060091E1,1.680116E1,1.1916979E1,2.4121283E1],"tree_param":{"num_deleted":"0","num_feature":"64","num_nodes":"15","size_leaf_vector":"1"}},{"base_weights":[-1.2197992E-3,2.0582303E-1,-7.545049E-1,4.7447348E-1,-5.6943163E-2,-4.46556E-3,-5.6331422E-2,3.036055E-1,5.1223405E-2,2.0010065E-1,-3.188134E-2,3.4233988E-3,3.8553834E-2,-1.3425382E-2,2.4347896E-2],"categories":[],"categories_nodes":[],"categories_segments":[],"categories_sizes":[],"default_left":[0,0,0,0,0,0,0,0,0,0,0,0,0,0,0],"id":5,"left_children":[1,3,5,7,9,-1,-1,11,-1,13,-1,-1,-1,-1,-1],"loss_changes":[2.129614E1,7.588327E0,7.1864357E0,4.6763315E0,8.343233E0,0E0,0E0,4.554188E0,0E0,5.361769E0,0E0,0E0,0E0,0E0,0E0],"parents":[2147483647,0,0,1,1,2,2,3,3,4,4,7,7,9,9],"right_children":[2,4,6,8,10,-1,-1,12,-1,14,-1,-1,-1,-1,-1],"split_conditions":[7.390201E0,5.4224E-1,3.0111077E-1,5.3E-1,5.15E-1,-4.46556E-3,-5.6331422E-2,2.4293032E-3,5.1223405E-2,1.51358E0,-3.188134E-2,3.4233988E-3,3.8553834E-2,-1.3425382E-2,2.4347896E-2],"split_indices":[14,27,16,3,0,0,0,26,0,27,0,0,0,0,0],"split_type":[0,0,0,0,0,0,0,0,0,0,0,0,0,0,0],"sum_hessian":[1.3455103E2,1.0611244E2,2.8438578E1,5.207036E1,5.4042084E1,1.0646789E1,1.7791788E1,4.091212E1,1.1158237E1,3.7914402E1,1.612768E1,2.7983109E1,1.2929011E1,1.4420739E1,2.3493664E1],"tree_param":{"num_deleted":"0","num_feature":"64","num_nodes":"15","size_leaf_vector":"1"}},{"base_weights":[-1.0878562E-3,2.2438951E-1,-6.378952E-1,-1.8217722E-2,3.4735718E-1,-1.7636975E-4,-9.09992E-1,5.047236E-2,2.2925963E-1,-6.0691472E-2,-2.1966808E-2,-2.614287E-2,1.9176556E-2],"categories":[],"categories_nodes":[],"categories_segments":[],"categories_sizes":[],"default_left":[0,0,0,0,0,0,0,0,0,0,0,0,0],"id":6,"left_children":[1,3,5,-1,7,-1,9,-1,11,-1,-1,-1,-1],"loss_changes":[1.9563099E1,7.4113474E0,6.146262E0,0E0,6.317086E0,0E0,3.0315666E0,0E0,8.597237E0,0E0,0E0,0E0,0E0],"parents":[2147483647,0,0,1,1,2,2,4,4,6,6,8,8],"right_children":[2,4,6,-1,8,-1,10,-1,12,-1,-1,-1,-1],"split_conditions":[3E0,4.65E-1,2.3326518E-1,-1.8217722E-2,-2.3933333E-1,-1.7636975E-4,3.226E-1,5.047236E-2,-2.8833333E-2,-6.0691472E-2,-2.1966808E-2,-2.614287E-2,1.9176556E-2],"split_indices":[6,3,16,0,18,0,20,0,18,0,0,0,0],"split_type":[0,0,0,0,0,0,0,0,0,0,0,0,0],"sum_hessian":[1.3425002E2,9.96235E1,3.4626522E1,1.6873524E1,8.274998E1,1.0698032E1,2.3928492E1,1.1383441E1,7.136653E1,1.3581667E1,1.0346824E1,1.174026E1,5.9626274E1],"tree_param":{"num_deleted":"0","num_feature":"64","num_nodes":"13","size_leaf_vector":"1"}},{"base_weights":[-1.4825296E-3,1.8848771E-1,-6.976561E-1,4.4266817E-1,-5.9498064E-2,-3.8833737E-3,-5.2477982E-2,2.7976507E-1,4.849187E-2,1.8465035E-1,-3.0534556E-2,1.8005333E-3,3.5151172E-2,-1.4276679E-2,2.2072969E-2],"categories":[],"categories_nodes":[],"categories_segments":[],"categories_sizes":[],"default_left":[0,0,0,0,0,0,0,0,0,0,0,0,0,0,0],"id":7,"left_children":[1,3,5,7,9,-1,-1,11,-1,13,-1,-1,-1,-1,-1],"loss_changes":[1.7984715E1,6.7608757E0,6.2788563E0,4.269883E0,7.509042E0,0E0,0E0,4.28747E0,0E0,4.817981E0,0E0,0E0,0E0,0E0,0E0],"parents":[2147483647,0,0,1,1,2,2,3,3,4,4,7,7,9,9],"right_children":[2,4,6,8,10,-1,-1,12,-1,14,-1,-1,-1,-1,-1],"split_conditions":[7.390201E0,5.4224E-1,3.0111077E-1,5.3E-1,5.15E-1,-3.8833737E-3,-5.2477982E-2,4.7E-1,4.849187E-2,1.46162E0,-3.0534556E-2,1.8005333E-3,3.5151172E-2,-1.4276679E-2,2.2072969E-2],"split_indices":[14,27,16,3,0,0,0,1,0,27,0,0,0,0,0],"split_type":[0,0,0,0,0,0,0,0,0,0,0,0,0,0,0],"sum_hessian":[1.3399367E2,1.0584122E2,2.8152454E1,5.1880096E1,5.396112E1,1.063546E1,1.7516994E1,4.080228E1,1.1077817E1,3.7857372E1,1.6103748E1,2.6579966E1,1.4222316E1,1.3333541E1,2.452383E1],"tree_param":{"num_deleted":"0","num_feature":"64","num_nodes":"15","size_leaf_vector":"1"}},{"base_weights":[-1.3784966E-3,2.0608127E-1,-5.9120953E-1,-1.7306514E-2,3.217855E-1,-5.0198007E-2,-8.469907E-3,4.773725E-2,2.0938069E-1,-2.5256634E-2,1.7813617E-2],"categories":[],"categories_nodes":[],"categories_segments":[],"categories_sizes":[],"default_left":[0,0,0,0,0,0,0,0,0,0,0],"id":8,"left_children":[1,3,5,-1,7,-1,-1,-1,9,-1,-1],"loss_changes":[1.6595472E1,6.5222225E0,5.9738274E0,0E0,5.739043E0,0E0,0E0,0E0,7.754242E0,0E0,0E0],"parents":[2147483647,0,0,1,1,2,2,4,4,8,8],"right_children":[2,4,6,-1,8,-1,-1,-1,10,-1,-1],"split_conditions":[3E0,4.65E-1,6.5197E-1,-1.7306514E-2,-2.3933333E-1,-5.0198007E-2,-8.469907E-3,4.773725E-2,-2.8833333E-2,-2.5256634E-2,1.7813617E-2],"split_indices":[6,3,21,0,18,0,0,0,18,0,0],"split_type":[0,0,0,0,0,0,0,0,0,0,0],"sum_hessian":[1.3362569E2,9.9336815E1,3.4288876E1,1.6863302E1,8.247351E1,1.6633024E1,1.765585E1,1.1307333E1,7.116618E1,1.1719779E1,5.9446404E1],"tree_param":{"num_deleted":"0","num_feature":"64","num_nodes":"11","size_leaf_vector":"1"}},{"base_weights":[-1.5876967E-3,1.7318009E-1,-6.467007E-1,4.1411713E-1,-6.127819E-2,-2.5293375E-3,-4.954071E-2,2.5867987E-1,4.601523E-2,-5.153305E-1,2.1996145E-1,1.9171288E-3,3.5127554E-2,-7.2414675E-3,-4.15511E-2,-3.257608E-3,4.0868074E-2],"categories":[],"categories_nodes":[],"categories_segments":[],"categories_sizes":[],"default_left":[0,0,0,0,0,0,0,0,0,0,0,0,0,0,0,0,0],"id":9,"left_children":[1,3,5,7,9,-1,-1,11,-1,13,15,-1,-1,-1,-1,-1,-1],"loss_changes":[1.526019E1,6.041908E0,5.8681746E0,3.9049711E0,7.117588E0,0E0,0E0,4.0491076E0,0E0,2.3684797E0,5.94172E0,0E0,0E0,0E0,0E0,0E0,0E0],"parents":[2147483647,0,0,1,1,2,2,3,3,4,4,7,7,9,9,10,10],"right_children":[2,4,6,8,10,-1,-1,12,-1,14,16,-1,-1,-1,-1,-1,-1],"split_conditions":[7.390201E0,5.4224E-1,3.0111077E-1,5.3E-1,6.667203E4,-2.5293375E-3,-4.954071E-2,2.4293032E-3,4.601523E-2,2.959163E4,2.00536E0,1.9171288E-3,3.5127554E-2,-7.2414675E-3,-4.15511E-2,-3.257608E-3,4.0868074E-2],"split_indices":[14,27,16,3,10,0,0,26,0,36,29,0,0,0,0,0,0],"split_type":[0,0,0,0,0,0,0,0,0,0,0,0,0,0,0,0,0],"sum_hessian":[1.3335805E2,1.0550673E2,2.7851315E1,5.165652E1,5.3850212E1,1.0613086E1,1.723823E1,4.067676E1,1.097976E1,2.0278643E1,3.3571568E1,2.7909094E1,1.2767669E1,1.00005665E1,1.0278076E1,2.3328709E1,1.0242859E1],"tree_param":{"num_deleted":"0","num_feature":"64","num_nodes":"17","size_leaf_vector":"1"}},{"base_weights":[-1.3759412E-3,1.8923716E-1,-5.4675895E-1,-1.6742697E-2,2.9941365E-1,-4.733224E-2,-7.1194284E-3,4.5088734E-2,1.9307266E-1,-2.4215499E-2,1.663269E-2],"categories":[],"categories_nodes":[],"categories_segments":[],"categories_sizes":[],"default_left":[0,0,0,0,0,0,0,0,0,0,0],"id":10,"left_children":[1,3,5,-1,7,-1,-1,-1,9,-1,-1],"loss_changes":[1.4029096E1,5.87484E0,5.516659E0,0E0,5.1528873E0,0E0,0E0,0E0,6.964526E0,0E0,0E0],"parents":[2147483647,0,0,1,1,2,2,4,4,8,8],"right_children":[2,4,6,-1,8,-1,-1,-1,10,-1,-1],"split_conditions":[3E0,4.65E-1,6.5197E-1,-1.6742697E-2,-2.3933333E-1,-4.733224E-2,-7.1194284E-3,4.5088734E-2,-2.8833333E-2,-2.4215499E-2,1.663269E-2],"split_indices":[6,3,21,0,18,0,0,0,18,0,0],"split_type":[0,0,0,0,0,0,0,0,0,0,0],"sum_hessian":[1.3295547E2,9.9005684E1,3.3949783E1,1.6843714E1,8.216197E1,1.6395288E1,1.7554497E1,1.1206052E1,7.0955925E1,1.1701103E1,5.9254818E1],"tree_param":{"num_deleted":"0","num_feature":"64","num_nodes":"11","size_leaf_vector":"1"}},{"base_weights":[-1.572613E-3,1.5934266E-1,-6.0035515E-1,3.2642087E-1,-1.5737928E-1,-1.3222125E-3,-4.688347E-2,4.761462E-2,1.5270978E-1,-2.5952844E-2,1.2149663E-2,1.5449843E-2,-1.6206784E-2],"categories":[],"categories_nodes":[],"categories_segments":[],"categories_sizes":[],"default_left":[0,0,0,0,0,0,0,0,0,0,0,0,0],"id":11,"left_children":[1,3,5,7,9,-1,-1,-1,11,-1,-1,-1,-1],"loss_changes":[1.2973101E1,5.6674757E0,5.4960337E0,7.4436846E0,5.531168E0,0E0,0E0,0E0,4.260847E0,0E0,0E0,0E0,0E0],"parents":[2147483647,0,0,1,1,2,2,3,3,4,4,8,8],"right_children":[2,4,6,8,10,-1,-1,-1,12,-1,-1,-1,-1],"split_conditions":[7.390201E0,4.4815E-1,3.0111077E-1,-3.38994E3,9.1579E-1,-1.3222125E-3,-4.688347E-2,4.761462E-2,2.1733E-1,-2.5952844E-2,1.2149663E-2,1.5449843E-2,-1.6206784E-2],"split_indices":[14,21,16,39,21,0,0,0,22,0,0,0,0],"split_type":[0,0,0,0,0,0,0,0,0,0,0,0,0],"sum_hessian":[1.326482E2,1.05129776E2,2.7518414E1,6.880363E1,3.632614E1,1.058587E1,1.6932545E1,1.3974006E1,5.4829624E1,1.8929602E1,1.7396542E1,4.156019E1,1.3269438E1],"tree_param":{"num_deleted":"0","num_feature":"64","num_nodes":"13","size_leaf_vector":"1"}},{"base_weights":[-1.6321933E-3,1.5187263E-1,-5.763089E-1,-1.712222E-2,2.5059775E-1,-1.2619057E-3,-4.5194253E-2,4.3403525E-2,1.4365561E-1,-2.3283329E-2,1.5449569E-2],"categories":[],"categories_nodes":[],"categories_segments":[],"categories_sizes":[],"default_left":[0,0,0,0,0,0,0,0,0,0,0],"id":12,"left_children":[1,3,5,-1,7,-1,-1,-1,9,-1,-1],"loss_changes":[1.1849077E1,5.259389E0,5.0884943E0,0E0,5.7484694E0,0E0,0E0,0E0,7.902091E0,0E0,0E0],"parents":[2147483647,0,0,1,1,2,2,4,4,8,8],"right_children":[2,4,6,-1,8,-1,-1,-1,10,-1,-1],"split_conditions":[7.390201E0,4.65E-1,3.0111077E-1,-1.712222E-2,-2.3125E-1,-1.2619057E-3,-4.5194253E-2,4.3403525E-2,-2.8833333E-2,-2.3283329E-2,1.5449569E-2],"split_indices":[14,3,16,0,18,0,0,0,18,0,0],"split_type":[0,0,0,0,0,0,0,0,0,0,0],"sum_hessian":[1.3232727E2,1.0501256E2,2.7314713E1,1.7070723E1,8.794183E1,1.0584983E1,1.6729729E1,1.1931781E1,7.601005E1,1.5835181E1,6.017487E1],"tree_param":{"num_deleted":"0","num_feature":"64","num_nodes":"11","size_leaf_vector":"1"}},{"base_weights":[-1.7859346E-3,2.5063592E-1,-3.240244E-1,-7.799125E-3,3.718124E-1,1.63918E-2,-5.080715E-1,1.8782471E-1,3.531356E-2,-1.9996537E-1,-4.9390323E-2,2.0338383E-2,-1.1165971E-2,1.5458685E-2,-4.502558E-2],"categories":[],"categories_nodes":[],"categories_segments":[],"categories_sizes":[],"default_left":[0,0,0,0,0,0,0,0,0,0,0,0,0,0,0],"id":13,"left_children":[1,3,5,-1,7,-1,9,11,-1,13,-1,-1,-1,-1,-1],"loss_changes":[1.0895248E1,3.7590656E0,7.225094E0,0E0,3.446559E0,0E0,6.6419897E0,3.5911589E0,0E0,1.0775472E1,0E0,0E0,0E0,0E0,0E0],"parents":[2147483647,0,0,1,1,2,2,4,4,6,6,7,7,9,9],"right_children":[2,4,6,-1,8,-1,10,12,-1,14,-1,-1,-1,-1,-1],"split_conditions":[8.3576003E-4,4.7E-1,4.85E-1,-7.799125E-3,2.8847128E1,1.63918E-2,1.29481E0,5.2792E-1,3.531356E-2,1.357272E4,-4.9390323E-2,2.0338383E-2,-1.1165971E-2,1.5458685E-2,-4.502558E-2],"split_indices":[14,3,0,0,4,0,29,27,0,39,0,0,0,0,0],"split_type":[0,0,0,0,0,0,0,0,0,0,0,0,0,0,0],"sum_hessian":[1.3194852E2,7.41142E1,5.7834316E1,1.6949938E1,5.716426E1,1.2561735E1,4.5272583E1,3.7885056E1,1.9279205E1,2.8430279E1,1.6842302E1,2.4727684E1,1.3157371E1,1.6787916E1,1.1642362E1],"tree_param":{"num_deleted":"0","num_feature":"64","num_nodes":"15","size_leaf_vector":"1"}},{"base_weights":[-1.9114818E-3,1.5977822E-1,-4.7130322E-1,-2.1440461E-1,2.8167406E-1,-4.3244597E-2,-4.0788236E-3,4.384446E-3,-2.7886078E-2,1.7377935E-1,4.3866318E-2,1.7181579E-2,-1.0753767E-2],"categories":[],"categories_nodes":[],"categories_segments":[],"categories_sizes":[],"default_left":[0,0,0,0,0,0,0,0,0,0,0,0,0],"id":14,"left_children":[1,3,5,7,9,-1,-1,-1,-1,11,-1,-1,-1],"loss_changes":[1.0142749E1,4.594577E0,5.1814423E0,2.6411815E0,4.694268E0,0E0,0E0,0E0,0E0,4.37337E0,0E0,0E0,0E0],"parents":[2147483647,0,0,1,1,2,2,3,3,4,4,9,9],"right_children":[2,4,6,8,10,-1,-1,-1,-1,12,-1,-1,-1],"split_conditions":[3E0,4.7E-1,6.5197E-1,1.8584E-1,2.9037548E1,-4.3244597E-2,-4.0788236E-3,4.384446E-3,-2.7886078E-2,3.036E-1,4.3866318E-2,1.7181579E-2,-1.0753767E-2],"split_indices":[6,3,21,22,4,0,0,0,0,45,0,0,0],"split_type":[0,0,0,0,0,0,0,0,0,0,0,0,0],"sum_hessian":[1.3164824E2,9.840918E1,3.3239056E1,2.3994503E1,7.441468E1,1.5930982E1,1.7308073E1,1.3159606E1,1.0834897E1,6.409622E1,1.0318455E1,4.4691307E1,1.9404919E1],"tree_param":{"num_deleted":"0","num_feature":"64","num_nodes":"13","size_leaf_vector":"1"}},{"base_weights":[-1.9909863E-3,2.3810035E-1,-2.9960874E-1,1.4171273E-1,3.7626777E-2,-1.758097E-2,-8.05755E-1,3.3954656E-1,-1.8993916E-2,3.9343187E-1,-4.398236E-2,-6.1238535E-2,-1.5600072E-2,3.2983427E-3,3.3575207E-2,-5.3916876E-3,3.923868E-2],"categories":[],"categories_nodes":[],"categories_segments":[],"categories_sizes":[],"default_left":[0,0,0,0,0,0,0,0,0,0,0,0,0,0,0,0,0],"id":15,"left_children":[1,3,5,7,-1,9,11,13,-1,15,-1,-1,-1,-1,-1,-1,-1],"loss_changes":[9.528685E0,3.5534163E0,8.484934E0,6.6709037E0,0E0,1.4255677E1,4.0209904E0,4.177974E0,0E0,5.4348497E0,0E0,0E0,0E0,0E0,0E0,0E0,0E0],"parents":[2147483647,0,0,1,1,2,2,3,3,5,5,6,6,7,7,9,9],"right_children":[2,4,6,8,-1,10,12,14,-1,16,-1,-1,-1,-1,-1,-1,-1],"split_conditions":[2E0,1.1181945E2,1.20007E0,1.977E-1,3.7626777E-2,1.918394E4,5.7723374E0,4.25E-1,-1.8993916E-2,6E0,-4.398236E-2,-6.1238535E-2,-1.5600072E-2,3.2983427E-3,3.3575207E-2,-5.3916876E-3,3.923868E-2],"split_indices":[6,42,29,45,0,39,26,0,0,5,0,0,0,0,0,0,0],"split_type":[0,0,0,0,0,0,0,0,0,0,0,0,0,0,0,0,0],"sum_hessian":[1.3135307E2,7.2813576E1,5.853949E1,6.2397823E1,1.0415754E1,3.8257122E1,2.0282368E1,4.5492157E1,1.6905666E1,2.6273945E1,1.1983179E1,1.017067E1,1.0111697E1,2.5596096E1,1.989606E1,1.1836782E1,1.4437162E1],"tree_param":{"num_deleted":"0","num_feature":"64","num_nodes":"17","size_leaf_vector":"1"}},{"base_weights":[-2.159688E-3,1.302542E-1,-5.069948E-1,2.8064886E-1,-1.531914E-1,4.6593734E-4,-4.1217506E-2,4.3937236E-2,1.1584001E-1,-2.3947919E-2,1.1811976E-2,-7.562779E-3,1.7334236E-2],"categories":[],"categories_nodes":[],"categories_segments":[],"categories_sizes":[],"default_left":[0,0,0,0,0,0,0,0,0,0,0,0,0],"id":16,"left_children":[1,3,5,7,9,-1,-1,-1,11,-1,-1,-1,-1],"loss_changes":[8.892745E0,4.5361204E0,4.536895E0,6.72095E0,4.8306103E0,0E0,0E0,0E0,3.469218E0,0E0,0E0,0E0,0E0],"parents":[2147483647,0,0,1,1,2,2,3,3,4,4,8,8],"right_children":[2,4,6,8,10,-1,-1,-1,12,-1,-1,-1,-1],"split_conditions":[7.390201E0,4.4815E-1,3.0111077E-1,-3.38994E3,6.628E1,4.6593734E-4,-4.1217506E-2,4.3937236E-2,4.95E-1,-2.3947919E-2,1.1811976E-2,-7.562779E-3,1.7334236E-2],"split_indices":[14,21,16,39,42,0,0,0,3,0,0,0,0],"split_type":[0,0,0,0,0,0,0,0,0,0,0,0,0],"sum_hessian":[1.3104308E2,1.0440146E2,2.6641613E1,6.8216194E1,3.618527E1,1.051124E1,1.6130371E1,1.38008E1,5.4415394E1,1.9577988E1,1.660728E1,2.5386768E1,2.9028625E1],"tree_param":{"num_deleted":"0","num_feature":"64","num_nodes":"13","size_leaf_vector":"1"}},{"base_weights":[-2.0675636E-3,-3.9485674E-2,7.672851E-2,2.787758E-1,-2.9472774E-1,4.049922E-1,-1.7385058E-2,1.1975466E-2,-5.947126E-1,1.2498281E-2,5.2826263E-2,-4.8324402E-2,-7.2159963E-3],"categories":[],"categories_nodes":[],"categories_segments":[],"categories_sizes":[],"default_left":[0,0,0,0,0,0,0,0,0,0,0,0,0],"id":17,"left_children":[1,-1,3,5,7,9,-1,-1,11,-1,-1,-1,-1],"loss_changes":[8.232822E0,0E0,9.134309E0,6.3585315E0,7.0302477E0,6.3931446E0,0E0,0E0,4.517226E0,0E0,0E0,0E0,0E0],"parents":[2147483647,0,0,2,2,3,3,4,4,5,5,8,8],"right_children":[2,-1,4,6,8,10,-1,-1,12,-1,-1,-1,-1],"split_conditions":[-4.358392E4,-3.9485674E-2,3.17296E3,1E0,2.678E-1,1.338515E2,-1.7385058E-2,1.1975466E-2,6.618E-2,1.2498281E-2,5.2826263E-2,-4.8324402E-2,-7.2159963E-3],"split_indices":[39,0,39,52,46,44,0,0,20,0,0,0,0],"split_type":[0,0,0,0,0,0,0,0,0,0,0,0,0],"sum_hessian":[1.3067549E2,1.1063404E1,1.1961208E2,7.7633934E1,4.1978153E1,6.491004E1,1.2723891E1,1.516777E1,2.6810383E1,5.355157E1,1.1358471E1,1.4059296E1,1.2751086E1],"tree_param":{"num_deleted":"0","num_feature":"64","num_nodes":"13","size_leaf_vector":"1"}},{"base_weights":[-2.2568472E-3,-2.8284023E-2,1.03984706E-1,1.9469802E-1,-1.5541792E-2,3.1108758E-1,-2.6263306E-2,9.844556E-3,4.4805884E-2],"categories":[],"categories_nodes":[],"categories_segments":[],"categories_sizes":[],"default_left":[0,0,0,0,0,0,0,0,0],"id":18,"left_children":[1,-1,3,5,-1,7,-1,-1,-1],"loss_changes":[7.9244094E0,0E0,4.252469E0,7.874766E0,0E0,5.1579866E0,0E0,0E0,0E0],"parents":[2147483647,0,0,2,2,3,3,5,5],"right_children":[2,-1,4,6,-1,8,-1,-1,-1],"split_conditions":[0E0,-2.8284023E-2,2.092911E4,1E0,-1.5541792E-2,1.3521239E2,-2.6263306E-2,9.844556E-3,4.4805884E-2],"split_indices":[50,0,39,52,0,44,0,0,0],"split_type":[0,0,0,0,0,0,0,0,0],"sum_hessian":[1.3040193E2,2.0002033E1,1.10399895E2,9.102509E1,1.9374804E1,7.884664E1,1.21784525E1,6.7087814E1,1.1758828E1],"tree_param":{"num_deleted":"0","num_feature":"64","num_nodes":"9","size_leaf_vector":"1"}},{"base_weights":[-2.275283E-3,-3.7496537E-2,7.269165E-2,2.6147595E-1,-2.7523905E-1,3.7585863E-1,-1.5421832E-2,1.1499662E-2,-5.611701E-1,1.1337279E-2,5.196936E-2,-4.6246845E-2,-6.3055153E-3],"categories":[],"categories_nodes":[],"categories_segments":[],"categories_sizes":[],"default_left":[0,0,0,0,0,0,0,0,0,0,0,0,0],"id":19,"left_children":[1,-1,3,5,7,9,-1,-1,11,-1,-1,-1,-1],"loss_changes":[7.405194E0,0E0,7.961021E0,5.2249165E0,6.302408E0,6.267044E0,0E0,0E0,4.2481794E0,0E0,0E0,0E0,0E0],"parents":[2147483647,0,0,2,2,3,3,4,4,5,5,8,8],"right_children":[2,-1,4,6,8,10,-1,-1,12,-1,-1,-1,-1],"split_conditions":[-4.358392E4,-3.7496537E-2,3.17296E3,1E0,2.678E-1,1.51358E0,-1.5421832E-2,1.1499662E-2,6.618E-2,1.1337279E-2,5.196936E-2,-4.6246845E-2,-6.3055153E-3],"split_indices":[39,0,39,52,46,27,0,0,20,0,0,0,0],"split_type":[0,0,0,0,0,0,0,0,0,0,0,0,0],"sum_hessian":[1.3014638E2,1.103995E1,1.1910642E2,7.737297E1,4.1733448E1,6.472335E1,1.264962E1,1.5153416E1,2.6580032E1,5.394268E1,1.0780671E1,1.3862867E1,1.2717165E1],"tree_param":{"num_deleted":"0","num_feature":"64","num_nodes":"13","size_leaf_vector":"1"}},{"base_weights":[-2.4179602E-3,2.0307876E-1,-2.6012763E-1,1.0922551E-1,3.5340004E-2,-3.0737568E-3,-3.620159E-2,2.9130557E-1,-1.8357536E-2,3.57631E-1,-3.9126042E-2,1.2134407E-3,3.0922843E-2,-6.1716433E-3,3.668527E-2],"categories":[],"categories_nodes":[],"categories_segments":[],"categories_sizes":[],"default_left":[0,0,0,0,0,0,0,0,0,0,0,0,0,0,0],"id":20,"left_children":[1,3,5,7,-1,9,-1,11,-1,13,-1,-1,-1,-1,-1],"loss_changes":[6.981347E0,3.3904762E0,6.9713545E0,5.5725684E0,0E0,1.1141582E1,0E0,4.016328E0,0E0,4.992893E0,0E0,0E0,0E0,0E0,0E0],"parents":[2147483647,0,0,1,1,2,2,3,3,5,5,7,7,9,9],"right_children":[2,4,6,8,-1,10,-1,12,-1,14,-1,-1,-1,-1,-1],"split_conditions":[2E0,1.1181945E2,1.20007E0,1.977E-1,3.5340004E-2,1.918394E4,-3.620159E-2,4.25E-1,-1.8357536E-2,6E0,-3.9126042E-2,1.2134407E-3,3.0922843E-2,-6.1716433E-3,3.668527E-2],"split_indices":[6,42,29,45,0,39,0,0,0,5,0,0,0,0,0],"split_type":[0,0,0,0,0,0,0,0,0,0,0,0,0,0,0],"sum_hessian":[1.2982927E2,7.234979E1,5.747947E1,6.2012478E1,1.03373165E1,3.7633175E1,1.9846292E1,4.5145504E1,1.6866974E1,2.6097301E1,1.1535875E1,2.5447886E1,1.9697618E1,1.1745092E1,1.4352209E1],"tree_param":{"num_deleted":"0","num_feature":"64","num_nodes":"15","size_leaf_vector":"1"}},{"base_weights":[-2.2882125E-3,-2.6245354E-2,9.528233E-2,2.4687614E-2,3.137977E-2,2.4285442E-1,-3.0969626E-1,-1.2621445E-2,1.9852242E-2,-3.1137368E-2,3.8106658E-3],"categories":[],"categories_nodes":[],"categories_segments":[],"categories_sizes":[],"default_left":[0,0,0,0,0,0,0,0,0,0,0],"id":21,"left_children":[1,-1,3,5,-1,7,9,-1,-1,-1,-1],"loss_changes":[6.7026286E0,0E0,4.1476297E0,7.2867436E0,0E0,4.7115717E0,4.815876E0,0E0,0E0,0E0,0E0],"parents":[2147483647,0,0,2,2,3,3,5,5,6,6],"right_children":[2,-1,4,6,-1,8,10,-1,-1,-1,-1],"split_conditions":[0E0,-2.6245354E-2,1.8216667E2,1.977E-1,3.137977E-2,4.7E-1,6.6E-2,-1.2621445E-2,1.9852242E-2,-3.1137368E-2,3.8106658E-3],"split_indices":[50,0,42,45,0,3,18,0,0,0,0],"split_type":[0,0,0,0,0,0,0,0,0,0,0],"sum_hessian":[1.2946335E2,1.9678623E1,1.0978473E2,9.785385E1,1.1930881E1,5.9383293E1,3.8470554E1,1.3946823E1,4.543647E1,2.0901487E1,1.7569067E1],"tree_param":{"num_deleted":"0","num_feature":"64","num_nodes":"11","size_leaf_vector":"1"}},{"base_weights":[-2.300977E-3,-3.5748933E-2,6.9279276E-2,2.4103004E-1,-2.4860857E-1,3.7084863E-2,1.1183716E-1,1.0931158E-2,-5.167679E-1,1.0817769E-2,-1.9961769E-2,-4.7460448E-2,-8.313515E-3],"categories":[],"categories_nodes":[],"categories_segments":[],"categories_sizes":[],"default_left":[0,0,0,0,0,0,0,0,0,0,0,0,0],"id":22,"left_children":[1,-1,3,5,7,-1,9,-1,11,-1,-1,-1,-1],"loss_changes":[6.686978E0,0E0,6.565071E0,4.953354E0,5.4110556E0,0E0,3.455284E0,0E0,3.95934E0,0E0,0E0,0E0,0E0],"parents":[2147483647,0,0,2,2,3,3,4,4,6,6,8,8],"right_children":[2,-1,4,6,8,-1,10,-1,12,-1,-1,-1,-1],"split_conditions":[-4.358392E4,-3.5748933E-2,3.17296E3,-1.3166666E-1,2.678E-1,3.7084863E-2,7.9645E-1,1.0931158E-2,6.772528E4,1.0817769E-2,-1.9961769E-2,-4.7460448E-2,-8.313515E-3],"split_indices":[39,0,39,18,46,0,29,0,11,0,0,0,0],"split_type":[0,0,0,0,0,0,0,0,0,0,0,0,0],"sum_hessian":[1.2911116E2,1.0963755E1,1.18147415E2,7.6861755E1,4.1285656E1,1.4792948E1,6.206881E1,1.5122118E1,2.6163536E1,5.20092E1,1.005961E1,1.0947916E1,1.5215621E1],"tree_param":{"num_deleted":"0","num_feature":"64","num_nodes":"13","size_leaf_vector":"1"}},{"base_weights":[-2.6070622E-3,-3.4140125E-2,6.5805E-2,2.2974338E-1,-2.3798645E-1,1.270948E-1,4.0769346E-2,-3.6528558E-2,1.2671041E-2,-2.2809153E-2,1.2047941E-2,-2.886112E-2,2.3839945E-2],"categories":[],"categories_nodes":[],"categories_segments":[],"categories_sizes":[],"default_left":[0,0,0,0,0,0,0,0,0,0,0,0,0],"id":23,"left_children":[1,-1,3,5,7,9,-1,-1,11,-1,-1,-1,-1],"loss_changes":[6.0870113E0,0E0,5.9757485E0,4.569018E0,5.2149754E0,4.580975E0,0E0,0E0,8.194679E0,0E0,0E0,0E0,0E0],"parents":[2147483647,0,0,2,2,3,3,4,4,5,5,8,8],"right_children":[2,-1,4,6,8,10,-1,-1,12,-1,-1,-1,-1],"split_conditions":[-4.358392E4,-3.4140125E-2,3.17296E3,2.0314E3,3.741603E4,-4.99E1,4.0769346E-2,-3.6528558E-2,1E0,-2.2809153E-2,1.2047941E-2,-2.886112E-2,2.3839945E-2],"split_indices":[39,0,39,50,35,48,0,0,55,0,0,0,0],"split_type":[0,0,0,0,0,0,0,0,0,0,0,0,0],"sum_hessian":[1.2884344E2,1.0953746E1,1.178897E2,7.672791E1,4.1161793E1,6.6320595E1,1.0407313E1,1.3236059E1,2.7925732E1,1.0341093E1,5.5979504E1,1.2189522E1,1.5736211E1],"tree_param":{"num_deleted":"0","num_feature":"64","num_nodes":"13","size_leaf_vector":"1"}},{"base_weights":[-2.8438114E-3,-8.614755E-2,2.6698863E-2,1.9275433E-1,-4.4061974E-1,-1.2770253E-2,3.478541E-1,-7.818826E-2,-7.6660085E-1,4.26279E-2,9.394164E-3,1.6027207E-2,-2.0562936E-2,-5.4769892E-2,-1.5927842E-2],"categories":[],"categories_nodes":[],"categories_segments":[],"categories_sizes":[],"default_left":[0,0,0,0,0,0,0,0,0,0,0,0,0,0,0],"id":24,"left_children":[1,3,-1,5,7,-1,9,11,13,-1,-1,-1,-1,-1,-1],"loss_changes":[5.8387284E0,1.1256015E1,0E0,4.5328918E0,5.85458E0,0E0,3.708786E0,3.4279156E0,3.5169573E0,0E0,0E0,0E0,0E0,0E0,0E0],"parents":[2147483647,0,0,1,1,3,3,4,4,6,6,7,7,8,8],"right_children":[2,4,-1,6,8,-1,10,12,14,-1,-1,-1,-1,-1,-1],"split_conditions":[1.5867667E2,3.393E-1,2.6698863E-2,4.7E-1,-5.1E1,-1.2770253E-2,-1.6841666E-1,-9.6644E-1,6.5197E-1,4.26279E-2,9.394164E-3,1.6027207E-2,-2.0562936E-2,-5.4769892E-2,-1.5927842E-2],"split_indices":[42,45,0,3,49,0,18,29,21,0,0,0,0,0,0],"split_type":[0,0,0,0,0,0,0,0,0,0,0,0,0,0,0],"sum_hessian":[1.2853558E2,1.1199565E2,1.6539928E1,6.293447E1,4.906118E1,1.6014374E1,4.6920097E1,2.3818836E1,2.5242344E1,1.0250518E1,3.666958E1,1.0857947E1,1.2960889E1,1.3725236E1,1.1517107E1],"tree_param":{"num_deleted":"0","num_feature":"64","num_nodes":"15","size_leaf_vector":"1"}},{"base_weights":[-2.8147637E-3,-3.3126533E-2,6.358431E-2,-1.7573409E-2,3.082998E-2,2.1092027E-1,-3.1429383E-1,3.6427055E-2,4.283888E-3,3.0110425E-3,-3.3107463E-2],"categories":[],"categories_nodes":[],"categories_segments":[],"categories_sizes":[],"default_left":[0,0,0,0,0,0,0,0,0,0,0],"id":25,"left_children":[1,-1,3,5,-1,7,9,-1,-1,-1,-1],"loss_changes":[5.6974354E0,0E0,5.3162723E0,7.1210523E0,0E0,3.7873414E0,5.989668E0,0E0,0E0,0E0,0E0],"parents":[2147483647,0,0,2,2,3,3,5,5,6,6],"right_children":[2,-1,4,6,-1,8,10,-1,-1,-1,-1],"split_conditions":[-4.358392E4,-3.3126533E-2,1.5867667E2,3.376E-1,3.082998E-2,-2.1349E2,-5.1E1,3.6427055E-2,4.283888E-3,3.0110425E-3,-3.3107463E-2],"split_indices":[39,0,42,45,0,39,49,0,0,0,0],"split_type":[0,0,0,0,0,0,0,0,0,0,0],"sum_hessian":[1.281033E2,1.0893331E1,1.1720998E2,1.0305445E2,1.4155528E1,5.8384113E1,4.4670338E1,1.0435928E1,4.7948185E1,2.1909065E1,2.2761272E1],"tree_param":{"num_deleted":"0","num_feature":"64","num_nodes":"11","size_leaf_vector":"1"}},{"base_weights":[-2.63359E-3,-3.165966E-2,6.0901795E-2,1.3126002E-1,-2.6693156E-2,5.1229063E-2,3.3007395E-2,3.212402E-2,-2.2837443E-3],"categories":[],"categories_nodes":[],"categories_segments":[],"categories_sizes":[],"default_left":[0,0,0,0,0,0,0,0,0],"id":26,"left_children":[1,-1,3,5,-1,7,-1,-1,-1],"loss_changes":[5.197442E0,0E0,5.00357E0,4.462462E0,0E0,5.377733E0,0E0,0E0,0E0],"parents":[2147483647,0,0,2,2,3,3,5,5],"right_children":[2,-1,4,6,-1,8,-1,-1,-1],"split_conditions":[-4.358392E4,-3.165966E-2,4.088017E4,1.5867667E2,-2.6693156E-2,-2.2566667E-1,3.3007395E-2,3.212402E-2,-2.2837443E-3],"split_indices":[39,0,39,42,0,18,0,0,0],"split_type":[0,0,0,0,0,0,0,0,0],"sum_hessian":[1.27769684E2,1.0874937E1,1.1689475E2,1.05226234E2,1.1668519E1,9.2348915E1,1.2877314E1,1.2211486E1,8.013743E1],"tree_param":{"num_deleted":"0","num_feature":"64","num_nodes":"9","size_leaf_vector":"1"}},{"base_weights":[-2.46917E-3,-2.3538072E-2,8.3659925E-2,1.0356033E-2,2.6012072E-2,-1.9335003E-1,2.687012E-1,1.4311911E-3,-3.1351473E-2,3.6865869E-3,3.0997187E-2],"categories":[],"categories_nodes":[],"categories_segments":[],"categories_sizes":[],"default_left":[0,0,0,0,0,0,0,0,0,0,0],"id":27,"left_children":[1,-1,3,5,-1,7,9,-1,-1,-1,-1],"loss_changes":[5.2285743E0,0E0,3.4995673E0,5.040649E0,0E0,5.176201E0,2.8449507E0,0E0,0E0,0E0,0E0],"parents":[2147483647,0,0,2,2,3,3,5,5,6,6],"right_children":[2,-1,4,6,-1,8,10,-1,-1,-1,-1],"split_conditions":[0E0,-2.3538072E-2,5.45E-1,6.667203E4,2.6012072E-2,5.2792E-1,6.4982843E-1,1.4311911E-3,-3.1351473E-2,3.6865869E-3,3.0997187E-2],"split_indices":[50,0,3,10,0,27,25,0,0,0,0],"split_type":[0,0,0,0,0,0,0,0,0,0,0],"sum_hessian":[1.2765682E2,1.9137672E1,1.0851915E2,9.3794395E1,1.4724755E1,5.2583614E1,4.121078E1,3.5399025E1,1.7184587E1,2.72787E1,1.3932081E1],"tree_param":{"num_deleted":"0","num_feature":"64","num_nodes":"11","size_leaf_vector":"1"}},{"base_weights":[-2.3021079E-3,1.6926429E-1,-2.2031881E-1,2.9276116E-2,6.325916E-2,1.6160894E-2,-3.2584984E-2,2.0774114E-1,-1.7950807E-2,3.3496466E-1,-3.4813695E-2,1.332269E-3,3.1727847E-2,-5.9093763E-3,3.4396946E-2],"categories":[],"categories_nodes":[],"categories_segments":[],"categories_sizes":[],"default_left":[0,0,0,0,0,0,0,0,0,0,0,0,0,0,0],"id":28,"left_children":[1,3,5,-1,7,9,-1,11,-1,13,-1,-1,-1,-1,-1],"loss_changes":[4.8400016E0,3.1585293E0,5.8231974E0,0E0,3.6645927E0,8.814049E0,0E0,3.4207587E0,0E0,4.36408E0,0E0,0E0,0E0,0E0,0E0],"parents":[2147483647,0,0,1,1,2,2,4,4,5,5,7,7,9,9],"right_children":[2,4,6,-1,8,10,-1,12,-1,14,-1,-1,-1,-1,-1],"split_conditions":[2E0,-1.120834E4,1.20007E0,2.9276116E-2,1.507E-1,1.918394E4,-3.2584984E-2,4.9E-1,-1.7950807E-2,6E0,-3.4813695E-2,1.332269E-3,3.1727847E-2,-5.9093763E-3,3.4396946E-2],"split_indices":[6,39,29,0,46,39,0,0,0,5,0,0,0,0,0],"split_type":[0,0,0,0,0,0,0,0,0,0,0,0,0,0,0],"sum_hessian":[1.2739978E2,7.142002E1,5.597976E1,1.3578157E1,5.784186E1,3.6779858E1,1.9199902E1,4.347491E1,1.4366949E1,2.577553E1,1.1004328E1,3.1269745E1,1.2205167E1,1.1577447E1,1.4198084E1],"tree_param":{"num_deleted":"0","num_feature":"64","num_nodes":"15","size_leaf_vector":"1"}},{"base_weights":[-2.1671208E-3,-3.06974E-2,5.9336018E-2,1.9999413E-1,-2.0309989E-1,6.815679E-2,3.0548388E-2,-3.444285E-2,4.1314963E-2,9.834376E-3,-1.6815156E-2,-2.5737254E-2,2.3497147E-2],"categories":[],"categories_nodes":[],"categories_segments":[],"categories_sizes":[],"default_left":[0,0,0,0,0,0,0,0,0,0,0,0,0],"id":29,"left_children":[1,-1,3,5,7,9,-1,-1,11,-1,-1,-1,-1],"loss_changes":[4.853216E0,0E0,4.3681593E0,4.1211033E0,4.944256E0,3.1486142E0,0E0,0E0,7.031887E0,0E0,0E0,0E0,0E0],"parents":[2147483647,0,0,2,2,3,3,4,4,5,5,8,8],"right_children":[2,-1,4,6,8,10,-1,-1,12,-1,-1,-1,-1],"split_conditions":[-4.358392E4,-3.06974E-2,3.17296E3,2.38281E0,3.741603E4,2E0,3.0548388E-2,-3.444285E-2,1E0,9.834376E-3,-1.6815156E-2,-2.5737254E-2,2.3497147E-2],"split_indices":[39,0,39,28,35,6,0,0,55,0,0,0,0],"split_type":[0,0,0,0,0,0,0,0,0,0,0,0,0],"sum_hessian":[1.2701599E2,1.0782132E1,1.16233864E2,7.582941E1,4.0404457E1,5.8294727E1,1.7534681E1,1.2916145E1,2.748831E1,4.4626774E1,1.36679535E1,1.1878017E1,1.5610292E1],"tree_param":{"num_deleted":"0","num_feature":"64","num_nodes":"13","size_leaf_vector":"1"}},{"base_weights":[-2.4195956E-3,-2.222393E-2,7.814047E-2,9.0518445E-3,2.4512103E-2,-1.9094287E-1,2.6255485E-1,-1.0141706E-3,-3.458416E-2,3.627592E-3,3.0169165E-2],"categories":[],"categories_nodes":[],"categories_segments":[],"categories_sizes":[],"default_left":[0,0,0,0,0,0,0,0,0,0,0],"id":30,"left_children":[1,-1,3,5,-1,7,9,-1,-1,-1,-1],"loss_changes":[4.582227E0,0E0,3.09501E0,4.8285365E0,0E0,4.537721E0,2.6751535E0,0E0,0E0,0E0,0E0],"parents":[2147483647,0,0,2,2,3,3,5,5,6,6],"right_children":[2,-1,4,6,-1,8,10,-1,-1,-1,-1],"split_conditions":[0E0,-2.222393E-2,5.45E-1,6.667203E4,2.4512103E-2,3.9902E-1,6.4982843E-1,-1.0141706E-3,-3.458416E-2,3.627592E-3,3.0169165E-2],"split_indices":[50,0,3,10,0,21,25,0,0,0,0],"split_type":[0,0,0,0,0,0,0,0,0,0,0],"sum_hessian":[1.2669452E2,1.883322E1,1.078613E2,9.3249954E1,1.4611342E1,5.2264217E1,4.0985733E1,3.9755486E1,1.2508732E1,2.7094257E1,1.3891479E1],"tree_param":{"num_deleted":"0","num_feature":"64","num_nodes":"11","size_leaf_vector":"1"}},{"base_weights":[-2.3043025E-3,-2.9493405E-2,5.672933E-2,-1.6789583E-2,2.780217E-2,1.9179888E-1,-2.901072E-1,3.4093592E-2,3.7411803E-3,2.4325696E-3,-3.055771E-2],"categories":[],"categories_nodes":[],"categories_segments":[],"categories_sizes":[],"default_left":[0,0,0,0,0,0,0,0,0,0,0],"id":31,"left_children":[1,-1,3,5,-1,7,9,-1,-1,-1,-1],"loss_changes":[4.4547544E0,0E0,4.294779E0,5.9122977E0,0E0,3.3235314E0,4.9089327E0,0E0,0E0,0E0,0E0],"parents":[2147483647,0,0,2,2,3,3,5,5,6,6],"right_children":[2,-1,4,6,-1,8,10,-1,-1,-1,-1],"split_conditions":[-4.358392E4,-2.9493405E-2,1.5867667E2,3.376E-1,2.780217E-2,-2.1349E2,-5.1E1,3.4093592E-2,3.7411803E-3,2.4325696E-3,-3.055771E-2],"split_indices":[39,0,42,45,0,39,49,0,0,0,0],"split_type":[0,0,0,0,0,0,0,0,0,0,0],"sum_hessian":[1.2646609E2,1.072525E1,1.1574084E2,1.017287E2,1.4012141E1,5.7865555E1,4.386314E1,1.02198515E1,4.7645702E1,2.1755692E1,2.210745E1],"tree_param":{"num_deleted":"0","num_feature":"64","num_nodes":"11","size_leaf_vector":"1"}},{"base_weights":[-2.14697E-3,-7.291732E-2,2.2477472E-2,1.6443771E-1,-3.800655E-1,3.408706E-2,4.336736E-2,-6.4262986E-1,-5.1134143E-2,-4.248553E-3,2.3990178E-2,-1.4848265E-2,-5.2864004E-2,1.3615799E-2,-1.6791334E-2],"categories":[],"categories_nodes":[],"categories_segments":[],"categories_sizes":[],"default_left":[0,0,0,0,0,0,0,0,0,0,0,0,0,0,0],"id":32,"left_children":[1,3,-1,5,7,-1,9,11,13,-1,-1,-1,-1,-1,-1],"loss_changes":[4.096302E0,8.137191E0,0E0,3.9271555E0,4.1630564E0,0E0,2.9680634E0,3.5459957E0,2.1773767E0,0E0,0E0,0E0,0E0,0E0,0E0],"parents":[2147483647,0,0,1,1,3,3,4,4,6,6,7,7,8,8],"right_children":[2,4,-1,6,8,-1,10,12,14,-1,-1,-1,-1,-1,-1],"split_conditions":[1.5867667E2,3.393E-1,2.2477472E-2,-2.3125E-1,6.8816E-1,3.408706E-2,5.3E-1,3.2719E-1,2.7473527E-1,-4.248553E-3,2.3990178E-2,-1.4848265E-2,-5.2864004E-2,1.3615799E-2,-1.6791334E-2],"split_indices":[42,45,0,18,22,0,3,22,26,0,0,0,0,0,0],"split_type":[0,0,0,0,0,0,0,0,0,0,0,0,0,0,0],"sum_hessian":[1.2611732E2,1.0975917E2,1.6358145E1,6.2176014E1,4.7583153E1,1.09136715E1,5.1262344E1,2.593069E1,2.1652464E1,4.0235886E1,1.1026457E1,1.5077677E1,1.0853014E1,1.0156616E1,1.1495848E1],"tree_param":{"num_deleted":"0","num_feature":"64","num_nodes":"15","size_leaf_vector":"1"}},{"base_weights":[-2.0162938E-3,-2.856644E-2,5.5111628E-2,1.1900483E-1,-2.441572E-2,4.9066514E-2,2.8991709E-2,3.0033896E-2,-2.0162007E-3],"categories":[],"categories_nodes":[],"categories_segments":[],"categories_sizes":[],"default_left":[0,0,0,0,0,0,0,0,0],"id":33,"left_children":[1,-1,3,5,-1,7,-1,-1,-1],"loss_changes":[4.1557007E0,0E0,4.0911417E0,3.3472347E0,0E0,4.5621033E0,0E0,0E0,0E0],"parents":[2147483647,0,0,2,2,3,3,5,5],"right_children":[2,-1,4,6,-1,8,-1,-1,-1],"split_conditions":[-4.358392E4,-2.856644E-2,4.088017E4,1.5867667E2,-2.441572E-2,-2.2566667E-1,2.8991709E-2,3.0033896E-2,-2.0162007E-3],"split_indices":[39,0,39,42,0,18,0,0,0],"split_type":[0,0,0,0,0,0,0,0,0],"sum_hessian":[1.2580663E2,1.0652043E1,1.15154594E2,1.0373856E2,1.141603E1,9.102979E1,1.2708771E1,1.1896866E1,7.913293E1],"tree_param":{"num_deleted":"0","num_feature":"64","num_nodes":"9","size_leaf_vector":"1"}},{"base_weights":[-1.884611E-3,-2.0509057E-2,7.1680054E-2,4.85867E-3,2.344742E-2,9.3111955E-2,-3.038731E-2,2.8417313E-2,-8.734818E-4],"categories":[],"categories_nodes":[],"categories_segments":[],"categories_sizes":[],"default_left":[0,0,0,0,0,0,0,0,0],"id":34,"left_children":[1,-1,3,5,-1,7,-1,-1,-1],"loss_changes":[3.8340597E0,0E0,2.8695247E0,5.117884E0,0E0,4.355726E0,0E0,0E0,0E0],"parents":[2147483647,0,0,2,2,3,3,5,5],"right_children":[2,-1,4,6,-1,8,-1,-1,-1],"split_conditions":[0E0,-2.0509057E-2,7.2274536E-1,6.5609E-1,2.344742E-2,-1.491376E4,-3.038731E-2,2.8417313E-2,-8.734818E-4],"split_indices":[50,0,16,24,0,39,0,0,0],"split_type":[0,0,0,0,0,0,0,0,0],"sum_hessian":[1.25669106E2,1.8487045E1,1.0718206E2,9.261607E1,1.456599E1,8.1694916E1,1.0921155E1,1.4639735E1,6.705518E1],"tree_param":{"num_deleted":"0","num_feature":"64","num_nodes":"9","size_leaf_vector":"1"}},{"base_weights":[-1.7952814E-3,-2.767705E-2,5.3396642E-2,1.1460549E-1,-2.3417724E-2,4.8224363E-2,2.7658878E-2,2.8933484E-2,-1.8719686E-3],"categories":[],"categories_nodes":[],"categories_segments":[],"categories_sizes":[],"default_left":[0,0,0,0,0,0,0,0,0],"id":35,"left_children":[1,-1,3,5,-1,7,-1,-1,-1],"loss_changes":[3.8815026E0,0E0,3.755102E0,3.0166764E0,0E0,4.1971116E0,0E0,0E0,0E0],"parents":[2147483647,0,0,2,2,3,3,5,5],"right_children":[2,-1,4,6,-1,8,-1,-1,-1],"split_conditions":[-4.358392E4,-2.767705E-2,4.088017E4,1.5867667E2,-2.3417724E-2,-2.2566667E-1,2.7658878E-2,2.8933484E-2,-1.8719686E-3],"split_indices":[39,0,39,42,0,18,0,0,0],"split_type":[0,0,0,0,0,0,0,0,0],"sum_hessian":[1.2549274E2,1.0590605E1,1.1490214E2,1.0353621E2,1.1365928E1,9.088938E1,1.2646823E1,1.1837058E1,7.905232E1],"tree_param":{"num_deleted":"0","num_feature":"64","num_nodes":"9","size_leaf_vector":"1"}},{"base_weights":[-1.6774427E-3,1.4765683E-1,-1.938387E-1,5.504119E-2,3.0835917E-2,-3.6336854E-2,-2.0109354E-2,1.8492764E-1,-1.8485988E-2,-2.9037035E-1,2.62101E-2,-1.2307812E-3,2.16589E-2,-3.2235887E-2,3.3857375E-3],"categories":[],"categories_nodes":[],"categories_segments":[],"categories_sizes":[],"default_left":[0,0,0,0,0,0,0,0,0,0,0,0,0,0,0],"id":36,"left_children":[1,3,5,7,-1,-1,9,11,-1,13,-1,-1,-1,-1,-1],"loss_changes":[3.654355E0,3.0793414E0,5.1406164E0,3.4307916E0,0E0,0E0,6.4810367E0,2.4732597E0,0E0,3.7730658E0,0E0,0E0,0E0,0E0,0E0],"parents":[2147483647,0,0,1,1,2,2,3,3,6,6,7,7,9,9],"right_children":[2,4,6,8,-1,-1,10,12,-1,14,-1,-1,-1,-1,-1],"split_conditions":[2E0,6.768961E4,-1.71711E4,4.2711E-1,3.0835917E-2,-3.6336854E-2,3.226E-1,2.8308216E1,-1.8485988E-2,9.6767E-1,2.62101E-2,-1.2307812E-3,2.16589E-2,-3.2235887E-2,3.3857375E-3],"split_indices":[6,10,39,21,0,0,20,4,0,22,0,0,0,0,0],"split_type":[0,0,0,0,0,0,0,0,0,0,0,0,0,0,0],"sum_hessian":[1.2534865E2,7.066464E1,5.468401E1,5.9945763E1,1.0718876E1,1.2661842E1,4.2022167E1,4.6340164E1,1.36055975E1,2.8391687E1,1.363048E1,2.5617651E1,2.0722515E1,1.38679905E1,1.4523696E1],"tree_param":{"num_deleted":"0","num_feature":"64","num_nodes":"15","size_leaf_vector":"1"}},{"base_weights":[-1.6535044E-3,-1.9610865E-2,6.826156E-2,3.2547603E-3,2.2885216E-2,-1.8557347E-1,2.4428174E-1,-2.8135724E-4,-3.0132193E-2,3.212322E-3,2.8356655E-2],"categories":[],"categories_nodes":[],"categories_segments":[],"categories_sizes":[],"default_left":[0,0,0,0,0,0,0,0,0,0,0],"id":37,"left_children":[1,-1,3,5,-1,7,9,-1,-1,-1,-1],"loss_changes":[3.4712698E0,0E0,2.7286918E0,4.2972717E0,0E0,3.970687E0,2.3740473E0,0E0,0E0,0E0,0E0],"parents":[2147483647,0,0,2,2,3,3,5,5,6,6],"right_children":[2,-1,4,6,-1,8,10,-1,-1,-1,-1],"split_conditions":[0E0,-1.9610865E-2,5.45E-1,6.667203E4,2.2885216E-2,2.8644907E-1,6.4982843E-1,-2.8135724E-4,-3.0132193E-2,3.212322E-3,2.8356655E-2],"split_indices":[50,0,3,10,0,26,25,0,0,0,0],"split_type":[0,0,0,0,0,0,0,0,0,0,0],"sum_hessian":[1.25142975E2,1.830068E1,1.0684229E2,9.242314E1,1.4419151E1,5.1952198E1,4.047094E1,3.7001343E1,1.4950855E1,2.6751944E1,1.3718997E1],"tree_param":{"num_deleted":"0","num_feature":"64","num_nodes":"11","size_leaf_vector":"1"}},{"base_weights":[-1.5432737E-3,-2.6248468E-2,5.048146E-2,1.7830245E-1,-1.8905172E-1,5.413697E-2,2.8450554E-2,-3.1922348E-2,6.5677755E-2,-5.043966E-3,1.8325822E-2,-2.2244181E-2,2.2956207E-2],"categories":[],"categories_nodes":[],"categories_segments":[],"categories_sizes":[],"default_left":[0,0,0,0,0,0,0,0,0,0,0,0,0],"id":38,"left_children":[1,-1,3,5,7,9,-1,-1,11,-1,-1,-1,-1],"loss_changes":[3.4548872E0,0E0,3.5678625E0,3.6455014E0,4.695214E0,2.8751326E0,0E0,0E0,5.5979147E0,0E0,0E0,0E0,0E0],"parents":[2147483647,0,0,2,2,3,3,4,4,5,5,8,8],"right_children":[2,-1,4,6,8,10,-1,-1,12,-1,-1,-1,-1],"split_conditions":[-4.358392E4,-2.6248468E-2,3.17296E3,2.38281E0,3.872778E4,2.8853989E1,2.8450554E-2,-3.1922348E-2,1E0,-5.043966E-3,1.8325822E-2,-2.2244181E-2,2.2956207E-2],"split_indices":[39,0,39,28,35,4,0,0,55,0,0,0,0],"split_type":[0,0,0,0,0,0,0,0,0,0,0,0,0],"sum_hessian":[1.2489964E2,1.0469925E1,1.1442972E2,7.478055E1,3.9649174E1,5.7610683E1,1.716986E1,1.3798828E1,2.5850346E1,3.8956055E1,1.8654629E1,1.1193807E1,1.465654E1],"tree_param":{"num_deleted":"0","num_feature":"64","num_nodes":"13","size_leaf_vector":"1"}},{"base_weights":[-1.6017645E-3,-1.8853381E-2,6.529219E-2,-3.201091E-4,2.142354E-2,-8.058497E-2,2.359814E-2,-1.2722862E-2,8.233121E-3],"categories":[],"categories_nodes":[],"categories_segments":[],"categories_sizes":[],"default_left":[0,0,0,0,0,0,0,0,0],"id":39,"left_children":[1,-1,3,5,-1,7,-1,-1,-1],"loss_changes":[3.1810157E0,0E0,2.5622087E0,3.52805E0,0E0,3.4338975E0,0E0,0E0,0E0],"parents":[2147483647,0,0,2,2,3,3,5,5],"right_children":[2,-1,4,6,-1,8,-1,-1,-1],"split_conditions":[0E0,-1.8853381E-2,2.4616666E-1,5.4E-1,2.142354E-2,6.667203E4,2.359814E-2,-1.2722862E-2,8.233121E-3],"split_indices":[50,0,18,3,0,10,0,0,0],"split_type":[0,0,0,0,0,0,0,0,0],"sum_hessian":[1.2467074E2,1.8151615E1,1.0651913E2,9.1066124E1,1.5453001E1,7.854646E1,1.2519664E1,4.5939396E1,3.2607063E1],"tree_param":{"num_deleted":"0","num_feature":"64","num_nodes":"9","size_leaf_vector":"1"}},{"base_weights":[-1.349538E-3,-2.532355E-2,4.8738416E-2,1.0763703E-1,-2.2765823E-2,2.5710022E-2,4.1207056E-2,-2.2047516E-2,7.37887E-3],"categories":[],"categories_nodes":[],"categories_segments":[],"categories_sizes":[],"default_left":[0,0,0,0,0,0,0,0,0],"id":40,"left_children":[1,-1,3,5,-1,-1,7,-1,-1],"loss_changes":[3.2006567E0,0E0,3.4666357E0,2.7844648E0,0E0,0E0,4.7003946E0,0E0,0E0],"parents":[2147483647,0,0,2,2,3,3,6,6],"right_children":[2,-1,4,6,-1,-1,8,-1,-1],"split_conditions":[-4.358392E4,-2.532355E-2,4.088017E4,-2.2566667E-1,-2.2765823E-2,2.5710022E-2,-9.97E1,-2.2047516E-2,7.37887E-3],"split_indices":[39,0,39,18,0,0,48,0,0],"split_type":[0,0,0,0,0,0,0,0,0],"sum_hessian":[1.24530014E2,1.0412415E1,1.141176E2,1.028823E2,1.1235299E1,1.3502722E1,8.937958E1,1.5585939E1,7.379364E1],"tree_param":{"num_deleted":"0","num_feature":"64","num_nodes":"9","size_leaf_vector":"1"}},{"base_weights":[-1.5857656E-3,-6.3285895E-2,1.9611191E-2,1.5740527E-1,-3.5200974E-1,-1.2255795E-2,2.9937702E-1,-6.0473543E-1,-3.8146656E-2,1.888552E-4,2.6048606E-2,-1.3483912E-2,-5.0422974E-2,-1.6052429E-2,1.1239995E-2],"categories":[],"categories_nodes":[],"categories_segments":[],"categories_sizes":[],"default_left":[0,0,0,0,0,0,0,0,0,0,0,0,0,0,0],"id":41,"left_children":[1,3,-1,5,7,-1,9,11,13,-1,-1,-1,-1,-1,-1],"loss_changes":[3.0700312E0,7.014278E0,0E0,3.6501772E0,3.7544017E0,0E0,3.0583692E0,3.287445E0,1.7317103E0,0E0,0E0,0E0,0E0,0E0,0E0],"parents":[2147483647,0,0,1,1,3,3,4,4,6,6,7,7,8,8],"right_children":[2,4,-1,6,8,-1,10,12,14,-1,-1,-1,-1,-1,-1],"split_conditions":[1.5867667E2,3.393E-1,1.9611191E-2,4.7E-1,6.8816E-1,-1.2255795E-2,2.8308216E1,3.2719E-1,3.00937E0,1.888552E-4,2.6048606E-2,-1.3483912E-2,-5.0422974E-2,-1.6052429E-2,1.1239995E-2],"split_indices":[42,45,0,3,22,0,4,22,28,0,0,0,0,0,0],"split_type":[0,0,0,0,0,0,0,0,0,0,0,0,0,0,0],"sum_hessian":[1.24327034E2,1.0821218E2,1.611485E1,6.1589775E1,4.6622406E1,1.5869562E1,4.572021E1,2.5313208E1,2.1309198E1,2.0024837E1,2.5695374E1,1.474449E1,1.0568719E1,1.0158641E1,1.1150558E1],"tree_param":{"num_deleted":"0","num_feature":"64","num_nodes":"15","size_leaf_vector":"1"}},{"base_weights":[-1.8073268E-3,1.3403197E-1,-1.774778E-1,2.7751846E-2,3.664338E-2,-3.4447756E-2,-1.22062275E-2,1.7089893E-1,-1.6972624E-2,-2.7219883E-1,2.5446031E-2,2.8593795E-4,2.8342381E-2,-3.079854E-2,3.6682927E-3],"categories":[],"categories_nodes":[],"categories_segments":[],"categories_sizes":[],"default_left":[0,0,0,0,0,0,0,0,0,0,0,0,0,0,0],"id":42,"left_children":[1,3,5,-1,7,-1,9,11,-1,13,-1,-1,-1,-1,-1],"loss_changes":[3.006602E0,2.893198E0,4.635621E0,0E0,3.0260348E0,0E0,5.902124E0,2.8733635E0,0E0,3.4940255E0,0E0,0E0,0E0,0E0,0E0],"parents":[2147483647,0,0,1,1,2,2,4,4,6,6,7,7,9,9],"right_children":[2,4,6,-1,8,-1,10,12,-1,14,-1,-1,-1,-1,-1],"split_conditions":[2E0,-1.239384E4,-1.71711E4,2.7751846E-2,1.507E-1,-3.4447756E-2,3.226E-1,4.9E-1,-1.6972624E-2,9.6767E-1,2.5446031E-2,2.8593795E-4,2.8342381E-2,-3.079854E-2,3.6682927E-3],"split_indices":[6,39,39,0,46,0,20,0,0,22,0,0,0,0,0],"split_type":[0,0,0,0,0,0,0,0,0,0,0,0,0,0,0],"sum_hessian":[1.2399771E2,7.0060005E1,5.3937706E1,1.227908E1,5.7780922E1,1.2398522E1,4.153918E1,4.298286E1,1.4798064E1,2.8031706E1,1.3507476E1,3.1045763E1,1.1937096E1,1.3660033E1,1.4371673E1],"tree_param":{"num_deleted":"0","num_feature":"64","num_nodes":"15","size_leaf_vector":"1"}},{"base_weights":[-1.700306E-3,-2.4547977E-2,4.6549443E-2,2.2863166E-2,-2.0695297E-2,-2.4878148E-2,9.0814725E-2,-5.1649864E-4,3.3744466E-2],"categories":[],"categories_nodes":[],"categories_segments":[],"categories_sizes":[],"default_left":[0,0,0,0,0,0,0,0,0],"id":43,"left_children":[1,-1,3,-1,5,-1,7,-1,-1],"loss_changes":[2.9684427E0,0E0,3.171506E0,0E0,5.327615E0,0E0,4.8132925E0,0E0,0E0],"parents":[2147483647,0,0,2,2,4,4,6,6],"right_children":[2,-1,4,-1,6,-1,8,-1,-1],"split_conditions":[-4.358392E4,-2.4547977E-2,-2.2566667E-1,2.2863166E-2,-9.97E1,-2.4878148E-2,3.667219E4,-5.1649864E-4,3.3744466E-2],"split_indices":[39,0,18,0,48,0,36,0,0],"split_type":[0,0,0,0,0,0,0,0,0],"sum_hessian":[1.2377801E2,1.0287359E1,1.1349065E2,1.5151167E1,9.8339485E1,1.7981281E1,8.03582E1,6.933391E1,1.1024297E1],"tree_param":{"num_deleted":"0","num_feature":"64","num_nodes":"9","size_leaf_vector":"1"}},{"base_weights":[-1.5706578E-3,8.4921144E-2,-2.642212E-1,-2.86167E-2,2.9169297E-2,-3.5955545E-2,6.9150776E-3,1.049103E-1,-3.922684E-2,1.5282202E-4,2.9633004E-2],"categories":[],"categories_nodes":[],"categories_segments":[],"categories_sizes":[],"default_left":[0,0,0,0,0,0,0,0,0,0,0],"id":44,"left_children":[1,3,5,7,-1,-1,-1,9,-1,-1,-1],"loss_changes":[2.853341E0,5.3649793E0,5.7964916E0,7.9475307E0,0E0,0E0,0E0,3.3320127E0,0E0,0E0,0E0],"parents":[2147483647,0,0,1,1,2,2,3,3,7,7],"right_children":[2,4,6,8,-1,-1,-1,10,-1,-1,-1],"split_conditions":[1.29481E0,1.46731E0,1.503E2,1.918394E4,2.9169297E-2,-3.5955545E-2,6.9150776E-3,1E0,-3.922684E-2,1.5282202E-4,2.9633004E-2],"split_indices":[29,27,50,39,0,0,0,57,0,0,0],"split_type":[0,0,0,0,0,0,0,0,0,0,0],"sum_hessian":[1.23615425E2,9.3501656E1,3.011377E1,7.692309E1,1.657857E1,1.3768041E1,1.6345728E1,6.610704E1,1.0816043E1,5.5519505E1,1.0587538E1],"tree_param":{"num_deleted":"0","num_feature":"64","num_nodes":"11","size_leaf_vector":"1"}},{"base_weights":[-1.6073287E-3,-6.050725E-2,1.868741E-2,1.4663514E-1,-3.332219E-1,-1.1748183E-2,2.8196427E-1,-1.5487263E-1,-3.8346298E-2,1.4189721E-4,2.464566E-2,-3.130524E-2,7.28241E-3],"categories":[],"categories_nodes":[],"categories_segments":[],"categories_sizes":[],"default_left":[0,0,0,0,0,0,0,0,0,0,0,0,0],"id":45,"left_children":[1,3,-1,5,7,-1,9,11,-1,-1,-1,-1,-1],"loss_changes":[2.7716486E0,6.169004E0,0E0,3.2817588E0,3.5223393E0,0E0,2.731855E0,4.99235E0,0E0,0E0,0E0,0E0,0E0],"parents":[2147483647,0,0,1,1,3,3,4,4,6,6,7,7],"right_children":[2,4,-1,6,8,-1,10,12,-1,-1,-1,-1,-1],"split_conditions":[1.5867667E2,3.393E-1,1.868741E-2,4.7E-1,1.4383334E-1,-1.1748183E-2,2.8308216E1,6.750568E4,-3.8346298E-2,1.4189721E-4,2.464566E-2,-3.130524E-2,7.28241E-3],"split_indices":[42,45,0,3,19,0,4,10,0,0,0,0,0],"split_type":[0,0,0,0,0,0,0,0,0,0,0,0,0],"sum_hessian":[1.2334335E2,1.0733879E2,1.6004555E1,6.126604E1,4.6072754E1,1.5846397E1,4.5419643E1,3.3609024E1,1.2463728E1,1.9986752E1,2.5432894E1,1.2665487E1,2.0943537E1],"tree_param":{"num_deleted":"0","num_feature":"64","num_nodes":"13","size_leaf_vector":"1"}},{"base_weights":[-1.7891071E-3,-2.3830853E-2,4.4867087E-2,9.924078E-2,-2.113417E-2,3.4900073E-2,2.5931014E-2,2.3607258E-2,-2.3331142E-3],"categories":[],"categories_nodes":[],"categories_segments":[],"categories_sizes":[],"default_left":[0,0,0,0,0,0,0,0,0],"id":46,"left_children":[1,-1,3,5,-1,7,-1,-1,-1],"loss_changes":[2.7690623E0,0E0,2.9361792E0,2.7556365E0,0E0,3.2386034E0,0E0,0E0,0E0],"parents":[2147483647,0,0,2,2,3,3,5,5],"right_children":[2,-1,4,6,-1,8,-1,-1,-1],"split_conditions":[-4.358392E4,-2.3830853E-2,4.088017E4,2.345E-1,-2.113417E-2,-2.2566667E-1,2.5931014E-2,2.3607258E-2,-2.3331142E-3],"split_indices":[39,0,39,18,0,18,0,0,0],"split_type":[0,0,0,0,0,0,0,0,0],"sum_hessian":[1.2302814E2,1.0182599E1,1.12845535E2,1.0179505E2,1.1050491E1,8.91942E1,1.260085E1,1.3269483E1,7.592471E1],"tree_param":{"num_deleted":"0","num_feature":"64","num_nodes":"9","size_leaf_vector":"1"}},{"base_weights":[-1.6849317E-3,1.2807491E-1,-1.7065358E-1,4.0959872E-2,2.8628353E-2,-3.289206E-2,-1.4549255E-2,-2.2034703E-2,1.4615133E-1,-2.660894E-1,2.4382433E-2,-3.4117159E-3,1.5365121E-2,5.2339323E-3,-2.8287226E-2],"categories":[],"categories_nodes":[],"categories_segments":[],"categories_sizes":[],"default_left":[0,0,0,0,0,0,0,0,0,0,0,0,0,0,0],"id":47,"left_children":[1,3,5,7,-1,-1,9,-1,11,13,-1,-1,-1,-1,-1],"loss_changes":[2.7387161E0,2.7126536E0,4.1165423E0,3.112376E0,0E0,0E0,5.449333E0,0E0,1.7527407E0,3.2483633E0,0E0,0E0,0E0,0E0,0E0],"parents":[2147483647,0,0,1,1,2,2,3,3,6,6,8,8,9,9],"right_children":[2,4,6,8,-1,-1,10,-1,12,14,-1,-1,-1,-1,-1],"split_conditions":[2E0,6.768961E4,-1.71711E4,-4.6674E-1,2.8628353E-2,-3.289206E-2,3.226E-1,-2.2034703E-2,4.95E-1,-6.3241E-1,2.4382433E-2,-3.4117159E-3,1.5365121E-2,5.2339323E-3,-2.8287226E-2],"split_indices":[6,10,39,29,0,0,20,0,3,20,0,0,0,0,0],"split_type":[0,0,0,0,0,0,0,0,0,0,0,0,0,0,0],"sum_hessian":[1.2291412E2,6.966033E1,5.3253788E1,5.9158195E1,1.0502136E1,1.2142869E1,4.111092E1,1.0032343E1,4.912585E1,2.7704487E1,1.3406433E1,2.1328411E1,2.7797441E1,1.2673738E1,1.5030748E1],"tree_param":{"num_deleted":"0","num_feature":"64","num_nodes":"15","size_leaf_vector":"1"}},{"base_weights":[-1.7167514E-3,4.893746E-2,-2.1569097E-2,-1.1285996E-2,2.7297929E-2,1.0735428E-1,-3.0522034E-1,1.0934385E-2,-1.5707873E-2,-2.9669566E-2,6.008565E-3],"categories":[],"categories_nodes":[],"categories_segments":[],"categories_sizes":[],"default_left":[0,0,0,0,0,0,0,0,0,0,0],"id":48,"left_children":[1,3,-1,5,-1,7,9,-1,-1,-1,-1],"loss_changes":[2.7127185E0,3.3444061E0,0E0,3.5358114E0,0E0,3.4619265E0,3.6442556E0,0E0,0E0,0E0,0E0],"parents":[2147483647,0,0,1,1,3,3,5,5,6,6],"right_children":[2,4,-1,6,-1,8,10,-1,-1,-1,-1],"split_conditions":[9.7503E-1,9.8037E-1,-2.1569097E-2,3.17296E3,2.7297929E-2,4.3393E-1,1.76825E0,1.0934385E-2,-1.5707873E-2,-2.9669566E-2,6.008565E-3],"split_indices":[24,21,0,39,0,21,27,0,0,0,0],"split_type":[0,0,0,0,0,0,0,0,0,0,0],"sum_hessian":[1.2267049E2,1.1052638E2,1.2144104E1,9.9453064E1,1.1073316E1,7.1306496E1,2.8146568E1,5.678826E1,1.4518235E1,1.654419E1,1.1602379E1],"tree_param":{"num_deleted":"0","num_feature":"64","num_nodes":"11","size_leaf_vector":"1"}},{"base_weights":[-1.828769E-3,-5.8780387E-2,1.8019503E-2,1.3296488E-1,-3.1203794E-1,3.027604E-2,2.573434E-2,-1.4023498E-1,-3.6640223E-2,-4.285387E-3,2.0663327E-2,-2.9587174E-2,7.3163803E-3],"categories":[],"categories_nodes":[],"categories_segments":[],"categories_sizes":[],"default_left":[0,0,0,0,0,0,0,0,0,0,0,0,0],"id":49,"left_children":[1,3,-1,5,7,-1,9,11,-1,-1,-1,-1,-1],"loss_changes":[2.5674407E0,5.262798E0,0E0,3.1206756E0,3.2679176E0,0E0,2.2591486E0,4.530434E0,0E0,0E0,0E0,0E0,0E0],"parents":[2147483647,0,0,1,1,3,3,4,4,6,6,7,7],"right_children":[2,4,-1,6,8,-1,10,12,-1,-1,-1,-1,-1],"split_conditions":[1.5867667E2,3.393E-1,1.8019503E-2,-2.3125E-1,1.4383334E-1,3.027604E-2,5.3E-1,6.750568E4,-3.6640223E-2,-4.285387E-3,2.0663327E-2,-2.9587174E-2,7.3163803E-3],"split_indices":[42,45,0,18,19,0,3,10,0,0,0,0,0],"split_type":[0,0,0,0,0,0,0,0,0,0,0,0,0],"sum_hessian":[1.22431244E2,1.0652073E2,1.591052E1,6.0892807E1,4.562792E1,1.0402586E1,5.0490223E1,3.33458E1,1.2282122E1,3.981851E1,1.0671715E1,1.2533316E1,2.0812483E1],"tree_param":{"num_deleted":"0","num_feature":"64","num_nodes":"13","size_leaf_vector":"1"}},{"base_weights":[-1.7037188E-3,-2.2918485E-2,4.2840194E-2,2.093457E-2,-1.823727E-2,-2.3132259E-2,8.4351964E-2,-6.499716E-4,3.2388043E-2],"categories":[],"categories_nodes":[],"categories_segments":[],"categories_sizes":[],"default_left":[0,0,0,0,0,0,0,0,0],"id":50,"left_children":[1,-1,3,-1,5,-1,7,-1,-1],"loss_changes":[2.5243814E0,0E0,2.6040757E0,0E0,4.5184965E0,0E0,4.4331136E0,0E0,0E0],"parents":[2147483647,0,0,2,2,4,4,6,6],"right_children":[2,-1,4,-1,6,-1,8,-1,-1],"split_conditions":[-4.358392E4,-2.2918485E-2,-2.2566667E-1,2.093457E-2,-9.97E1,-2.3132259E-2,3.667219E4,-6.499716E-4,3.2388043E-2],"split_indices":[39,0,18,0,48,0,36,0,0],"split_type":[0,0,0,0,0,0,0,0,0],"sum_hessian":[1.2213356E2,1.0028695E1,1.12104866E2,1.4852464E1,9.72524E1,1.7581434E1,7.967097E1,6.876585E1,1.0905121E1],"tree_param":{"num_deleted":"0","num_feature":"64","num_nodes":"9","size_leaf_vector":"1"}},{"base_weights":[-1.5721559E-3,7.856197E-2,-2.4755843E-1,-2.9839551E-2,2.7723933E-2,-2.723054E-2,1.5622896E-2,9.222574E-2,-3.6603067E-2,9.956096E-3,-1.7579969E-2],"categories":[],"categories_nodes":[],"categories_segments":[],"categories_sizes":[],"default_left":[0,0,0,0,0,0,0,0,0,0,0],"id":51,"left_children":[1,3,5,7,-1,-1,-1,9,-1,-1,-1],"loss_changes":[2.443374E0,4.8407974E0,5.2367234E0,6.677327E0,0E0,0E0,0E0,3.2288287E0,0E0,0E0,0E0],"parents":[2147483647,0,0,1,1,2,2,3,3,7,7],"right_children":[2,4,6,8,-1,-1,-1,10,-1,-1,-1],"split_conditions":[1.29481E0,1.46731E0,5.59863E0,1.918394E4,2.7723933E-2,-2.723054E-2,1.5622896E-2,2.8644907E-1,-3.6603067E-2,9.956096E-3,-1.7579969E-2],"split_indices":[29,27,27,39,0,0,0,26,0,0,0],"split_type":[0,0,0,0,0,0,0,0,0,0,0],"sum_hessian":[1.2196764E2,9.25112E1,2.9456442E1,7.611213E1,1.6399075E1,1.9265078E1,1.0191364E1,6.5581024E1,1.0531104E1,5.329594E1,1.2285086E1],"tree_param":{"num_deleted":"0","num_feature":"64","num_nodes":"11","size_leaf_vector":"1"}},{"base_weights":[-1.7443314E-3,-5.316845E-2,1.8953025E-2,5.1797505E-2,-3.8053828E-1,-2.8805826E-2,2.8520567E-2,1.3799877E-3,-3.4947153E-2,7.1087233E-3,-2.1890175E-2],"categories":[],"categories_nodes":[],"categories_segments":[],"categories_sizes":[],"default_left":[0,0,0,0,0,0,0,0,0,0,0],"id":52,"left_children":[1,3,-1,5,7,9,-1,-1,-1,-1,-1],"loss_changes":[2.4232414E0,3.7649932E0,0E0,3.5031683E0,3.4736948E0,5.177157E0,0E0,0E0,0E0,0E0,0E0],"parents":[2147483647,0,0,1,1,3,3,4,4,5,5],"right_children":[2,4,-1,6,8,10,-1,-1,-1,-1,-1],"split_conditions":[3.5847E3,4.904E1,1.8953025E-2,1.5867667E2,-4.2301E-1,4.2711E-1,2.8520567E-2,1.3799877E-3,-3.4947153E-2,7.1087233E-3,-2.1890175E-2],"split_indices":[50,15,0,42,42,21,0,0,0,0,0],"split_type":[0,0,0,0,0,0,0,0,0,0,0],"sum_hessian":[1.2171572E2,1.079927E2,1.37230215E1,8.241077E1,2.5581932E1,7.2142746E1,1.0268022E1,1.1611447E1,1.3970485E1,5.1334774E1,2.0807972E1],"tree_param":{"num_deleted":"0","num_feature":"64","num_nodes":"11","size_leaf_vector":"1"}},{"base_weights":[-1.6781584E-3,-5.5020608E-2,1.684748E-2,1.2030269E-1,-2.880608E-1,2.8703256E-2,1.8328125E-2,-5.201622E-1,-5.0154803E-3,-4.4443714E-3,1.9701766E-2,-9.404325E-3,-4.6434443E-2,1.26019865E-2,-1.3334246E-2],"categories":[],"categories_nodes":[],"categories_segments":[],"categories_sizes":[],"default_left":[0,0,0,0,0,0,0,0,0,0,0,0,0,0,0],"id":53,"left_children":[1,3,-1,5,7,-1,9,11,13,-1,-1,-1,-1,-1,-1],"loss_changes":[2.229836E0,4.3908486E0,0E0,2.8375251E0,3.0239508E0,0E0,2.1010208E0,3.257988E0,1.5313147E0,0E0,0E0,0E0,0E0,0E0,0E0],"parents":[2147483647,0,0,1,1,3,3,4,4,6,6,7,7,8,8],"right_children":[2,4,-1,6,8,-1,10,12,14,-1,-1,-1,-1,-1,-1],"split_conditions":[1.5867667E2,3.393E-1,1.684748E-2,-2.3125E-1,6.8816E-1,2.8703256E-2,5.3E-1,3.2719E-1,-5.55E-2,-4.4443714E-3,1.9701766E-2,-9.404325E-3,-4.6434443E-2,1.26019865E-2,-1.3334246E-2],"split_indices":[42,45,0,18,22,0,3,22,17,0,0,0,0,0,0],"split_type":[0,0,0,0,0,0,0,0,0,0,0,0,0,0,0],"sum_hessian":[1.2141976E2,1.0561952E2,1.5800232E1,6.0549812E1,4.5069714E1,1.026106E1,5.0288754E1,2.4303085E1,2.0766628E1,3.9717876E1,1.0570876E1,1.42115E1,1.0091584E1,1.0494241E1,1.02723875E1],"tree_param":{"num_deleted":"0","num_feature":"64","num_nodes":"15","size_leaf_vector":"1"}},{"base_weights":[-1.5779582E-3,4.3454174E-2,-1.9340588E-2,-1.8572083E-2,2.490503E-2,1.1329336E-1,-2.3628515E-1,3.584292E-2,-9.464755E-4,5.814001E-3,-2.0121675E-2],"categories":[],"categories_nodes":[],"categories_segments":[],"categories_sizes":[],"default_left":[0,0,0,0,0,0,0,0,0,0,0],"id":54,"left_children":[1,3,-1,5,-1,7,9,-1,-1,-1,-1],"loss_changes":[2.1352782E0,3.1178763E0,0E0,2.8392391E0,0E0,4.9365444E0,2.2304604E0,0E0,0E0,0E0,0E0],"parents":[2147483647,0,0,1,1,3,3,5,5,6,6],"right_children":[2,4,-1,6,-1,8,10,-1,-1,-1,-1],"split_conditions":[9.7503E-1,9.1579E-1,-1.9340588E-2,2E0,2.490503E-2,-1.069672E4,2.8357351E1,3.584292E-2,-9.464755E-4,5.814001E-3,-2.0121675E-2],"split_indices":[24,21,0,6,0,39,4,0,0,0,0],"split_type":[0,0,0,0,0,0,0,0,0,0,0],"sum_hessian":[1.2111677E2,1.0923489E2,1.1881876E1,9.696531E1,1.2269582E1,6.068747E1,3.627784E1,1.01111145E1,5.0576355E1,1.1716238E1,2.4561604E1],"tree_param":{"num_deleted":"0","num_feature":"64","num_nodes":"11","size_leaf_vector":"1"}},{"base_weights":[-1.2861184E-3,7.2130516E-2,-2.2757755E-1,-3.1666555E-2,2.641651E-2,-3.27727E-2,6.9440454E-3,8.302542E-2,-3.493778E-2,-9.094325E-4,2.8342871E-2],"categories":[],"categories_nodes":[],"categories_segments":[],"categories_sizes":[],"default_left":[0,0,0,0,0,0,0,0,0,0,0],"id":55,"left_children":[1,3,5,7,-1,-1,-1,9,-1,-1,-1],"loss_changes":[2.0419579E0,4.4117026E0,4.8117E0,5.9151855E0,0E0,0E0,0E0,3.2530136E0,0E0,0E0,0E0],"parents":[2147483647,0,0,1,1,2,2,3,3,7,7],"right_children":[2,4,6,8,-1,-1,-1,10,-1,-1,-1],"split_conditions":[1.29481E0,1.46731E0,1.503E2,1.918394E4,2.641651E-2,-3.27727E-2,6.9440454E-3,1E0,-3.493778E-2,-9.094325E-4,2.8342871E-2],"split_indices":[29,27,50,39,0,0,0,57,0,0,0],"split_type":[0,0,0,0,0,0,0,0,0,0,0],"sum_hessian":[1.2092108E2,9.181456E1,2.9106516E1,7.555456E1,1.6260004E1,1.3064179E1,1.6042336E1,6.521735E1,1.03372135E1,5.473053E1,1.04868145E1],"tree_param":{"num_deleted":"0","num_feature":"64","num_nodes":"11","size_leaf_vector":"1"}},{"base_weights":[-1.3124055E-3,-5.431302E-2,1.5417735E-2,9.97319E-3,-2.759913E-2,-1.279323E-1,1.98043E-1,3.6697262E-3,-3.2120652E-2,2.0455351E-2,-1.576128E-2],"categories":[],"categories_nodes":[],"categories_segments":[],"categories_sizes":[],"default_left":[0,0,0,0,0,0,0,0,0,0,0],"id":56,"left_children":[1,3,-1,5,-1,7,9,-1,-1,-1,-1],"loss_changes":[2.0134E0,3.356022E0,0E0,2.4562404E0,0E0,5.7111654E0,4.4670687E0,0E0,0E0,0E0,0E0],"parents":[2147483647,0,0,1,1,3,3,5,5,6,6],"right_children":[2,4,-1,6,-1,8,10,-1,-1,-1,-1],"split_conditions":[2.4616666E-1,1.025E-1,1.5417735E-2,6.667203E4,-2.759913E-2,1.4325787E-1,1.4383334E-1,3.6697262E-3,-3.2120652E-2,2.0455351E-2,-1.576128E-2],"split_indices":[18,18,0,10,0,26,19,0,0,0,0],"split_type":[0,0,0,0,0,0,0,0,0,0,0],"sum_hessian":[1.20654015E2,1.03725624E2,1.6928396E1,9.272755E1,1.0998074E1,5.3683178E1,3.904437E1,3.9200546E1,1.4482633E1,2.7810995E1,1.1233376E1],"tree_param":{"num_deleted":"0","num_feature":"64","num_nodes":"11","size_leaf_vector":"1"}},{"base_weights":[-1.5588334E-3,-5.1784497E-2,1.5892198E-2,1.1367097E-1,-2.7318773E-1,-1.1411465E-2,2.3708928E-1,-4.3414295E-1,6.209351E-3,-1.4850916E-3,2.2123573E-2,-2.034588E-3,-3.1594943E-2],"categories":[],"categories_nodes":[],"categories_segments":[],"categories_sizes":[],"default_left":[0,0,0,0,0,0,0,0,0,0,0,0,0],"id":57,"left_children":[1,3,-1,5,7,-1,9,11,-1,-1,-1,-1,-1],"loss_changes":[1.9657131E0,3.9088469E0,0E0,2.640317E0,2.9684088E0,0E0,2.507575E0,2.5150018E0,0E0,0E0,0E0,0E0,0E0],"parents":[2147483647,0,0,1,1,3,3,4,4,6,6,7,7],"right_children":[2,4,-1,6,8,-1,10,12,-1,-1,-1,-1,-1],"split_conditions":[1.5867667E2,3.393E-1,1.5892198E-2,4.7E-1,1.3913E3,-1.1411465E-2,2.8308216E1,2.5362012E-1,6.209351E-3,-1.4850916E-3,2.2123573E-2,-2.034588E-3,-3.1594943E-2],"split_indices":[42,45,0,3,50,0,4,16,0,0,0,0,0],"split_type":[0,0,0,0,0,0,0,0,0,0,0,0,0],"sum_hessian":[1.2050776E2,1.04857E2,1.5650754E1,6.0289227E1,4.456778E1,1.5765508E1,4.452372E1,3.1653936E1,1.2913841E1,1.973864E1,2.478508E1,1.0991411E1,2.0662525E1],"tree_param":{"num_deleted":"0","num_feature":"64","num_nodes":"13","size_leaf_vector":"1"}},{"base_weights":[-1.5250413E-3,-5.2266374E-2,1.4735867E-2,9.253755E-3,-2.6496595E-2,-1.2290928E-1,1.8957064E-1,3.4621495E-3,-3.0832281E-2,-8.259976E-4,3.463706E-2],"categories":[],"categories_nodes":[],"categories_segments":[],"categories_sizes":[],"default_left":[0,0,0,0,0,0,0,0,0,0,0],"id":58,"left_children":[1,3,-1,5,-1,7,9,-1,-1,-1,-1],"loss_changes":[1.8356388E0,3.0679324E0,0E0,2.247326E0,0E0,5.209401E0,4.145355E0,0E0,0E0,0E0,0E0],"parents":[2147483647,0,0,1,1,3,3,5,5,6,6],"right_children":[2,4,-1,6,-1,8,10,-1,-1,-1,-1],"split_conditions":[2.4616666E-1,1.025E-1,1.4735867E-2,6.667203E4,-2.6496595E-2,1.4325787E-1,-2.8833333E-2,3.4621495E-3,-3.0832281E-2,-8.259976E-4,3.463706E-2],"split_indices":[18,18,0,10,0,26,18,0,0,0,0],"split_type":[0,0,0,0,0,0,0,0,0,0,0],"sum_hessian":[1.2009282E2,1.0323412E2,1.6858698E1,9.2324036E1,1.0910091E1,5.3459404E1,3.886463E1,3.91016E1,1.43578005E1,2.8257841E1,1.060679E1],"tree_param":{"num_deleted":"0","num_feature":"64","num_nodes":"11","size_leaf_vector":"1"}},{"base_weights":[-1.5068284E-3,3.766941E-2,-1.8607426E-2,-5.14892E-2,3.4502184E-1,7.143394E-2,-2.6231116E-2,-7.935496E-3,3.9186772E-2,2.7522102E-2,-2.2265166E-3],"categories":[],"categories_nodes":[],"categories_segments":[],"categories_sizes":[],"default_left":[0,0,0,0,0,0,0,0,0,0,0],"id":59,"left_children":[1,3,-1,5,7,9,-1,-1,-1,-1,-1],"loss_changes":[1.7701566E0,3.0400503E0,0E0,5.060115E0,5.633632E0,3.8812377E0,0E0,0E0,0E0,0E0,0E0],"parents":[2147483647,0,0,1,1,3,3,4,4,5,5],"right_children":[2,4,-1,6,8,10,-1,-1,-1,-1,-1],"split_conditions":[4.088017E4,3.792346E4,-1.8607426E-2,1.36753E0,-2.8833333E-2,-1.2075E-1,-2.6231116E-2,-7.935496E-3,3.9186772E-2,2.7522102E-2,-2.2265166E-3],"split_indices":[39,38,0,29,18,18,0,0,0,0,0],"split_type":[0,0,0,0,0,0,0,0,0,0,0],"sum_hessian":[1.1994326E2,1.0928986E2,1.0653398E1,8.5360466E1,2.3929394E1,6.8430725E1,1.6929739E1,1.1436369E1,1.2493024E1,1.2607378E1,5.582335E1],"tree_param":{"num_deleted":"0","num_feature":"64","num_nodes":"11","size_leaf_vector":"1"}},{"base_weights":[-1.3369645E-3,-4.8906453E-2,1.5081835E-2,1.10427774E-1,-2.6343527E-1,2.6920332E-2,1.5657257E-2,-1.0503494E-1,-3.2959554E-2,-4.268539E-3,1.8609265E-2,-2.541788E-2,8.891816E-3],"categories":[],"categories_nodes":[],"categories_segments":[],"categories_sizes":[],"default_left":[0,0,0,0,0,0,0,0,0,0,0,0,0],"id":60,"left_children":[1,3,-1,5,7,-1,9,11,-1,-1,-1,-1,-1],"loss_changes":[1.7548386E0,3.6254425E0,0E0,2.4688525E0,2.7601907E0,0E0,1.8699992E0,3.9036112E0,0E0,0E0,0E0,0E0,0E0],"parents":[2147483647,0,0,1,1,3,3,4,4,6,6,7,7],"right_children":[2,4,-1,6,8,-1,10,12,-1,-1,-1,-1,-1],"split_conditions":[1.5867667E2,3.393E-1,1.5081835E-2,-2.3125E-1,1.4383334E-1,2.6920332E-2,5.3E-1,6.761025E4,-3.2959554E-2,-4.268539E-3,1.8609265E-2,-2.541788E-2,8.891816E-3],"split_indices":[42,45,0,18,19,0,3,12,0,0,0,0,0],"split_type":[0,0,0,0,0,0,0,0,0,0,0,0,0],"sum_hessian":[1.1973621E2,1.04212524E2,1.552369E1,6.007732E1,4.41352E1,1.0042907E1,5.0034416E1,3.2423267E1,1.1711933E1,3.9579475E1,1.045494E1,1.30373125E1,1.9385956E1],"tree_param":{"num_deleted":"0","num_feature":"64","num_nodes":"13","size_leaf_vector":"1"}},{"base_weights":[-1.2236447E-3,-1.8270453E-2,3.727084E-2,2.1124555E-2,-2.4174936E-2,-2.1056807E-2,6.620399E-2,-3.0848838E-3,1.9664498E-2],"categories":[],"categories_nodes":[],"categories_segments":[],"categories_sizes":[],"default_left":[0,0,0,0,0,0,0,0,0],"id":61,"left_children":[1,-1,3,-1,5,-1,7,-1,-1],"loss_changes":[1.7023851E0,0E0,2.6104603E0,0E0,3.4608448E0,0E0,3.321095E0,0E0,0E0],"parents":[2147483647,0,0,2,2,4,4,6,6],"right_children":[2,-1,4,-1,6,-1,8,-1,-1],"split_conditions":[-4.017221E4,-1.8270453E-2,-2.2566667E-1,2.1124555E-2,-9.97E1,-2.1056807E-2,3.511288E4,-3.0848838E-3,1.9664498E-2],"split_indices":[39,0,18,0,48,0,38,0,0],"split_type":[0,0,0,0,0,0,0,0,0],"sum_hessian":[1.1946155E2,1.0608169E1,1.0885338E2,1.4166143E1,9.468723E1,1.6881378E1,7.7805855E1,5.6517124E1,2.1288734E1],"tree_param":{"num_deleted":"0","num_feature":"64","num_nodes":"9","size_leaf_vector":"1"}},{"base_weights":[-1.1828255E-3,-5.134578E-2,1.3848245E-2,-1.09375E-1,2.099001E-2,-5.5344296E-3,-2.3865249E-2,2.9582476E-2,-6.0402816E-3],"categories":[],"categories_nodes":[],"categories_segments":[],"categories_sizes":[],"default_left":[0,0,0,0,0,0,0,0,0],"id":62,"left_children":[1,3,-1,5,-1,7,-1,-1,-1],"loss_changes":[1.6933439E0,2.8564916E0,0E0,3.5245523E0,0E0,5.097452E0,0E0,0E0,0E0],"parents":[2147483647,0,0,1,1,3,3,5,5],"right_children":[2,4,-1,6,-1,8,-1,-1,-1],"split_conditions":[5.45E-1,8.5529554E-1,1.3848245E-2,1.250382E4,2.099001E-2,-2.77128E0,-2.3865249E-2,2.9582476E-2,-6.0402816E-3],"split_indices":[3,16,0,39,0,29,0,0,0],"split_type":[0,0,0,0,0,0,0,0,0],"sum_hessian":[1.1934385E2,1.0179998E2,1.7543865E1,9.1320274E1,1.0479711E1,7.201155E1,1.930872E1,1.0982417E1,6.1029137E1],"tree_param":{"num_deleted":"0","num_feature":"64","num_nodes":"9","size_leaf_vector":"1"}},{"base_weights":[-8.426246E-4,1.0266802E-1,-1.383886E-1,2.3202194E-2,1.7200816E-2,-3.0228922E-2,7.5200237E-3,1.3319868E-1,-1.7191032E-2,-2.460936E-1,2.5411204E-2,-2.4811302E-3,1.8822882E-2,-2.9103128E-2,4.523642E-3],"categories":[],"categories_nodes":[],"categories_segments":[],"categories_sizes":[],"default_left":[0,0,0,0,0,0,0,0,0,0,0,0,0,0,0],"id":63,"left_children":[1,3,5,-1,7,-1,9,11,-1,13,-1,-1,-1,-1,-1],"loss_changes":[1.7256739E0,2.128222E0,3.5446317E0,0E0,2.4317405E0,0E0,5.28394E0,1.9683876E0,0E0,3.1781273E0,0E0,0E0,0E0,0E0,0E0],"parents":[2147483647,0,0,1,1,2,2,4,4,6,6,7,7,9,9],"right_children":[2,4,6,-1,8,-1,10,12,-1,14,-1,-1,-1,-1,-1],"split_conditions":[2E0,-1.120834E4,-1.71711E4,2.3202194E-2,2E-2,-3.0228922E-2,3.226E-1,4.25E-1,-1.7191032E-2,9.6767E-1,2.5411204E-2,-2.4811302E-3,1.8822882E-2,-2.9103128E-2,4.523642E-3],"split_indices":[6,39,39,0,41,0,20,0,0,22,0,0,0,0,0],"split_type":[0,0,0,0,0,0,0,0,0,0,0,0,0,0,0],"sum_hessian":[1.1920855E2,6.816463E1,5.1043922E1,1.2190551E1,5.5974075E1,1.1418227E1,3.9625694E1,4.284033E1,1.3133746E1,2.6640442E1,1.2985252E1,2.4912983E1,1.7927347E1,1.2967025E1,1.3673417E1],"tree_param":{"num_deleted":"0","num_feature":"64","num_nodes":"15","size_leaf_vector":"1"}},{"base_weights":[-8.6808053E-4,3.8576618E-2,-1.7213482E-2,-4.2990036E-2,3.5023466E-1,2.81925E-2,-2.6243884E-2,2.1536474E-3,3.337698E-2,-4.513807E-3,3.4356963E-2],"categories":[],"categories_nodes":[],"categories_segments":[],"categories_sizes":[],"default_left":[0,0,0,0,0,0,0,0,0,0,0],"id":64,"left_children":[1,3,-1,5,7,9,-1,-1,-1,-1,-1],"loss_changes":[1.6387087E0,2.7741027E0,0E0,2.996047E0,2.17614E0,6.0476265E0,0E0,0E0,0E0,0E0,0E0],"parents":[2147483647,0,0,1,1,3,3,4,4,5,5],"right_children":[2,4,-1,6,8,10,-1,-1,-1,-1,-1],"split_conditions":[9.7503E-1,2.3639E-1,-1.7213482E-2,1.68361E0,3.322681E4,1.51358E0,-2.6243884E-2,2.1536474E-3,3.337698E-2,-4.513807E-3,3.4356963E-2],"split_indices":[24,20,0,29,35,27,0,0,0,0,0],"split_type":[0,0,0,0,0,0,0,0,0,0,0],"sum_hessian":[1.18998795E2,1.0753454E2,1.1464253E1,8.591188E1,2.162266E1,7.5674965E1,1.0236912E1,1.1564035E1,1.0058625E1,6.487451E1,1.0800455E1],"tree_param":{"num_deleted":"0","num_feature":"64","num_nodes":"11","size_leaf_vector":"1"}},{"base_weights":[-6.417073E-4,3.738315E-2,-1.8078594E-2,-4.5539733E-2,3.2366234E-1,6.660883E-2,-2.4154535E-2,-7.4189617E-3,3.669643E-2,2.5362229E-2,-1.930151E-3],"categories":[],"categories_nodes":[],"categories_segments":[],"categories_sizes":[],"default_left":[0,0,0,0,0,0,0,0,0,0,0],"id":65,"left_children":[1,3,-1,5,7,9,-1,-1,-1,-1,-1],"loss_changes":[1.6593287E0,2.6117024E0,0E0,4.237651E0,4.8911543E0,3.2228942E0,0E0,0E0,0E0,0E0,0E0],"parents":[2147483647,0,0,1,1,3,3,4,4,5,5],"right_children":[2,4,-1,6,8,10,-1,-1,-1,-1,-1],"split_conditions":[4.088017E4,3.792346E4,-1.8078594E-2,1.36753E0,-2.8833333E-2,-1.2075E-1,-2.4154535E-2,-7.4189617E-3,3.669643E-2,2.5362229E-2,-1.930151E-3],"split_indices":[39,38,0,29,18,18,0,0,0,0,0],"split_type":[0,0,0,0,0,0,0,0,0,0,0],"sum_hessian":[1.18919395E2,1.08396034E2,1.0523356E1,8.470231E1,2.3693727E1,6.809633E1,1.6605984E1,1.13142185E1,1.2379508E1,1.2389003E1,5.5707325E1],"tree_param":{"num_deleted":"0","num_feature":"64","num_nodes":"11","size_leaf_vector":"1"}},{"base_weights":[-5.217932E-4,-1.4060877E-2,4.68576E-2,-1.2452017E-2,2.0757934E-2,5.56761E-2,-2.4795838E-2,-3.0020683E-3,1.8682592E-2],"categories":[],"categories_nodes":[],"categories_segments":[],"categories_sizes":[],"default_left":[0,0,0,0,0,0,0,0,0],"id":66,"left_children":[1,-1,3,5,-1,7,-1,-1,-1],"loss_changes":[1.605182E0,0E0,2.2611184E0,2.9894485E0,0E0,2.9555907E0,0E0,0E0,0E0],"parents":[2147483647,0,0,2,2,3,3,5,5],"right_children":[2,-1,4,6,-1,8,-1,-1,-1],"split_conditions":[0E0,-1.4060877E-2,2.9044209E1,2.9004906E1,2.0757934E-2,2.8847485E1,-2.4795838E-2,-3.0020683E-3,1.8682592E-2],"split_indices":[50,0,4,4,0,4,0,0,0],"split_type":[0,0,0,0,0,0,0,0,0],"sum_hessian":[1.1870686E2,1.6430447E1,1.0227642E2,8.892286E1,1.3353562E1,7.87154E1,1.0207453E1,5.83074E1,2.0408003E1],"tree_param":{"num_deleted":"0","num_feature":"64","num_nodes":"9","size_leaf_vector":"1"}},{"base_weights":[-5.160646E-4,-4.745125E-2,1.3613447E-2,1.0954416E-2,-2.523901E-2,-4.7956623E-2,1.8251263E-2,4.7904584E-3,-1.3468976E-2],"categories":[],"categories_nodes":[],"categories_segments":[],"categories_sizes":[],"default_left":[0,0,0,0,0,0,0,0,0],"id":67,"left_children":[1,3,-1,5,-1,7,-1,-1,-1],"loss_changes":[1.5443085E0,2.7541173E0,0E0,1.9412559E0,0E0,2.5710378E0,0E0,0E0,0E0],"parents":[2147483647,0,0,1,1,3,3,5,5],"right_children":[2,4,-1,6,-1,8,-1,-1,-1],"split_conditions":[2.4616666E-1,1.025E-1,1.3613447E-2,2E1,-2.523901E-2,2.566275E4,1.8251263E-2,4.7904584E-3,-1.3468976E-2],"split_indices":[18,18,0,5,0,38,0,0,0],"split_type":[0,0,0,0,0,0,0,0,0],"sum_hessian":[1.18609726E2,1.01902504E2,1.6707222E1,9.122781E1,1.0674695E1,7.8955574E1,1.2272235E1,4.8216682E1,3.0738895E1],"tree_param":{"num_deleted":"0","num_feature":"64","num_nodes":"9","size_leaf_vector":"1"}},{"base_weights":[-5.132212E-4,-4.502057E-2,1.4218046E-2,1.0954559E-1,-2.5484997E-1,-1.0355878E-2,2.2453134E-1,-1.0400805E-1,-3.1773802E-2,3.0397331E-2,4.7376393E-3,-2.4700392E-2,8.37726E-3],"categories":[],"categories_nodes":[],"categories_segments":[],"categories_sizes":[],"default_left":[0,0,0,0,0,0,0,0,0,0,0,0,0],"id":68,"left_children":[1,3,-1,5,7,-1,9,11,-1,-1,-1,-1,-1],"loss_changes":[1.5275593E0,3.4070597E0,0E0,2.2565124E0,2.4885578E0,0E0,2.1818717E0,3.5842304E0,0E0,0E0,0E0,0E0,0E0],"parents":[2147483647,0,0,1,1,3,3,4,4,6,6,7,7],"right_children":[2,4,-1,6,8,-1,10,12,-1,-1,-1,-1,-1],"split_conditions":[1.5867667E2,3.393E-1,1.4218046E-2,4.7E-1,1.4383334E-1,-1.0355878E-2,4.4570923E-1,6.761025E4,-3.1773802E-2,3.0397331E-2,4.7376393E-3,-2.4700392E-2,8.37726E-3],"split_indices":[42,45,0,3,19,0,25,12,0,0,0,0,0],"split_type":[0,0,0,0,0,0,0,0,0,0,0,0,0],"sum_hessian":[1.1846984E2,1.0318992E2,1.5279926E1,5.9694916E1,4.3495E1,1.5688521E1,4.4006393E1,3.2062073E1,1.1432928E1,1.0196767E1,3.3809628E1,1.2824527E1,1.9237545E1],"tree_param":{"num_deleted":"0","num_feature":"64","num_nodes":"13","size_leaf_vector":"1"}},{"base_weights":[-5.745962E-4,-2.1739395E-1,5.7909094E-2,1.2940231E-2,-3.169888E-2,2.8887583E-2,-1.8932775E-2,8.777583E-2,-3.6098186E-2,-7.031608E-4,3.328588E-2],"categories":[],"categories_nodes":[],"categories_segments":[],"categories_sizes":[],"default_left":[0,0,0,0,0,0,0,0,0,0,0],"id":69,"left_children":[1,3,5,-1,-1,-1,7,9,-1,-1,-1],"loss_changes":[1.5240245E0,5.228893E0,3.7923288E0,0E0,0E0,0E0,6.323048E0,4.325725E0,0E0,0E0,0E0],"parents":[2147483647,0,0,1,1,2,2,6,6,7,7],"right_children":[2,4,6,-1,-1,-1,8,10,-1,-1,-1],"split_conditions":[-2.2916667E-1,-4.18E-1,-2.0383333E-1,1.2940231E-2,-3.169888E-2,2.8887583E-2,3.492E2,1.5867667E2,-3.6098186E-2,-7.031608E-4,3.328588E-2],"split_indices":[19,19,17,0,0,0,49,42,0,0,0],"split_type":[0,0,0,0,0,0,0,0,0,0,0],"sum_hessian":[1.1819467E2,2.4531332E1,9.366334E1,1.1623362E1,1.290797E1,1.12226095E1,8.244073E1,7.2336395E1,1.0104336E1,6.2329063E1,1.000733E1],"tree_param":{"num_deleted":"0","num_feature":"64","num_nodes":"11","size_leaf_vector":"1"}},{"base_weights":[-4.9381657E-4,-4.874915E-2,1.34109575E-2,-1.0371482E-1,1.9968364E-2,-5.902777E-3,-2.2617383E-2,2.8343866E-2,-5.80238E-3],"categories":[],"categories_nodes":[],"categories_segments":[],"categories_sizes":[],"default_left":[0,0,0,0,0,0,0,0,0],"id":70,"left_children":[1,3,-1,5,-1,7,-1,-1,-1],"loss_changes":[1.5561961E0,2.547233E0,0E0,3.1145453E0,0E0,4.633295E0,0E0,0E0,0E0],"parents":[2147483647,0,0,1,1,3,3,5,5],"right_children":[2,4,-1,6,-1,8,-1,-1,-1],"split_conditions":[5.45E-1,8.5529554E-1,1.34109575E-2,1.250382E4,1.9968364E-2,-2.77128E0,-2.2617383E-2,2.8343866E-2,-5.80238E-3],"split_indices":[3,16,0,39,0,29,0,0,0],"split_type":[0,0,0,0,0,0,0,0,0],"sum_hessian":[1.180052E2,1.0073402E2,1.727118E1,9.041262E1,1.03214E1,7.139816E1,1.9014458E1,1.0846588E1,6.0551575E1],"tree_param":{"num_deleted":"0","num_feature":"64","num_nodes":"9","size_leaf_vector":"1"}},{"base_weights":[-1.9335988E-4,9.848203E-2,-1.3228606E-1,2.454919E-2,2.4151118E-2,-2.897804E-2,6.567729E-3,1.3860266E-1,-1.7967125E-2,-2.4335898E-1,2.4991725E-2,3.329094E-4,2.4556635E-2,6.046378E-3,-2.6863417E-2],"categories":[],"categories_nodes":[],"categories_segments":[],"categories_sizes":[],"default_left":[0,0,0,0,0,0,0,0,0,0,0,0,0,0,0],"id":71,"left_children":[1,3,5,7,-1,-1,9,11,-1,13,-1,-1,-1,-1,-1],"loss_changes":[1.5623711E0,1.9388223E0,3.186952E0,2.615652E0,0E0,0E0,5.065241E0,2.13179E0,0E0,2.9865892E0,0E0,0E0,0E0,0E0,0E0],"parents":[2147483647,0,0,1,1,2,2,3,3,6,6,7,7,9,9],"right_children":[2,4,6,8,-1,-1,10,12,-1,14,-1,-1,-1,-1,-1],"split_conditions":[2E0,6.768961E4,-1.71711E4,4.2711E-1,2.4151118E-2,-2.897804E-2,3.226E-1,2.4293032E-3,-1.7967125E-2,-6.3241E-1,2.4991725E-2,3.329094E-4,2.4556635E-2,6.046378E-3,-2.6863417E-2],"split_indices":[6,10,39,21,0,0,20,26,0,20,0,0,0,0,0],"split_type":[0,0,0,0,0,0,0,0,0,0,0,0,0,0,0],"sum_hessian":[1.1786665E2,6.761305E1,5.02536E1,5.760214E1,1.0010913E1,1.1153177E1,3.9100426E1,4.490107E1,1.2701068E1,2.62877E1,1.2812724E1,3.341386E1,1.148721E1,1.2001265E1,1.4286435E1],"tree_param":{"num_deleted":"0","num_feature":"64","num_nodes":"15","size_leaf_vector":"1"}},{"base_weights":[-1.3986553E-4,3.8316634E-2,-1.604825E-2,-1.616048E-2,2.0961193E-2,-1.8780364E-2,4.7572516E-2,-1.2443098E-3,2.3358174E-2],"categories":[],"categories_nodes":[],"categories_segments":[],"categories_sizes":[],"default_left":[0,0,0,0,0,0,0,0,0],"id":72,"left_children":[1,3,-1,5,-1,-1,7,-1,-1],"loss_changes":[1.4764199E0,2.224214E0,0E0,2.1816518E0,0E0,0E0,2.4777768E0,0E0,0E0],"parents":[2147483647,0,0,1,1,3,3,6,6],"right_children":[2,4,-1,6,-1,-1,8,-1,-1],"split_conditions":[4.799616E4,3.958892E4,-1.604825E-2,2.0964529E-1,2.0961193E-2,-1.8780364E-2,2.4616666E-1,-1.2443098E-3,2.3358174E-2],"split_indices":[37,37,0,25,0,0,18,0,0],"split_type":[0,0,0,0,0,0,0,0,0],"sum_hessian":[1.1766949E2,1.0586079E2,1.1808698E1,9.3452805E1,1.2407988E1,1.3337482E1,8.011532E1,6.911979E1,1.0995532E1],"tree_param":{"num_deleted":"0","num_feature":"64","num_nodes":"9","size_leaf_vector":"1"}},{"base_weights":[-6.40358E-5,-4.6458445E-2,1.2906762E-2,-1.8997289E-1,1.1152571E-1,-2.3470053E-2,-3.3405583E-2,-9.989052E-3,3.0424097E-1,-7.2319084E-3,1.5840435E-2,2.5711382E-2,-2.3078078E-3],"categories":[],"categories_nodes":[],"categories_segments":[],"categories_sizes":[],"default_left":[0,0,0,0,0,0,0,0,0,0,0,0,0],"id":73,"left_children":[1,3,-1,5,7,9,-1,-1,11,-1,-1,-1,-1],"loss_changes":[1.4325448E0,2.3195877E0,0E0,4.2425995E0,2.9934702E0,1.7243068E0,0E0,0E0,2.2744303E0,0E0,0E0,0E0,0E0],"parents":[2147483647,0,0,1,1,3,3,4,4,5,5,8,8],"right_children":[2,4,-1,6,8,10,-1,-1,12,-1,-1,-1,-1],"split_conditions":[5.45E-1,6.667203E4,1.2906762E-2,3.9902E-1,2.492E2,1.6254384E-2,-3.3405583E-2,-9.989052E-3,9.566667E-2,-7.2319084E-3,1.5840435E-2,2.5711382E-2,-2.3078078E-3],"split_indices":[3,10,0,21,50,26,0,0,17,0,0,0,0],"split_type":[0,0,0,0,0,0,0,0,0,0,0,0,0],"sum_hessian":[1.17586845E2,1.0037167E2,1.7215168E1,5.2488285E1,4.788339E1,3.970934E1,1.2778947E1,1.8294428E1,2.9588959E1,2.9706314E1,1.0003027E1,1.8209051E1,1.1379909E1],"tree_param":{"num_deleted":"0","num_feature":"64","num_nodes":"13","size_leaf_vector":"1"}},{"base_weights":[-5.178168E-5,-2.1348105E-1,5.742549E-2,1.1936835E-2,-3.045545E-2,2.760424E-2,-1.5525486E-2,8.838647E-2,-3.5164382E-2,-4.0469688E-4,2.9904723E-2],"categories":[],"categories_nodes":[],"categories_segments":[],"categories_sizes":[],"default_left":[0,0,0,0,0,0,0,0,0,0,0],"id":74,"left_children":[1,3,5,-1,-1,-1,7,9,-1,-1,-1],"loss_changes":[1.4649526E0,4.678396E0,3.4036398E0,0E0,0E0,0E0,5.9913135E0,3.5929146E0,0E0,0E0,0E0],"parents":[2147483647,0,0,1,1,2,2,6,6,7,7],"right_children":[2,4,6,-1,-1,-1,8,10,-1,-1,-1],"split_conditions":[-2.2916667E-1,-4.18E-1,-2.0383333E-1,1.1936835E-2,-3.045545E-2,2.760424E-2,3.492E2,1.3994571E2,-3.5164382E-2,-4.0469688E-4,2.9904723E-2],"split_indices":[19,19,17,0,0,0,49,42,0,0,0],"split_type":[0,0,0,0,0,0,0,0,0,0,0],"sum_hessian":[1.1741966E2,2.4336653E1,9.3083015E1,1.1541193E1,1.279546E1,1.1119184E1,8.196383E1,7.1962685E1,1.00011425E1,6.133666E1,1.0626028E1],"tree_param":{"num_deleted":"0","num_feature":"64","num_nodes":"11","size_leaf_vector":"1"}},{"base_weights":[-2.5009955E-5,3.5290673E-2,-1.6892469E-2,-4.4652615E-2,3.123808E-1,1.2817383E-1,-3.048071E-1,-6.24755E-3,3.756138E-2,2.0648364E-4,2.7832722E-2,9.524864E-3,-3.462972E-2],"categories":[],"categories_nodes":[],"categories_segments":[],"categories_sizes":[],"default_left":[0,0,0,0,0,0,0,0,0,0,0,0,0],"id":75,"left_children":[1,3,-1,5,7,9,11,-1,-1,-1,-1,-1,-1],"loss_changes":[1.4225117E0,2.4051826E0,0E0,3.8452075E0,4.7567806E0,2.7385364E0,6.6788816E0,0E0,0E0,0E0,0E0,0E0,0E0],"parents":[2147483647,0,0,1,1,3,3,4,4,5,5,6,6],"right_children":[2,4,-1,6,8,10,12,-1,-1,-1,-1,-1,-1],"split_conditions":[4.088017E4,3.792346E4,-1.6892469E-2,2.8644907E-1,6.618E-2,6.316193E-2,3.874793E-1,-6.24755E-3,3.756138E-2,2.0648364E-4,2.7832722E-2,9.524864E-3,-3.462972E-2],"split_indices":[39,38,0,26,20,26,16,0,0,0,0,0,0],"split_type":[0,0,0,0,0,0,0,0,0,0,0,0,0],"sum_hessian":[1.1723387E2,1.069491E2,1.0284773E1,8.365317E1,2.3295929E1,5.0567417E1,3.308575E1,1.202636E1,1.1269569E1,3.9997787E1,1.0569629E1,1.4752176E1,1.8333574E1],"tree_param":{"num_deleted":"0","num_feature":"64","num_nodes":"13","size_leaf_vector":"1"}},{"base_weights":[1.1182756E-4,9.797478E-2,-1.23155974E-1,1.28839365E-5,2.756396E-2,-2.9825736E-2,2.319264E-2,-1.05951406E-1,2.060651E-2,2.6901516E-1,-2.2437957E-1,-1.1965635E-2,4.2880354E-3,-5.3898003E-3,3.0888686E-2,-2.3971884E-2,2.467971E-3],"categories":[],"categories_nodes":[],"categories_segments":[],"categories_sizes":[],"default_left":[0,0,0,0,0,0,0,0,0,0,0,0,0,0,0,0,0],"id":76,"left_children":[1,3,5,7,-1,-1,9,11,-1,13,15,-1,-1,-1,-1,-1,-1],"loss_changes":[1.4360709E0,2.9467976E0,3.6635535E0,2.4702766E0,0E0,0E0,2.5680494E0,1.1709747E0,0E0,2.8434594E0,1.4950848E0,0E0,0E0,0E0,0E0,0E0,0E0],"parents":[2147483647,0,0,1,1,2,2,3,3,6,6,7,7,9,9,10,10],"right_children":[2,4,6,8,-1,-1,10,12,-1,14,16,-1,-1,-1,-1,-1,-1],"split_conditions":[3.793E-1,3.10653E0,6.667203E4,5.35E-1,2.756396E-2,-2.9825736E-2,-1.595E-1,2.840507E1,2.060651E-2,-2.0191666E-1,-5.03E1,-1.1965635E-2,4.2880354E-3,-5.3898003E-3,3.0888686E-2,-2.3971884E-2,2.467971E-3],"split_indices":[46,28,10,3,0,0,17,4,0,19,48,0,0,0,0,0,0],"split_type":[0,0,0,0,0,0,0,0,0,0,0,0,0,0,0,0,0],"sum_hessian":[1.1704388E2,6.535967E1,5.16842E1,5.4567356E1,1.0792316E1,1.14792E1,4.0205E1,4.3997547E1,1.0569812E1,2.0130327E1,2.0074673E1,2.5801132E1,1.8196413E1,1.0008117E1,1.01222105E1,1.0002933E1,1.0071739E1],"tree_param":{"num_deleted":"0","num_feature":"64","num_nodes":"17","size_leaf_vector":"1"}},{"base_weights":[2.3039417E-4,-1.680958E-2,3.520025E-2,-1.9241286E-2,2.493482E-2,6.2207073E-2,-2.7779559E-2,-1.8739648E-3,2.8487641E-2],"categories":[],"categories_nodes":[],"categories_segments":[],"categories_sizes":[],"default_left":[0,0,0,0,0,0,0,0,0],"id":77,"left_children":[1,-1,3,5,-1,7,-1,-1,-1],"loss_changes":[1.3973068E0,0E0,2.724271E0,4.282346E0,0E0,4.3380003E0,0E0,0E0,0E0],"parents":[2147483647,0,0,2,2,3,3,5,5],"right_children":[2,-1,4,6,-1,8,-1,-1,-1],"split_conditions":[-4.017221E4,-1.680958E-2,3.54468E0,1.20007E0,2.493482E-2,1.51358E0,-2.7779559E-2,-1.8739648E-3,2.8487641E-2],"split_indices":[39,0,29,29,0,27,0,0,0],"split_type":[0,0,0,0,0,0,0,0,0],"sum_hessian":[1.1676594E2,1.0183492E1,1.0658244E2,9.6237076E1,1.034537E1,8.4316986E1,1.1920087E1,7.124919E1,1.30678E1],"tree_param":{"num_deleted":"0","num_feature":"64","num_nodes":"9","size_leaf_vector":"1"}},{"base_weights":[2.7351928E-4,9.492704E-2,-1.2748049E-1,1.868012E-1,-9.314994E-3,-2.7197918E-2,7.687733E-4,3.3452224E-2,3.6305763E-2,-2.388939E-1,2.37129E-2,-5.4705874E-3,1.2216577E-2,-2.8387604E-2,4.480065E-3],"categories":[],"categories_nodes":[],"categories_segments":[],"categories_sizes":[],"default_left":[0,0,0,0,0,0,0,0,0,0,0,0,0,0,0],"id":78,"left_children":[1,3,5,7,-1,-1,9,11,-1,13,-1,-1,-1,-1,-1],"loss_changes":[1.4353166E0,1.796376E0,2.6986442E0,4.267152E0,0E0,0E0,4.6094475E0,1.2755011E0,0E0,2.9645286E0,0E0,0E0,0E0,0E0,0E0],"parents":[2147483647,0,0,1,1,2,2,3,3,6,6,7,7,9,9],"right_children":[2,4,6,8,-1,-1,10,12,-1,14,-1,-1,-1,-1,-1],"split_conditions":[2E0,4.2711E-1,-1.71711E4,3.1244603E-1,-9.314994E-3,-2.7197918E-2,3.226E-1,2.8331223E1,3.6305763E-2,9.6767E-1,2.37129E-2,-5.4705874E-3,1.2216577E-2,-2.8387604E-2,4.480065E-3],"split_indices":[6,21,39,26,0,0,20,4,0,22,0,0,0,0,0],"split_type":[0,0,0,0,0,0,0,0,0,0,0,0,0,0,0],"sum_hessian":[1.1669533E2,6.717903E1,4.9516293E1,5.0889637E1,1.6289396E1,1.0894847E1,3.8621445E1,4.045006E1,1.0439574E1,2.5971233E1,1.2650214E1,2.44006E1,1.6049461E1,1.2614476E1,1.3356756E1],"tree_param":{"num_deleted":"0","num_feature":"64","num_nodes":"15","size_leaf_vector":"1"}},{"base_weights":[3.121575E-4,3.49101E-2,-1.6548268E-2,-4.0268853E-2,2.9555222E-1,1.24027476E-1,-2.8969514E-1,-6.2302095E-3,3.59232E-2,3.4601399E-4,2.6481062E-2,9.105571E-3,-3.3082783E-2],"categories":[],"categories_nodes":[],"categories_segments":[],"categories_sizes":[],"default_left":[0,0,0,0,0,0,0,0,0,0,0,0,0],"id":79,"left_children":[1,3,-1,5,7,9,11,-1,-1,-1,-1,-1,-1],"loss_changes":[1.3582361E0,2.114225E0,0E0,3.484439E0,4.378667E0,2.4393277E0,6.0377355E0,0E0,0E0,0E0,0E0,0E0,0E0],"parents":[2147483647,0,0,1,1,3,3,4,4,5,5,6,6],"right_children":[2,4,-1,6,8,10,12,-1,-1,-1,-1,-1,-1],"split_conditions":[4.088017E4,3.792346E4,-1.6548268E-2,2.8644907E-1,5.285411E-1,6.316193E-2,3.874793E-1,-6.2302095E-3,3.59232E-2,3.4601399E-4,2.6481062E-2,9.105571E-3,-3.3082783E-2],"split_indices":[39,38,0,26,25,26,16,0,0,0,0,0,0],"split_type":[0,0,0,0,0,0,0,0,0,0,0,0,0],"sum_hessian":[1.16495926E2,1.0628985E2,1.0206074E1,8.3151375E1,2.3138472E1,5.0433643E1,3.2717735E1,1.1960883E1,1.1177588E1,3.992356E1,1.0510078E1,1.4648066E1,1.806967E1],"tree_param":{"num_deleted":"0","num_feature":"64","num_nodes":"13","size_leaf_vector":"1"}},{"base_weights":[4.2329507E-4,9.74965E-2,-1.22442916E-1,4.4617476E-3,2.6466632E-2,-2.9055575E-2,1.913635E-2,-9.6429035E-2,1.9930046E-2,2.2890696E-1,-1.3004585E-2,-9.745161E-3,6.5951743E-3,-6.9881463E-4,2.373993E-2],"categories":[],"categories_nodes":[],"categories_segments":[],"categories_sizes":[],"default_left":[0,0,0,0,0,0,0,0,0,0,0,0,0,0,0],"id":80,"left_children":[1,3,5,7,-1,-1,9,11,-1,13,-1,-1,-1,-1,-1],"loss_changes":[1.4109437E0,2.6525836E0,3.4017909E0,2.240556E0,0E0,0E0,2.4532444E0,1.0352111E0,0E0,1.4320723E0,0E0,0E0,0E0,0E0,0E0],"parents":[2147483647,0,0,1,1,2,2,3,3,6,6,7,7,9,9],"right_children":[2,4,6,8,-1,-1,10,12,-1,14,-1,-1,-1,-1,-1],"split_conditions":[3.793E-1,3.10653E0,6.667203E4,5.35E-1,2.6466632E-2,-2.9055575E-2,6.861836E4,2.8853989E1,1.9930046E-2,8.337126E-1,-1.3004585E-2,-9.745161E-3,6.5951743E-3,-6.9881463E-4,2.373993E-2],"split_indices":[46,28,10,3,0,0,13,4,0,26,0,0,0,0,0],"split_type":[0,0,0,0,0,0,0,0,0,0,0,0,0,0,0],"sum_hessian":[1.1629723E2,6.5083244E1,5.1213993E1,5.437831E1,1.0704927E1,1.1347491E1,3.98665E1,4.3897007E1,1.0481306E1,2.2867477E1,1.6999023E1,3.0772146E1,1.312486E1,1.1978596E1,1.0888882E1],"tree_param":{"num_deleted":"0","num_feature":"64","num_nodes":"15","size_leaf_vector":"1"}},{"base_weights":[6.1025855E-4,3.7703574E-2,-1.5574767E-2,-1.3877957E-2,2.006629E-2,-1.832994E-2,4.820966E-2,2.4002938E-2,-1.0236959E-3],"categories":[],"categories_nodes":[],"categories_segments":[],"categories_sizes":[],"default_left":[0,0,0,0,0,0,0,0,0],"id":81,"left_children":[1,3,-1,5,-1,-1,7,-1,-1],"loss_changes":[1.3660896E0,1.9834261E0,0E0,2.0612805E0,0E0,0E0,2.389626E0,0E0,0E0],"parents":[2147483647,0,0,1,1,3,3,6,6],"right_children":[2,4,-1,6,-1,-1,8,-1,-1],"split_conditions":[4.799616E4,3.958892E4,-1.5574767E-2,2.0964529E-1,2.006629E-2,-1.832994E-2,3.6855823E-1,2.4002938E-2,-1.0236959E-3],"split_indices":[37,37,0,25,0,0,25,0,0],"split_type":[0,0,0,0,0,0,0,0,0],"sum_hessian":[1.1598551E2,1.0445087E2,1.1534645E1,9.2317085E1,1.2133782E1,1.3083716E1,7.923337E1,1.0050606E1,6.918276E1],"tree_param":{"num_deleted":"0","num_feature":"64","num_nodes":"9","size_leaf_vector":"1"}},{"base_weights":[6.5567176E-4,-2.0564058E-1,5.616409E-2,1.1391819E-2,-2.9310435E-2,2.5365045E-2,-1.02607235E-2,-2.7167587E-2,1.030949E-1,-3.144315E-3,1.7388204E-2],"categories":[],"categories_nodes":[],"categories_segments":[],"categories_sizes":[],"default_left":[0,0,0,0,0,0,0,0,0,0,0],"id":82,"left_children":[1,3,5,-1,-1,-1,7,-1,9,-1,-1],"loss_changes":[1.3504913E0,4.25865E0,2.7897284E0,0E0,0E0,0E0,5.0096846E0,0E0,2.8013008E0,0E0,0E0],"parents":[2147483647,0,0,1,1,2,2,6,6,8,8],"right_children":[2,4,6,-1,-1,-1,8,-1,10,-1,-1],"split_conditions":[-2.2916667E-1,-4.18E-1,-2.0383333E-1,1.1391819E-2,-2.9310435E-2,2.5365045E-2,-9.97E1,-2.7167587E-2,2.202731E4,-3.144315E-3,1.7388204E-2],"split_indices":[19,19,17,0,0,0,48,0,35,0,0],"split_type":[0,0,0,0,0,0,0,0,0,0,0],"sum_hessian":[1.1592611E2,2.4005465E1,9.192065E1,1.1410236E1,1.2595229E1,1.0945432E1,8.097521E1,1.3533986E1,6.744122E1,4.062476E1,2.6816467E1],"tree_param":{"num_deleted":"0","num_feature":"64","num_nodes":"11","size_leaf_vector":"1"}},{"base_weights":[5.6688907E-4,8.9427784E-2,-1.2462641E-1,1.612528E-1,-1.2913391E-2,1.4304757E-2,-2.4694254E-1,5.253411E-2,2.536412E-2,-4.778055E-1,4.3177535E-3,-5.978961E-3,6.1563235E-3,-9.339456E-3,-3.7503198E-2],"categories":[],"categories_nodes":[],"categories_segments":[],"categories_sizes":[],"default_left":[0,0,0,0,0,0,0,0,0,0,0,0,0,0,0],"id":83,"left_children":[1,3,5,7,-1,-1,9,11,-1,13,-1,-1,-1,-1,-1],"loss_changes":[1.310042E0,1.7615428E0,2.5266495E0,2.1438E0,0E0,0E0,2.981059E0,5.616691E-1,0E0,1.6604028E0,0E0,0E0,0E0,0E0,0E0],"parents":[2147483647,0,0,1,1,2,2,3,3,6,6,7,7,9,9],"right_children":[2,4,6,8,-1,-1,10,12,-1,14,-1,-1,-1,-1,-1],"split_conditions":[8.3576003E-4,5.25E-1,4.8E-1,7.030401E-1,-1.2913391E-2,1.4304757E-2,7.0928E-1,4.7E-1,2.536412E-2,2.832E-1,4.3177535E-3,-5.978961E-3,6.1563235E-3,-9.339456E-3,-3.7503198E-2],"split_indices":[14,1,0,26,0,0,22,3,0,22,0,0,0,0,0],"split_type":[0,0,0,0,0,0,0,0,0,0,0,0,0,0,0],"sum_hessian":[1.15756996E2,6.786957E1,4.788743E1,5.6694218E1,1.117535E1,1.068147E1,3.720596E1,4.401653E1,1.267769E1,2.1724577E1,1.5481383E1,1.2600626E1,3.1415901E1,1.1315519E1,1.0409058E1],"tree_param":{"num_deleted":"0","num_feature":"64","num_nodes":"15","size_leaf_vector":"1"}},{"base_weights":[3.9585534E-4,3.413937E-2,-1.6185505E-2,-3.800363E-2,2.848323E-1,4.6095986E-2,-2.6151318E-2,-5.6784847E-3,3.430968E-2,9.160007E-3,-1.4733128E-2],"categories":[],"categories_nodes":[],"categories_segments":[],"categories_sizes":[],"default_left":[0,0,0,0,0,0,0,0,0,0,0],"id":84,"left_children":[1,3,-1,5,7,9,-1,-1,-1,-1,-1],"loss_changes":[1.2864139E0,1.9373872E0,0E0,3.434238E0,3.9031687E0,3.4255705E0,0E0,0E0,0E0,0E0,0E0],"parents":[2147483647,0,0,1,1,3,3,4,4,5,5],"right_children":[2,4,-1,6,8,10,-1,-1,-1,-1,-1],"split_conditions":[4.088017E4,3.792346E4,-1.6185505E-2,2.3166E3,5.285411E-1,4.2711E-1,-2.6151318E-2,-5.6784847E-3,3.430968E-2,9.160007E-3,-1.4733128E-2],"split_indices":[39,38,0,39,25,21,0,0,0,0,0],"split_type":[0,0,0,0,0,0,0,0,0,0,0],"sum_hessian":[1.1561553E2,1.05523834E2,1.0091695E1,8.2601616E1,2.292222E1,7.116675E1,1.1434867E1,1.1863365E1,1.1058856E1,5.1077927E1,2.0088821E1],"tree_param":{"num_deleted":"0","num_feature":"64","num_nodes":"11","size_leaf_vector":"1"}},{"base_weights":[2.1043849E-4,-4.333863E-2,1.213296E-2,4.338011E-2,-2.8466302E-1,-9.623302E-2,3.9539623E-1,-3.0839274E-2,-1.6007126E-4,3.535019E-3,-2.2141067E-2,2.8125813E-2,9.44741E-3],"categories":[],"categories_nodes":[],"categories_segments":[],"categories_sizes":[],"default_left":[0,0,0,0,0,0,0,0,0,0,0,0,0],"id":85,"left_children":[1,3,-1,5,7,9,11,-1,-1,-1,-1,-1,-1],"loss_changes":[1.2393571E0,2.0948577E0,0E0,3.6784537E0,2.4694633E0,3.146457E0,6.262193E-1,0E0,0E0,0E0,0E0,0E0,0E0],"parents":[2147483647,0,0,1,1,3,3,4,4,5,5,6,6],"right_children":[2,4,-1,6,8,10,12,-1,-1,-1,-1,-1,-1],"split_conditions":[5.45E-1,5.1E-1,1.213296E-2,2.2774E-1,8.5449E-1,4.999E-1,6.4903E-1,-3.0839274E-2,-1.6007126E-4,3.535019E-3,-2.2141067E-2,2.8125813E-2,9.44741E-3],"split_indices":[3,3,0,20,28,46,24,0,0,0,0,0,0],"split_type":[0,0,0,0,0,0,0,0,0,0,0,0,0],"sum_hessian":[1.15384895E2,9.851136E1,1.6873535E1,7.307313E1,2.543823E1,5.284206E1,2.0231068E1,1.1122456E1,1.4315776E1,3.6201645E1,1.6640419E1,1.022731E1,1.0003758E1],"tree_param":{"num_deleted":"0","num_feature":"64","num_nodes":"13","size_leaf_vector":"1"}},{"base_weights":[2.0255486E-4,1.17254825E-2,-4.455339E-2,-3.7396744E-1,5.0044432E-2,-3.824255E-2,2.3693962E-3,-3.3738304E-2,2.5765613E-2,5.7846652E-3,-2.3977293E-2],"categories":[],"categories_nodes":[],"categories_segments":[],"categories_sizes":[],"default_left":[0,0,0,0,0,0,0,0,0,0,0],"id":86,"left_children":[1,-1,3,5,7,-1,-1,9,-1,-1,-1],"loss_changes":[1.2298737E0,0E0,3.0873659E0,3.6741393E0,3.0340288E0,0E0,0E0,4.486652E0,0E0,0E0,0E0],"parents":[2147483647,0,0,2,2,3,3,4,4,7,7],"right_children":[2,-1,4,6,8,-1,-1,10,-1,-1,-1],"split_conditions":[-2.2566667E-1,1.17254825E-2,-2.8833333E-2,1.32337E0,5.45E-1,-3.824255E-2,2.3693962E-3,5.1E-1,2.5765613E-2,5.7846652E-3,-2.3977293E-2],"split_indices":[18,0,18,27,3,0,0,3,0,0,0],"split_type":[0,0,0,0,0,0,0,0,0,0,0],"sum_hessian":[1.1528376E2,1.7809166E1,9.7474594E1,2.1087887E1,7.63867E1,1.0516609E1,1.0571279E1,6.551638E1,1.0870324E1,4.9623436E1,1.5892945E1],"tree_param":{"num_deleted":"0","num_feature":"64","num_nodes":"11","size_leaf_vector":"1"}},{"base_weights":[4.850636E-5,-5.2400492E-2,2.0122007E-1,7.924399E-2,-2.2156875E-1,2.2553656E-2,-1.8971631E-3,-8.974709E-2,2.0499086E-2,6.4234543E-3,-4.608562E-1,-1.3210203E-2,8.524171E-3,3.1435993E-3,-4.506382E-2],"categories":[],"categories_nodes":[],"categories_segments":[],"categories_sizes":[],"default_left":[0,0,0,0,0,0,0,0,0,0,0,0,0,0,0],"id":87,"left_children":[1,3,5,7,9,-1,-1,11,-1,-1,13,-1,-1,-1,-1],"loss_changes":[1.235931E0,2.0867345E0,1.4646251E0,2.9983883E0,3.4870567E0,0E0,0E0,1.6744012E0,0E0,0E0,5.713813E0,0E0,0E0,0E0,0E0],"parents":[2147483647,0,0,1,1,2,2,3,3,4,4,7,7,10,10],"right_children":[2,4,6,8,10,-1,-1,12,-1,-1,14,-1,-1,-1,-1],"split_conditions":[1.8E1,2.7264544E-1,3E-2,1.991221E4,4.6053064E-1,2.2553656E-2,-1.8971631E-3,5E-1,2.0499086E-2,6.4234543E-3,2.79852E4,-1.3210203E-2,8.524171E-3,3.1435993E-3,-4.506382E-2],"split_indices":[5,26,41,36,16,0,0,3,0,0,37,0,0,0,0],"split_type":[0,0,0,0,0,0,0,0,0,0,0,0,0,0,0],"sum_hessian":[1.151367E2,9.19129E1,2.3223804E1,5.1988056E1,3.9924847E1,1.0924731E1,1.2299072E1,3.488973E1,1.709833E1,1.639898E1,2.3525867E1,2.0877985E1,1.4011744E1,1.1138136E1,1.2387731E1],"tree_param":{"num_deleted":"0","num_feature":"64","num_nodes":"15","size_leaf_vector":"1"}},{"base_weights":[4.355221E-5,-4.2339113E-2,1.2385863E-2,1.2467549E-2,-2.3963287E-2,-5.182284E-2,1.2929221E-2,4.464933E-3,-1.394388E-2],"categories":[],"categories_nodes":[],"categories_segments":[],"categories_sizes":[],"default_left":[0,0,0,0,0,0,0,0,0],"id":88,"left_children":[1,3,-1,5,-1,7,-1,-1,-1],"loss_changes":[1.22804E0,2.3981202E0,0E0,1.4332906E0,0E0,2.3314161E0,0E0,0E0,0E0],"parents":[2147483647,0,0,1,1,3,3,5,5],"right_children":[2,4,-1,6,-1,8,-1,-1,-1],"split_conditions":[2.4616666E-1,1.025E-1,1.2385863E-2,1.8E1,-2.3963287E-2,2.566275E4,1.2929221E-2,4.464933E-3,-1.394388E-2],"split_indices":[18,18,0,5,0,38,0,0,0],"split_type":[0,0,0,0,0,0,0,0,0],"sum_hessian":[1.14989655E2,9.8895424E1,1.6094227E1,8.873612E1,1.0159306E1,7.098336E1,1.775276E1,4.4149685E1,2.6833675E1],"tree_param":{"num_deleted":"0","num_feature":"64","num_nodes":"9","size_leaf_vector":"1"}},{"base_weights":[-3.3810713E-5,-3.4837376E-2,1.4926197E-2,2.7190197E-2,-2.5331018E-2,-4.1644614E-2,1.9774646E-2,-5.8479E-3,1.3216406E-2],"categories":[],"categories_nodes":[],"categories_segments":[],"categories_sizes":[],"default_left":[0,0,0,0,0,0,0,0,0],"id":89,"left_children":[1,3,-1,5,-1,7,-1,-1,-1],"loss_changes":[1.2142216E0,3.0763197E0,0E0,2.3854265E0,0E0,1.8659664E0,0E0,0E0,0E0],"parents":[2147483647,0,0,1,1,3,3,5,5],"right_children":[2,4,-1,6,-1,8,-1,-1,-1],"split_conditions":[8.5529554E-1,6.0355896E-1,1.4926197E-2,5.45E-1,-2.5331018E-2,6.796284E4,1.9774646E-2,-5.8479E-3,1.3216406E-2],"split_indices":[16,16,0,3,0,10,0,0,0],"split_type":[0,0,0,0,0,0,0,0,0],"sum_hessian":[1.1485375E2,1.0365389E2,1.1199859E1,9.244241E1,1.121148E1,7.863303E1,1.380938E1,6.3596806E1,1.5036228E1],"tree_param":{"num_deleted":"0","num_feature":"64","num_nodes":"9","size_leaf_vector":"1"}},{"base_weights":[1.101986E-4,-1.920437E-1,5.1590193E-2,1.1204211E-2,-2.7930612E-2,2.441553E-2,-1.2656771E-2,-2.5451994E-2,9.175971E-2,2.2396083E-5,2.7237093E-2],"categories":[],"categories_nodes":[],"categories_segments":[],"categories_sizes":[],"default_left":[0,0,0,0,0,0,0,0,0,0,0],"id":90,"left_children":[1,3,5,-1,-1,-1,7,-1,9,-1,-1],"loss_changes":[1.1552386E0,3.8893437E0,2.5904846E0,0E0,0E0,0E0,4.2589006E0,0E0,2.8120666E0,0E0,0E0],"parents":[2147483647,0,0,1,1,2,2,6,6,8,8],"right_children":[2,4,6,-1,-1,-1,8,-1,10,-1,-1],"split_conditions":[-2.2916667E-1,-4.18E-1,-2.0383333E-1,1.1204211E-2,-2.7930612E-2,2.441553E-2,-9.97E1,-2.5451994E-2,3.667219E4,2.2396083E-5,2.7237093E-2],"split_indices":[19,19,17,0,0,0,48,0,36,0,0],"split_type":[0,0,0,0,0,0,0,0,0,0,0],"sum_hessian":[1.14782616E2,2.3676693E1,9.110593E1,1.1270799E1,1.2405893E1,1.0837463E1,8.026846E1,1.3276853E1,6.699161E1,5.658603E1,1.040558E1],"tree_param":{"num_deleted":"0","num_feature":"64","num_nodes":"11","size_leaf_vector":"1"}},{"base_weights":[1.7785978E-4,3.4253083E-2,-1.43972365E-2,-1.2341068E-2,2.137206E-2,6.3842215E-2,-2.4955789E-2,7.419325E-3,-1.6628463E-2],"categories":[],"categories_nodes":[],"categories_segments":[],"categories_sizes":[],"default_left":[0,0,0,0,0,0,0,0,0],"id":91,"left_children":[1,3,-1,5,-1,7,-1,-1,-1],"loss_changes":[1.1448563E0,1.915577E0,0E0,3.525077E0,0E0,2.8087926E0,0E0,0E0,0E0],"parents":[2147483647,0,0,1,1,3,3,5,5],"right_children":[2,4,-1,6,-1,8,-1,-1,-1],"split_conditions":[4.799616E4,3.64468E0,-1.43972365E-2,1.20007E0,2.137206E-2,1.918394E4,-2.4955789E-2,7.419325E-3,-1.6628463E-2],"split_indices":[37,29,0,29,0,39,0,0,0],"split_type":[0,0,0,0,0,0,0,0,0],"sum_hessian":[1.1460518E2,1.0327261E2,1.1332564E1,9.319705E1,1.0075561E1,8.1336266E1,1.1860787E1,