{"learner":{"attributes":{"scikit_learn":"{\"_estimator_type\": \"classifier\"}"},"feature_names":[],"feature_types":[],"gradient_booster":{"model":{"cats":{"enc":[],"feature_segments":[],"sorted_idx":[]},"gbtree_model_param":{"num_parallel_tree":"1","num_trees":"200"},"iteration_indptr":[0,1,2,3,4,5,6,7,8,9,10,11,12,13,14,15,16,17,18,19,20,21,22,23,24,25,26,27,28,29,30,31,32,33,34,35,36,37,38,39,40,41,42,43,44,45,46,47,48,49,50,51,52,53,54,55,56,57,58,59,60,61,62,63,64,65,66,67,68,69,70,71,72,73,74,75,76,77,78,79,80,81,82,83,84,85,86,87,88,89,90,91,92,93,94,95,96,97,98,99,100,101,102,103,104,105,106,107,108,109,110,111,112,113,114,115,116,117,118,119,120,121,122,123,124,125,126,127,128,129,130,131,132,133,134,135,136,137,138,139,140,141,142,143,144,145,146,147,148,149,150,151,152,153,154,155,156,157,158,159,160,161,162,163,164,165,166,167,168,169,170,171,172,173,174,175,176,177,178,179,180,181,182,183,184,185,186,187,188,189,190,191,192,193,194,195,196,197,198,199,200],"tree_info":[0,0,0,0,0,0,0,0,0,0,0,0,0,0,0,0,0,0,0,0,0,0,0,0,0,0,0,0,0,0,0,0,0,0,0,0,0,0,0,0,0,0,0,0,0,0,0,0,0,0,0,0,0,0,0,0,0,0,0,0,0,0,0,0,0,0,0,0,0,0,0,0,0,0,0,0,0,0,0,0,0,0,0,0,0,0,0,0,0,0,0,0,0,0,0,0,0,0,0,0,0,0,0,0,0,0,0,0,0,0,0,0,0,0,0,0,0,0,0,0,0,0,0,0,0,0,0,0,0,0,0,0,0,0,0,0,0,0,0,0,0,0,0,0,0,0,0,0,0,0,0,0,0,0,0,0,0,0,0,0,0,0,0,0,0,0,0,0,0,0,0,0,0,0,0,0,0,0,0,0,0,0,0,0,0,0,0,0,0,0,0,0,0,0,0,0,0,0,0,0],"trees":[{"base_weights":[-0E0,-8.52292E-1,8.9165187E-1,-7.198697E-2,-1.0067115E-2,7.575758E-2,1.6190477E-2],"categories":[],"categories_nodes":[],"categories_segments":[],"categories_sizes":[],"default_left":[0,0,0,0,0,0,0],"id":0,"left_children":[1,3,5,-1,-1,-1,-1],"loss_changes":[5.471624E1,1.3787174E1,1.1967497E1,0E0,0E0,0E0,0E0],"parents":[2147483647,0,0,1,1,2,2],"right_children":[2,4,6,-1,-1,-1,-1],"split_conditions":[-1.130436E1,-6.12245E1,5.2E-1,-7.198697E-2,-1.0067115E-2,7.575758E-2,1.6190477E-2],"split_indices":[60,60,61,0,0,0,0],"split_type":[0,0,0,0,0,0,0],"sum_hessian":[7E1,3.58125E1,3.41875E1,1.81875E1,1.7625E1,1.55E1,1.86875E1],"tree_param":{"num_deleted":"0","num_feature":"67","num_nodes":"7","size_leaf_vector":"1"}},{"base_weights":[1.3948284E-4,-8.124513E-1,8.50265E-1,-6.866094E-2,-9.591018E-3,7.229833E-2,1.5423049E-2],"categories":[],"categories_nodes":[],"categories_segments":[],"categories_sizes":[],"default_left":[0,0,0,0,0,0,0],"id":1,"left_children":[1,3,5,-1,-1,-1,-1],"loss_changes":[4.970513E1,1.2540081E1,1.0903299E1,0E0,0E0,0E0,0E0],"parents":[2147483647,0,0,1,1,2,2],"right_children":[2,4,6,-1,-1,-1,-1],"split_conditions":[-1.130436E1,-6.12245E1,5.2E-1,-6.866094E-2,-9.591018E-3,7.229833E-2,1.5423049E-2],"split_indices":[60,60,61,0,0,0,0],"split_type":[0,0,0,0,0,0,0],"sum_hessian":[6.995257E1,3.578851E1,3.416406E1,1.8163956E1,1.7624552E1,1.5477781E1,1.8686275E1],"tree_param":{"num_deleted":"0","num_feature":"67","num_nodes":"7","size_leaf_vector":"1"}},{"base_weights":[2.665119E-4,-7.754308E-1,8.118247E-1,-6.5638736E-2,-9.137842E-3,6.917091E-2,1.4693692E-2],"categories":[],"categories_nodes":[],"categories_segments":[],"categories_sizes":[],"default_left":[0,0,0,0,0,0,0],"id":2,"left_children":[1,3,5,-1,-1,-1,-1],"loss_changes":[4.5211956E1,1.14546585E1,9.984522E0,0E0,0E0,0E0,0E0],"parents":[2147483647,0,0,1,1,2,2],"right_children":[2,4,6,-1,-1,-1,-1],"split_conditions":[-1.130436E1,-6.12245E1,5.2E-1,-6.5638736E-2,-9.137842E-3,6.917091E-2,1.4693692E-2],"split_indices":[60,60,61,0,0,0,0],"split_type":[0,0,0,0,0,0,0],"sum_hessian":[6.981935E1,3.572115E1,3.4098198E1,1.809785E1,1.7623299E1,1.5415367E1,1.8682833E1],"tree_param":{"num_deleted":"0","num_feature":"67","num_nodes":"7","size_leaf_vector":"1"}},{"base_weights":[3.8283478E-4,-7.4088866E-1,7.7597153E-1,-6.287428E-2,-8.70642E-3,6.632368E-2,1.4000234E-2],"categories":[],"categories_nodes":[],"categories_segments":[],"categories_sizes":[],"default_left":[0,0,0,0,0,0,0],"id":3,"left_children":[1,3,5,-1,-1,-1,-1],"loss_changes":[4.117174E1,1.0501919E1,9.183584E0,0E0,0E0,0E0,0E0],"parents":[2147483647,0,0,1,1,2,2],"right_children":[2,4,6,-1,-1,-1,-1],"split_conditions":[-1.130436E1,-6.12245E1,5.2E-1,-6.287428E-2,-8.70642E-3,6.632368E-2,1.4000234E-2],"split_indices":[60,60,61,0,0,0,0],"split_type":[0,0,0,0,0,0,0],"sum_hessian":[6.9612785E1,3.5616722E1,3.3996063E1,1.7995377E1,1.7621347E1,1.5318577E1,1.8677485E1],"tree_param":{"num_deleted":"0","num_feature":"67","num_nodes":"7","size_leaf_vector":"1"}},{"base_weights":[4.897485E-4,-7.085386E-1,7.4240476E-1,-6.0330153E-2,-8.295641E-3,6.0147386E-2,9.896672E-3],"categories":[],"categories_nodes":[],"categories_segments":[],"categories_sizes":[],"default_left":[0,0,0,0,0,0,0],"id":4,"left_children":[1,3,5,-1,-1,-1,-1],"loss_changes":[3.7529655E1,9.659214E0,8.503904E0,0E0,0E0,0E0,0E0],"parents":[2147483647,0,0,1,1,2,2],"right_children":[2,4,6,-1,-1,-1,-1],"split_conditions":[-1.130436E1,-6.12245E1,6.7E-1,-6.0330153E-2,-8.295641E-3,6.0147386E-2,9.896672E-3],"split_indices":[60,60,61,0,0,0,0],"split_type":[0,0,0,0,0,0,0],"sum_hessian":[6.9343925E1,3.548083E1,3.3863094E1,1.7862026E1,1.7618803E1,1.7690302E1,1.617279E1],"tree_param":{"num_deleted":"0","num_feature":"67","num_nodes":"7","size_leaf_vector":"1"}},{"base_weights":[4.82942E-4,-6.7813945E-1,7.105455E-1,-1.0329825E0,8.16988E-4,6.144281E-2,1.2560113E-2,-2.2824638E-2,-7.260694E-2],"categories":[],"categories_nodes":[],"categories_segments":[],"categories_sizes":[],"default_left":[0,0,0,0,0,0,0,0,0],"id":5,"left_children":[1,3,5,7,-1,-1,-1,-1,-1],"loss_changes":[3.422588E1,8.966869E0,7.955065E0,5.1491184E0,0E0,0E0,0E0,0E0,0E0],"parents":[2147483647,0,0,1,1,2,2,3,3],"right_children":[2,4,6,8,-1,-1,-1,-1,-1],"split_conditions":[-1.130436E1,1.06253E0,5.2E-1,2.635117E4,8.16988E-4,6.144281E-2,1.2560113E-2,-2.2824638E-2,-7.260694E-2],"split_indices":[60,21,61,37,0,0,0,0,0],"split_type":[0,0,0,0,0,0,0,0,0],"sum_hessian":[6.902807E1,3.531843E1,3.370964E1,2.3052416E1,1.2266015E1,1.5051117E1,1.8658525E1,1.0584299E1,1.2468117E1],"tree_param":{"num_deleted":"0","num_feature":"67","num_nodes":"9","size_leaf_vector":"1"}},{"base_weights":[1.8893417E-4,-5.6835633E-2,4.060576E-1,6.782214E-1,-2.7178464E-2,8.829991E-3,9.3543035E-1,6.451402E-2,1.5476798E-2],"categories":[],"categories_nodes":[],"categories_segments":[],"categories_sizes":[],"default_left":[0,0,0,0,0,0,0,0,0],"id":6,"left_children":[1,-1,3,5,-1,-1,7,-1,-1],"loss_changes":[3.2637142E1,0E0,1.3839849E1,5.1190643E0,0E0,0E0,5.5620365E0,0E0,0E0],"parents":[2147483647,0,0,2,2,3,3,6,6],"right_children":[2,-1,4,6,-1,-1,8,-1,-1],"split_conditions":[-6.12245E1,-5.6835633E-2,5.0857145E-1,1.0814363E2,-2.7178464E-2,8.829991E-3,2.8354403E1,6.451402E-2,1.5476798E-2],"split_indices":[60,0,16,44,0,0,4,0,0],"split_type":[0,0,0,0,0,0,0,0,0],"sum_hessian":[6.872971E1,1.7607544E1,5.1122173E1,3.995643E1,1.1165744E1,1.41150875E1,2.5841341E1,1.5814076E1,1.0027266E1],"tree_param":{"num_deleted":"0","num_feature":"67","num_nodes":"9","size_leaf_vector":"1"}},{"base_weights":[2.3186146E-4,-5.4721605E-2,3.881086E-1,6.488698E-1,-2.5936037E-2,8.422601E-3,8.963322E-1,6.1968256E-2,1.4782491E-2],"categories":[],"categories_nodes":[],"categories_segments":[],"categories_sizes":[],"default_left":[0,0,0,0,0,0,0,0,0],"id":7,"left_children":[1,-1,3,5,-1,-1,7,-1,-1],"loss_changes":[2.9888325E1,0E0,1.2626981E1,4.700941E0,0E0,0E0,5.1363144E0,0E0,0E0],"parents":[2147483647,0,0,2,2,3,3,6,6],"right_children":[2,-1,4,6,-1,-1,8,-1,-1],"split_conditions":[-6.12245E1,-5.4721605E-2,5.0857145E-1,1.0814363E2,-2.5936037E-2,8.422601E-3,2.8354403E1,6.1968256E-2,1.4782491E-2],"split_indices":[60,0,16,44,0,0,4,0,0],"split_type":[0,0,0,0,0,0,0,0,0],"sum_hessian":[6.839221E1,1.7416853E1,5.097536E1,3.981183E1,1.1163533E1,1.41065035E1,2.5705322E1,1.568487E1,1.0020453E1],"tree_param":{"num_deleted":"0","num_feature":"67","num_nodes":"9","size_leaf_vector":"1"}},{"base_weights":[2.730224E-4,-6.1262137E-1,6.4133763E-1,-9.548371E-1,2.5271538E-3,5.6355845E-2,1.1108402E-2,-1.980321E-2,-6.825186E-2],"categories":[],"categories_nodes":[],"categories_segments":[],"categories_sizes":[],"default_left":[0,0,0,0,0,0,0,0,0],"id":8,"left_children":[1,3,5,7,-1,-1,-1,-1,-1],"loss_changes":[2.7507723E1,8.171132E0,6.717392E0,4.882292E0,0E0,0E0,0E0,0E0,0E0],"parents":[2147483647,0,0,1,1,2,2,3,3],"right_children":[2,4,6,8,-1,-1,-1,-1,-1],"split_conditions":[-1.130436E1,1.06253E0,5.2E-1,2.635117E4,2.5271538E-3,5.6355845E-2,1.1108402E-2,-1.980321E-2,-6.825186E-2],"split_indices":[60,21,61,37,0,0,0,0,0],"split_type":[0,0,0,0,0,0,0,0,0],"sum_hessian":[6.801117E1,3.4792202E1,3.3218967E1,2.2659369E1,1.2132835E1,1.4604619E1,1.8614347E1,1.04245825E1,1.2234786E1],"tree_param":{"num_deleted":"0","num_feature":"67","num_nodes":"9","size_leaf_vector":"1"}},{"base_weights":[1.4005866E-5,-5.1811177E-2,3.6366227E-1,6.095863E-1,-2.4252314E-2,3.8474488E-1,5.739948E-2,3.974855E-4,4.4697154E-2],"categories":[],"categories_nodes":[],"categories_segments":[],"categories_sizes":[],"default_left":[0,0,0,0,0,0,0,0,0],"id":9,"left_children":[1,-1,3,5,-1,7,-1,-1,-1],"loss_changes":[2.6240587E1,0E0,1.105435E1,4.450042E0,0E0,5.7505507E0,0E0,0E0,0E0],"parents":[2147483647,0,0,2,2,3,3,5,5],"right_children":[2,-1,4,6,-1,8,-1,-1,-1],"split_conditions":[-6.12245E1,-5.1811177E-2,5.0857145E-1,3.7638E-1,-2.4252314E-2,2E0,5.739948E-2,3.974855E-4,4.4697154E-2],"split_indices":[60,0,16,20,0,56,0,0,0],"split_type":[0,0,0,0,0,0,0,0,0],"sum_hessian":[6.763579E1,1.7089294E1,5.0546494E1,3.940899E1,1.1137505E1,2.9009146E1,1.0399843E1,1.7255833E1,1.1753314E1],"tree_param":{"num_deleted":"0","num_feature":"67","num_nodes":"9","size_leaf_vector":"1"}},{"base_weights":[3.7262708E-4,-5.0001692E-2,3.482422E-1,5.840953E-1,-2.3160027E-2,6.466627E-3,8.2159823E-1,5.7061143E-2,1.5080862E-2],"categories":[],"categories_nodes":[],"categories_segments":[],"categories_sizes":[],"default_left":[0,0,0,0,0,0,0,0,0],"id":10,"left_children":[1,-1,3,5,-1,-1,7,-1,-1],"loss_changes":[2.4095644E1,0E0,1.010242E1,4.2406225E0,0E0,0E0,4.018776E0,0E0,0E0],"parents":[2147483647,0,0,2,2,3,3,6,6],"right_children":[2,-1,4,6,-1,-1,8,-1,-1],"split_conditions":[-6.12245E1,-5.0001692E-2,5.0857145E-1,1.0814363E2,-2.3160027E-2,6.466627E-3,2.8354254E1,5.7061143E-2,1.5080862E-2],"split_indices":[60,0,16,44,0,0,4,0,0],"split_type":[0,0,0,0,0,0,0,0,0],"sum_hessian":[6.723748E1,1.6864283E1,5.0373196E1,3.924613E1,1.1127063E1,1.39944935E1,2.525164E1,1.4898819E1,1.0352821E1],"tree_param":{"num_deleted":"0","num_feature":"67","num_nodes":"9","size_leaf_vector":"1"}},{"base_weights":[4.2427983E-4,-5.5827945E-1,5.838065E-1,-8.8949996E-1,3.8168177E-3,5.276557E-3,4.8616596E-2,-1.7251741E-2,-6.468394E-2],"categories":[],"categories_nodes":[],"categories_segments":[],"categories_sizes":[],"default_left":[0,0,0,0,0,0,0,0,0],"id":11,"left_children":[1,3,5,7,-1,-1,-1,-1,-1],"loss_changes":[2.2421959E1,7.4541836E0,6.1507616E0,4.652027E0,0E0,0E0,0E0,0E0,0E0],"parents":[2147483647,0,0,1,1,2,2,3,3],"right_children":[2,4,6,8,-1,-1,-1,-1,-1],"split_conditions":[-1.130436E1,1.06253E0,1.66458E0,2.635117E4,3.8168177E-3,5.276557E-3,4.8616596E-2,-1.7251741E-2,-6.468394E-2],"split_indices":[60,21,28,37,0,0,0,0,0],"split_type":[0,0,0,0,0,0,0,0,0],"sum_hessian":[6.679216E1,3.413969E1,3.265247E1,2.2168047E1,1.1971644E1,1.5205766E1,1.7446705E1,1.0234681E1,1.1933366E1],"tree_param":{"num_deleted":"0","num_feature":"67","num_nodes":"9","size_leaf_vector":"1"}},{"base_weights":[2.445657E-5,-4.7511812E-2,3.263838E-1,5.511494E-1,-2.2093775E-2,3.3546183E-1,5.3549755E-2,3.2708194E-2,-1.2628138E-2],"categories":[],"categories_nodes":[],"categories_segments":[],"categories_sizes":[],"default_left":[0,0,0,0,0,0,0,0,0],"id":12,"left_children":[1,-1,3,5,-1,7,-1,-1,-1],"loss_changes":[2.1224297E1,0E0,9.040101E0,4.109598E0,0E0,5.7170877E0,0E0,0E0,0E0],"parents":[2147483647,0,0,2,2,3,3,5,5],"right_children":[2,-1,4,6,-1,8,-1,-1,-1],"split_conditions":[-6.12245E1,-4.7511812E-2,5.0857145E-1,3.7638E-1,-2.2093775E-2,3E0,5.3549755E-2,3.2708194E-2,-1.2628138E-2],"split_indices":[60,0,16,20,0,6,0,0,0],"split_type":[0,0,0,0,0,0,0,0,0],"sum_hessian":[6.6437515E1,1.6495611E1,4.9941902E1,3.8856464E1,1.1085436E1,2.8625044E1,1.0231422E1,1.8490788E1,1.0134255E1],"tree_param":{"num_deleted":"0","num_feature":"67","num_nodes":"9","size_leaf_vector":"1"}},{"base_weights":[5.8926267E-5,-4.592551E-2,3.1244984E-1,5.4222E-1,-2.0441744E-2,5.1559705E-2,1.3322887E-1,-1.6387105E-2,3.1224806E-2],"categories":[],"categories_nodes":[],"categories_segments":[],"categories_sizes":[],"default_left":[0,0,0,0,0,0,0,0,0],"id":13,"left_children":[1,-1,3,5,-1,-1,7,-1,-1],"loss_changes":[1.9508184E1,0E0,8.629309E0,7.642975E0,0E0,0E0,5.262262E0,0E0,0E0],"parents":[2147483647,0,0,2,2,3,3,6,6],"right_children":[2,-1,4,6,-1,-1,8,-1,-1],"split_conditions":[-6.12245E1,-4.592551E-2,1.20007E0,6.7E-1,-2.0441744E-2,5.1559705E-2,8.9567E-1,-1.6387105E-2,3.1224806E-2],"split_indices":[60,0,29,61,0,0,27,0,0],"split_type":[0,0,0,0,0,0,0,0,0],"sum_hessian":[6.5983864E1,1.6252876E1,4.9730984E1,3.7904507E1,1.182648E1,1.6571247E1,2.1333258E1,1.1177724E1,1.0155533E1],"tree_param":{"num_deleted":"0","num_feature":"67","num_nodes":"9","size_leaf_vector":"1"}},{"base_weights":[5.8849684E-5,-5.101215E-1,5.3018975E-1,-8.2813257E-1,4.605901E-3,3.8964848E-3,4.5180198E-2,-1.4825227E-2,-6.1419558E-2],"categories":[],"categories_nodes":[],"categories_segments":[],"categories_sizes":[],"default_left":[0,0,0,0,0,0,0,0,0],"id":14,"left_children":[1,3,5,7,-1,-1,-1,-1,-1],"loss_changes":[1.8265194E1,6.6672583E0,5.522728E0,4.449437E0,0E0,0E0,0E0,0E0,0E0],"parents":[2147483647,0,0,1,1,2,2,3,3],"right_children":[2,4,6,8,-1,-1,-1,-1,-1],"split_conditions":[-1.130436E1,1.06253E0,1.66458E0,2.635117E4,4.605901E-3,3.8964848E-3,4.5180198E-2,-1.4825227E-2,-6.1419558E-2],"split_indices":[60,21,28,37,0,0,0,0,0],"split_type":[0,0,0,0,0,0,0,0,0],"sum_hessian":[6.553322E1,3.3414223E1,3.2118996E1,2.16218E1,1.1792422E1,1.5072571E1,1.7046427E1,1.0034562E1,1.1587238E1],"tree_param":{"num_deleted":"0","num_feature":"67","num_nodes":"9","size_leaf_vector":"1"}},{"base_weights":[-3.1004913E-4,-4.375052E-2,2.931072E-1,4.960727E-1,-2.3346176E-2,2.8660854E-3,7.292878E-1,5.3590536E-2,1.3107973E-2],"categories":[],"categories_nodes":[],"categories_segments":[],"categories_sizes":[],"default_left":[0,0,0,0,0,0,0,0,0],"id":15,"left_children":[1,-1,3,5,-1,-1,7,-1,-1],"loss_changes":[1.723362E1,0E0,7.9881043E0,4.06843E0,0E0,0E0,3.9018755E0,0E0,0E0],"parents":[2147483647,0,0,2,2,3,3,6,6],"right_children":[2,-1,4,6,-1,-1,8,-1,-1],"split_conditions":[-6.12245E1,-4.375052E-2,5.443709E-1,1.0814363E2,-2.3346176E-2,2.8660854E-3,2.814911E4,5.3590536E-2,1.3107973E-2],"split_indices":[60,0,16,44,0,0,35,0,0],"split_type":[0,0,0,0,0,0,0,0,0],"sum_hessian":[6.514846E1,1.586663E1,4.9281834E1,3.9169067E1,1.0112763E1,1.4026533E1,2.5142534E1,1.3759144E1,1.1383391E1],"tree_param":{"num_deleted":"0","num_feature":"67","num_nodes":"9","size_leaf_vector":"1"}},{"base_weights":[-2.724318E-4,-4.2332895E-2,2.8066844E-1,4.9635684E-1,-1.9409731E-2,4.821333E-2,1.1409222E-1,-1.6187435E-2,2.9105937E-2],"categories":[],"categories_nodes":[],"categories_segments":[],"categories_sizes":[],"default_left":[0,0,0,0,0,0,0,0,0],"id":16,"left_children":[1,-1,3,5,-1,-1,7,-1,-1],"loss_changes":[1.585613E1,0E0,7.415439E0,6.739891E0,0E0,0E0,4.7400427E0,0E0,0E0],"parents":[2147483647,0,0,2,2,3,3,6,6],"right_children":[2,-1,4,6,-1,-1,8,-1,-1],"split_conditions":[-6.12245E1,-4.2332895E-2,1.20007E0,6.7E-1,-1.9409731E-2,4.821333E-2,8.9567E-1,-1.6187435E-2,2.9105937E-2],"split_indices":[60,0,29,61,0,0,27,0,0],"split_type":[0,0,0,0,0,0,0,0,0],"sum_hessian":[6.468348E1,1.5617941E1,4.9065536E1,3.729645E1,1.1769085E1,1.6085068E1,2.1211384E1,1.1118369E1,1.0093016E1],"tree_param":{"num_deleted":"0","num_feature":"67","num_nodes":"9","size_leaf_vector":"1"}},{"base_weights":[-2.622562E-4,-4.667285E-1,4.8189044E-1,-7.765926E-1,5.6075132E-3,4.6464663E-2,6.4470186E-3,-1.3739881E-2,-5.8597274E-2],"categories":[],"categories_nodes":[],"categories_segments":[],"categories_sizes":[],"default_left":[0,0,0,0,0,0,0,0,0],"id":17,"left_children":[1,3,5,7,-1,-1,-1,-1,-1],"loss_changes":[1.4890733E1,6.1232347E0,5.0212665E0,4.051321E0,0E0,0E0,0E0,0E0,0E0],"parents":[2147483647,0,0,1,1,2,2,3,3],"right_children":[2,4,6,8,-1,-1,-1,-1,-1],"split_conditions":[-1.130436E1,1.06253E0,5.2E-1,2.634519E4,5.6075132E-3,4.6464663E-2,6.4470186E-3,-1.3739881E-2,-5.8597274E-2],"split_indices":[60,21,61,36,0,0,0,0,0],"split_type":[0,0,0,0,0,0,0,0,0],"sum_hessian":[6.42081E1,3.2651184E1,3.1556915E1,2.104474E1,1.1606444E1,1.319627E1,1.8360645E1,1.0020921E1,1.102382E1],"tree_param":{"num_deleted":"0","num_feature":"67","num_nodes":"9","size_leaf_vector":"1"}},{"base_weights":[-4.6486573E-4,-4.040901E-2,2.6430312E-1,4.5605037E-1,-2.2205185E-2,2.181933E-3,6.786106E-1,5.0545603E-2,1.1619561E-2],"categories":[],"categories_nodes":[],"categories_segments":[],"categories_sizes":[],"default_left":[0,0,0,0,0,0,0,0,0],"id":18,"left_children":[1,-1,3,5,-1,-1,7,-1,-1],"loss_changes":[1.4062196E1,0E0,6.92952E0,3.5929537E0,0E0,0E0,3.5558567E0,0E0,0E0],"parents":[2147483647,0,0,2,2,3,3,6,6],"right_children":[2,-1,4,6,-1,-1,8,-1,-1],"split_conditions":[-6.12245E1,-4.040901E-2,5.443709E-1,1.0814363E2,-2.2205185E-2,2.181933E-3,2.814911E4,5.0545603E-2,1.1619561E-2],"split_indices":[60,0,16,44,0,0,35,0,0],"split_type":[0,0,0,0,0,0,0,0,0],"sum_hessian":[6.3756264E1,1.5233063E1,4.85232E1,3.846733E1,1.0055872E1,1.3902185E1,2.4565144E1,1.3354494E1,1.121065E1],"tree_param":{"num_deleted":"0","num_feature":"67","num_nodes":"9","size_leaf_vector":"1"}},{"base_weights":[-4.2480615E-4,-3.912249E-2,2.5318933E-1,4.5911872E-1,-1.8909436E-2,4.500723E-2,1.0880395E-1,-1.5541221E-2,2.787985E-2],"categories":[],"categories_nodes":[],"categories_segments":[],"categories_sizes":[],"default_left":[0,0,0,0,0,0,0,0,0],"id":19,"left_children":[1,-1,3,5,-1,-1,7,-1,-1],"loss_changes":[1.2947518E1,0E0,6.583125E0,5.714896E0,0E0,0E0,4.3364425E0,0E0,0E0],"parents":[2147483647,0,0,2,2,3,3,6,6],"right_children":[2,-1,4,6,-1,-1,8,-1,-1],"split_conditions":[-6.12245E1,-3.912249E-2,1.20007E0,6.7E-1,-1.8909436E-2,4.500723E-2,8.9567E-1,-1.5541221E-2,2.787985E-2],"split_indices":[60,0,29,61,0,0,27,0,0],"split_type":[0,0,0,0,0,0,0,0,0],"sum_hessian":[6.3282986E1,1.4986519E1,4.8296467E1,3.662405E1,1.1672419E1,1.5518116E1,2.1105932E1,1.1066245E1,1.0039688E1],"tree_param":{"num_deleted":"0","num_feature":"67","num_nodes":"9","size_leaf_vector":"1"}},{"base_weights":[-4.05591E-4,-4.2792502E-1,4.398383E-1,-9.209701E-4,-4.293864E-2,1.0847828E-3,3.9741978E-2],"categories":[],"categories_nodes":[],"categories_segments":[],"categories_sizes":[],"default_left":[0,0,0,0,0,0,0],"id":20,"left_children":[1,3,5,-1,-1,-1,-1],"loss_changes":[1.21964E1,5.7845E0,4.721874E0,0E0,0E0,0E0,0E0],"parents":[2147483647,0,0,1,1,2,2],"right_children":[2,4,6,-1,-1,-1,-1],"split_conditions":[-1.130436E1,2.767635E4,1.66458E0,-9.209701E-4,-4.293864E-2,1.0847828E-3,3.9741978E-2],"split_indices":[60,36,28,0,0,0,0],"split_type":[0,0,0,0,0,0,0],"sum_hessian":[6.2801086E1,3.1875181E1,3.0925905E1,1.6876968E1,1.4998213E1,1.4687346E1,1.623856E1],"tree_param":{"num_deleted":"0","num_feature":"67","num_nodes":"7","size_leaf_vector":"1"}},{"base_weights":[-4.3747036E-4,-3.725918E-2,2.3761612E-1,4.286617E-1,-1.9606428E-2,2.3449056E-1,4.3488912E-2,-4.842778E-3,3.704749E-2],"categories":[],"categories_nodes":[],"categories_segments":[],"categories_sizes":[],"default_left":[0,0,0,0,0,0,0,0,0],"id":21,"left_children":[1,-1,3,5,-1,7,-1,-1,-1],"loss_changes":[1.1422402E1,0E0,6.042058E0,3.0454526E0,0E0,4.7220616E0,0E0,0E0,0E0],"parents":[2147483647,0,0,2,2,3,3,5,5],"right_children":[2,-1,4,6,-1,8,-1,-1,-1],"split_conditions":[-6.12245E1,-3.725918E-2,5.0857145E-1,3.1306E-1,-1.9606428E-2,2E0,4.3488912E-2,-4.842778E-3,3.704749E-2],"split_indices":[60,0,16,20,0,56,0,0,0],"split_type":[0,0,0,0,0,0,0,0,0],"sum_hessian":[6.2429226E1,1.4605592E1,4.782363E1,3.6937283E1,1.0886351E1,2.671113E1,1.02261505E1,1.6635967E1,1.0075163E1],"tree_param":{"num_deleted":"0","num_feature":"67","num_nodes":"9","size_leaf_vector":"1"}},{"base_weights":[-1.2269011E-4,-4.0205497E-1,4.1276282E-1,-7.0810884E-1,7.92142E-3,6.902769E-4,3.7817765E-2,-2.011634E-2,-4.7516678E-2],"categories":[],"categories_nodes":[],"categories_segments":[],"categories_sizes":[],"default_left":[0,0,0,0,0,0,0,0,0],"id":22,"left_children":[1,3,5,7,-1,-1,-1,-1,-1],"loss_changes":[1.0614472E1,5.6717854E0,4.3145003E0,1.1839018E0,0E0,0E0,0E0,0E0,0E0],"parents":[2147483647,0,0,1,1,2,2,3,3],"right_children":[2,4,6,8,-1,-1,-1,-1,-1],"split_conditions":[-1.130436E1,1.06253E0,1.66458E0,4.130608E-1,7.92142E-3,6.902769E-4,3.7817765E-2,-2.011634E-2,-4.7516678E-2],"split_indices":[60,21,28,26,0,0,0,0,0],"split_type":[0,0,0,0,0,0,0,0,0],"sum_hessian":[6.1961086E1,3.1410294E1,3.0550793E1,2.0146072E1,1.1264221E1,1.4617768E1,1.5933025E1,1.0080949E1,1.0065123E1],"tree_param":{"num_deleted":"0","num_feature":"67","num_nodes":"9","size_leaf_vector":"1"}},{"base_weights":[-4.6700428E-4,-3.5525646E-2,2.2312707E-1,5.7286024E-1,-1.10584505E-1,8.617911E-3,4.9332377E-2,2.602847E-2,-3.3587024E-2],"categories":[],"categories_nodes":[],"categories_segments":[],"categories_sizes":[],"default_left":[0,0,0,0,0,0,0,0,0],"id":23,"left_children":[1,-1,3,5,7,-1,-1,-1,-1],"loss_changes":[1.0093858E1,0E0,5.7067366E0,3.7695022E0,9.410185E0,0E0,0E0,0E0,0E0],"parents":[2147483647,0,0,2,2,3,3,4,4],"right_children":[2,-1,4,6,8,-1,-1,-1,-1],"split_conditions":[-6.12245E1,-3.5525646E-2,3E0,1.85961E0,3.1389853E-1,8.617911E-3,4.9332377E-2,2.602847E-2,-3.3587024E-2],"split_indices":[60,0,6,28,16,0,0,0,0],"split_type":[0,0,0,0,0,0,0,0,0],"sum_hessian":[6.1579964E1,1.4226036E1,4.7353928E1,2.2772001E1,2.4581924E1,1.2291591E1,1.0480412E1,1.1603428E1,1.29784975E1],"tree_param":{"num_deleted":"0","num_feature":"67","num_nodes":"9","size_leaf_vector":"1"}},{"base_weights":[-2.0214803E-4,-3.440466E-2,2.1430998E-1,4.0215194E-1,-1.7559461E-2,4.0827785E-2,8.6072795E-2,-1.5776679E-2,2.2821058E-2],"categories":[],"categories_nodes":[],"categories_segments":[],"categories_sizes":[],"default_left":[0,0,0,0,0,0,0,0,0],"id":24,"left_children":[1,-1,3,5,-1,-1,7,-1,-1],"loss_changes":[9.307424E0,0E0,5.2487288E0,4.7184067E0,0E0,0E0,3.3950393E0,0E0,0E0],"parents":[2147483647,0,0,2,2,3,3,6,6],"right_children":[2,-1,4,6,-1,-1,8,-1,-1],"split_conditions":[-6.12245E1,-3.440466E-2,1.20007E0,6.7E-1,-1.7559461E-2,4.0827785E-2,1.08E0,-1.5776679E-2,2.2821058E-2],"split_indices":[60,0,29,61,0,0,61,0,0],"split_type":[0,0,0,0,0,0,0,0,0],"sum_hessian":[6.1075756E1,1.3993644E1,4.708211E1,3.5559246E1,1.1522865E1,1.4701316E1,2.0857931E1,1.00776825E1,1.0780248E1],"tree_param":{"num_deleted":"0","num_feature":"67","num_nodes":"9","size_leaf_vector":"1"}},{"base_weights":[-2.453185E-4,-3.7286434E-1,3.8068655E-1,1.1030178E-3,-3.9812066E-2,4.002066E-2,3.8448328E-3],"categories":[],"categories_nodes":[],"categories_segments":[],"categories_sizes":[],"default_left":[0,0,0,0,0,0,0],"id":25,"left_children":[1,3,5,-1,-1,-1,-1],"loss_changes":[8.891302E0,5.312063E0,3.8880205E0,0E0,0E0,0E0,0E0],"parents":[2147483647,0,0,1,1,2,2],"right_children":[2,4,6,-1,-1,-1,-1],"split_conditions":[-1.130436E1,2.767635E4,5.2E-1,1.1030178E-3,-3.9812066E-2,4.002066E-2,3.8448328E-3],"split_indices":[60,36,61,0,0,0,0],"split_type":[0,0,0,0,0,0,0],"sum_hessian":[6.0640175E1,3.0665272E1,2.9974903E1,1.6356176E1,1.4309095E1,1.1899451E1,1.8075453E1],"tree_param":{"num_deleted":"0","num_feature":"67","num_nodes":"7","size_leaf_vector":"1"}},{"base_weights":[-1.3490695E-4,-3.2786567E-2,2.015384E-1,5.272348E-1,-1.033238E-1,7.5036795E-3,4.6415024E-2,2.4815135E-2,-3.1780627E-2],"categories":[],"categories_nodes":[],"categories_segments":[],"categories_sizes":[],"default_left":[0,0,0,0,0,0,0,0,0],"id":26,"left_children":[1,-1,3,5,7,-1,-1,-1,-1],"loss_changes":[8.228389E0,0E0,4.780219E0,3.3662333E0,8.428707E0,0E0,0E0,0E0,0E0],"parents":[2147483647,0,0,2,2,3,3,4,4],"right_children":[2,-1,4,6,8,-1,-1,-1,-1],"split_conditions":[-6.12245E1,-3.2786567E-2,3E0,1.85961E0,3.1389853E-1,7.5036795E-3,4.6415024E-2,2.4815135E-2,-3.1780627E-2],"split_indices":[60,0,6,28,16,0,0,0,0],"split_type":[0,0,0,0,0,0,0,0,0],"sum_hessian":[6.023476E1,1.3640614E1,4.6594147E1,2.2174658E1,2.4419489E1,1.2136093E1,1.0038566E1,1.1515177E1,1.2904312E1],"tree_param":{"num_deleted":"0","num_feature":"67","num_nodes":"9","size_leaf_vector":"1"}},{"base_weights":[1.1221256E-4,-3.4970734E-1,3.5747737E-1,-3.2487147E-2,9.53971E-3,1.5266967E-3,3.6546897E-2],"categories":[],"categories_nodes":[],"categories_segments":[],"categories_sizes":[],"default_left":[0,0,0,0,0,0,0],"id":27,"left_children":[1,3,5,-1,-1,-1,-1],"loss_changes":[7.7182884E0,5.183566E0,3.7066703E0,0E0,0E0,0E0,0E0],"parents":[2147483647,0,0,1,1,2,2],"right_children":[2,4,6,-1,-1,-1,-1],"split_conditions":[-1.130436E1,1.06253E0,2E0,-3.2487147E-2,9.53971E-3,1.5266967E-3,3.6546897E-2],"split_indices":[60,21,56,0,0,0,0],"split_type":[0,0,0,0,0,0,0],"sum_hessian":[5.9739735E1,3.0199406E1,2.9540329E1,1.928955E1,1.0909855E1,1.6327923E1,1.3212407E1],"tree_param":{"num_deleted":"0","num_feature":"67","num_nodes":"7","size_leaf_vector":"1"}},{"base_weights":[3.53468E-4,-3.1250253E-2,1.901908E-1,3.6845857E-1,-1.7015763E-2,3.5001032E-2,1.8641123E-3],"categories":[],"categories_nodes":[],"categories_segments":[],"categories_sizes":[],"default_left":[0,0,0,0,0,0,0],"id":28,"left_children":[1,-1,3,5,-1,-1,-1],"loss_changes":[7.2881722E0,0E0,4.5791335E0,3.8971386E0,0E0,0E0,0E0],"parents":[2147483647,0,0,2,2,3,3],"right_children":[2,-1,4,6,-1,-1,-1],"split_conditions":[-6.12245E1,-3.1250253E-2,1.20007E0,3E0,-1.7015763E-2,3.5001032E-2,1.8641123E-3],"split_indices":[60,0,29,6,0,0,0],"split_type":[0,0,0,0,0,0,0],"sum_hessian":[5.9390156E1,1.329656E1,4.6093597E1,3.4728962E1,1.1364634E1,1.6797829E1,1.7931133E1],"tree_param":{"num_deleted":"0","num_feature":"67","num_nodes":"7","size_leaf_vector":"1"}},{"base_weights":[1.4837403E-4,-3.0255515E-2,1.818958E-1,3.5304826E-1,-1.6228272E-2,3.6651522E-2,7.765009E-2,-1.6325768E-2,2.2659335E-2],"categories":[],"categories_nodes":[],"categories_segments":[],"categories_sizes":[],"default_left":[0,0,0,0,0,0,0,0,0],"id":29,"left_children":[1,-1,3,5,-1,-1,7,-1,-1],"loss_changes":[6.709427E0,0E0,4.1805425E0,3.661982E0,0E0,0E0,3.4450502E0,0E0,0E0],"parents":[2147483647,0,0,2,2,3,3,6,6],"right_children":[2,-1,4,6,-1,-1,8,-1,-1],"split_conditions":[-6.12245E1,-3.0255515E-2,1.20007E0,6.7E-1,-1.6228272E-2,3.6651522E-2,1.08E0,-1.6325768E-2,2.2659335E-2],"split_indices":[60,0,29,61,0,0,61,0,0],"split_type":[0,0,0,0,0,0,0,0,0],"sum_hessian":[5.8991886E1,1.3085363E1,4.590652E1,3.45378E1,1.1368722E1,1.3814902E1,2.0722898E1,1.0043873E1,1.0679026E1],"tree_param":{"num_deleted":"0","num_feature":"67","num_nodes":"9","size_leaf_vector":"1"}},{"base_weights":[9.987436E-5,-3.2433695E-1,3.2965896E-1,3.0503203E-3,-3.7229642E-2,-6.2200087E-3,2.9363383E-2],"categories":[],"categories_nodes":[],"categories_segments":[],"categories_sizes":[],"default_left":[0,0,0,0,0,0,0],"id":30,"left_children":[1,3,5,-1,-1,-1,-1],"loss_changes":[6.4782166E0,4.989831E0,3.5888054E0,0E0,0E0,0E0,0E0],"parents":[2147483647,0,0,1,1,2,2],"right_children":[2,4,6,-1,-1,-1,-1],"split_conditions":[-1.130436E1,2.767635E4,2.571837E4,3.0503203E-3,-3.7229642E-2,-6.2200087E-3,2.9363383E-2],"split_indices":[60,36,36,0,0,0,0],"split_type":[0,0,0,0,0,0,0],"sum_hessian":[5.858876E1,2.9531807E1,2.9056953E1,1.5851759E1,1.3680048E1,1.070518E1,1.8351774E1],"tree_param":{"num_deleted":"0","num_feature":"67","num_nodes":"7","size_leaf_vector":"1"}},{"base_weights":[-1.05077845E-4,-2.8828287E-2,1.7052254E-1,4.712752E-1,-1.04933284E-1,3.9895426E-2,4.6832054E-3,2.6138647E-2,-2.811267E-2],"categories":[],"categories_nodes":[],"categories_segments":[],"categories_sizes":[],"default_left":[0,0,0,0,0,0,0,0,0],"id":31,"left_children":[1,-1,3,5,7,-1,-1,-1,-1],"loss_changes":[5.929885E0,0E0,3.9032674E0,2.690608E0,7.4987674E0,0E0,0E0,0E0,0E0],"parents":[2147483647,0,0,2,2,3,3,4,4],"right_children":[2,-1,4,6,8,-1,-1,-1,-1],"split_conditions":[-6.12245E1,-2.8828287E-2,3E0,3.0289876E-1,2.5362012E-1,3.9895426E-2,4.6832054E-3,2.6138647E-2,-2.811267E-2],"split_indices":[60,0,6,26,16,0,0,0,0],"split_type":[0,0,0,0,0,0,0,0,0],"sum_hessian":[5.828793E1,1.276903E1,4.5518898E1,2.1420418E1,2.4098482E1,1.0888677E1,1.0531741E1,1.0096776E1,1.4001705E1],"tree_param":{"num_deleted":"0","num_feature":"67","num_nodes":"9","size_leaf_vector":"1"}},{"base_weights":[1.341897E-4,-3.026311E-1,3.0640417E-1,-2.9916748E-2,1.1080444E-2,-5.147936E-4,3.393216E-2],"categories":[],"categories_nodes":[],"categories_segments":[],"categories_sizes":[],"default_left":[0,0,0,0,0,0,0],"id":32,"left_children":[1,3,5,-1,-1,-1,-1],"loss_changes":[5.5519495E0,4.800127E0,3.5158427E0,0E0,0E0,0E0,0E0],"parents":[2147483647,0,0,1,1,2,2],"right_children":[2,4,6,-1,-1,-1,-1],"split_conditions":[-1.130436E1,1.06253E0,2E0,-2.9916748E-2,1.1080444E-2,-5.147936E-4,3.393216E-2],"split_indices":[60,21,56,0,0,0,0],"split_type":[0,0,0,0,0,0,0],"sum_hessian":[5.7873543E1,2.9109262E1,2.876428E1,1.8520958E1,1.0588305E1,1.6066923E1,1.2697357E1],"tree_param":{"num_deleted":"0","num_feature":"67","num_nodes":"7","size_leaf_vector":"1"}},{"base_weights":[3.7373477E-4,-2.7470281E-2,1.6097353E-1,-9.437202E-3,3.8406587E-1,3.5503093E-2,-1.6526742E-3],"categories":[],"categories_nodes":[],"categories_segments":[],"categories_sizes":[],"default_left":[0,0,0,0,0,0,0],"id":33,"left_children":[1,-1,3,-1,5,-1,-1],"loss_changes":[5.2582965E0,0E0,3.668285E0,0E0,3.894518E0,0E0,0E0],"parents":[2147483647,0,0,2,2,4,4],"right_children":[2,-1,4,-1,6,-1,-1],"split_conditions":[-6.12245E1,-2.7470281E-2,1.338515E2,-9.437202E-3,-8.3439E-1,3.5503093E-2,-1.6526742E-3],"split_indices":[60,0,44,0,29,0,0],"split_type":[0,0,0,0,0,0,0],"sum_hessian":[5.7552444E1,1.2463915E1,4.508853E1,1.76206E1,2.7467932E1,1.5023863E1,1.2444068E1],"tree_param":{"num_deleted":"0","num_feature":"67","num_nodes":"7","size_leaf_vector":"1"}},{"base_weights":[3.0265644E-4,3.3669332E-1,-2.57825E-1,8.3341583E-4,3.8011275E-2,-3.510904E-2,7.4277045E-3],"categories":[],"categories_nodes":[],"categories_segments":[],"categories_sizes":[],"default_left":[0,0,0,0,0,0,0],"id":34,"left_children":[1,3,5,-1,-1,-1,-1],"loss_changes":[5.144548E0,3.473925E0,6.157975E0,0E0,0E0,0E0,0E0],"parents":[2147483647,0,0,1,1,2,2],"right_children":[2,4,6,-1,-1,-1,-1],"split_conditions":[3E0,2.38281E0,6.5192E-1,8.3341583E-4,3.8011275E-2,-3.510904E-2,7.4277045E-3],"split_indices":[6,28,21,0,0,0,0],"split_type":[0,0,0,0,0,0,0],"sum_hessian":[5.7247604E1,2.4723585E1,3.252402E1,1.467464E1,1.0048945E1,1.51883745E1,1.7335646E1],"tree_param":{"num_deleted":"0","num_feature":"67","num_nodes":"7","size_leaf_vector":"1"}},{"base_weights":[4.8377516E-4,-2.8446454E-1,2.8753087E-1,4.4497713E-3,-3.493685E-2,-7.5030024E-3,2.7047163E-2],"categories":[],"categories_nodes":[],"categories_segments":[],"categories_sizes":[],"default_left":[0,0,0,0,0,0,0],"id":35,"left_children":[1,3,5,-1,-1,-1,-1],"loss_changes":[4.8323984E0,4.649374E0,3.3448026E0,0E0,0E0,0E0,0E0],"parents":[2147483647,0,0,1,1,2,2],"right_children":[2,4,6,-1,-1,-1,-1],"split_conditions":[-1.130436E1,2.767635E4,2.571837E4,4.4497713E-3,-3.493685E-2,-7.5030024E-3,2.7047163E-2],"split_indices":[60,36,36,0,0,0,0],"split_type":[0,0,0,0,0,0,0],"sum_hessian":[5.708043E1,2.864945E1,2.8430977E1,1.5479818E1,1.3169632E1,1.0576091E1,1.7854887E1],"tree_param":{"num_deleted":"0","num_feature":"67","num_nodes":"7","size_leaf_vector":"1"}},{"base_weights":[2.586291E-4,3.223644E-1,-2.4698108E-1,3.447584E-2,7.7255437E-4,-3.3734437E-2,7.1141035E-3],"categories":[],"categories_nodes":[],"categories_segments":[],"categories_sizes":[],"default_left":[0,0,0,0,0,0,0],"id":36,"left_children":[1,3,5,-1,-1,-1,-1],"loss_changes":[4.682828E0,2.8666792E0,5.6347513E0,0E0,0E0,0E0,0E0],"parents":[2147483647,0,0,1,1,2,2],"right_children":[2,4,6,-1,-1,-1,-1],"split_conditions":[3E0,5.3505E-1,6.5192E-1,3.447584E-2,7.7255437E-4,-3.3734437E-2,7.1141035E-3],"split_indices":[6,27,21,0,0,0,0],"split_type":[0,0,0,0,0,0,0],"sum_hessian":[5.6802166E1,2.4534536E1,3.226763E1,1.0603375E1,1.393116E1,1.5025229E1,1.7242401E1],"tree_param":{"num_deleted":"0","num_feature":"67","num_nodes":"7","size_leaf_vector":"1"}},{"base_weights":[3.9907714E-4,-2.6006326E-2,1.5052836E-1,3.1116143E-2,-1.8145645E-2,1.7476497E-2,-2.6575128E-2],"categories":[],"categories_nodes":[],"categories_segments":[],"categories_sizes":[],"default_left":[0,0,0,0,0,0,0],"id":37,"left_children":[1,-1,3,-1,5,-1,-1],"loss_changes":[4.581674E0,0E0,3.6323967E0,0E0,6.695907E0,0E0,0E0],"parents":[2147483647,0,0,2,2,4,4],"right_children":[2,-1,4,-1,6,-1,-1],"split_conditions":[-6.12245E1,-2.6006326E-2,2.5362012E-1,3.1116143E-2,3E0,1.7476497E-2,-2.6575128E-2],"split_indices":[60,0,16,0,6,0,0],"split_type":[0,0,0,0,0,0,0],"sum_hessian":[5.6627674E1,1.2124678E1,4.4502995E1,1.1012016E1,3.349098E1,1.9700354E1,1.3790625E1],"tree_param":{"num_deleted":"0","num_feature":"67","num_nodes":"7","size_leaf_vector":"1"}},{"base_weights":[2.9938456E-4,1.785167E-1,-2.054625E-2,3.988183E-1,-1.9648483E-2,3.7253585E-2,1.9291878E-3],"categories":[],"categories_nodes":[],"categories_segments":[],"categories_sizes":[],"default_left":[0,0,0,0,0,0,0],"id":38,"left_children":[1,3,-1,5,-1,-1,-1],"loss_changes":[4.2687883E0,5.272658E0,0E0,3.6914449E0,0E0,0E0,0E0],"parents":[2147483647,0,0,1,1,3,3],"right_children":[2,4,-1,6,-1,-1,-1],"split_conditions":[1.20007E0,1.551945E4,-2.054625E-2,-1.8409E0,-1.9648483E-2,3.7253585E-2,1.9291878E-3],"split_indices":[29,39,0,29,0,0,0],"split_type":[0,0,0,0,0,0,0],"sum_hessian":[5.6246357E1,3.96351E1,1.6611256E1,2.8825378E1,1.0809724E1,1.4153193E1,1.4672185E1],"tree_param":{"num_deleted":"0","num_feature":"67","num_nodes":"7","size_leaf_vector":"1"}},{"base_weights":[2.853598E-4,-2.5968451E-2,1.372947E-1,-1.0767235E-2,4.166313E-1,1.4561413E-4,4.5065448E-2],"categories":[],"categories_nodes":[],"categories_segments":[],"categories_sizes":[],"default_left":[0,0,0,0,0,0,0],"id":39,"left_children":[1,-1,3,-1,5,-1,-1],"loss_changes":[4.1301336E0,0E0,4.6115484E0,0E0,5.2019277E0,0E0,0E0],"parents":[2147483647,0,0,2,2,4,4],"right_children":[2,-1,4,-1,6,-1,-1],"split_conditions":[-9.97E1,-2.5968451E-2,-1.130436E1,-1.0767235E-2,2E0,1.4561413E-4,4.5065448E-2],"split_indices":[48,0,60,0,56,0,0],"split_type":[0,0,0,0,0,0,0],"sum_hessian":[5.6008003E1,1.1103491E1,4.490451E1,1.994928E1,2.495523E1,1.4005877E1,1.0949355E1],"tree_param":{"num_deleted":"0","num_feature":"67","num_nodes":"7","size_leaf_vector":"1"}},{"base_weights":[4.8767048E-4,-2.632841E-2,1.2752597E-1,-1.0715697E-2,3.4373596E-1,3.3200935E-2,-5.2139196E-3],"categories":[],"categories_nodes":[],"categories_segments":[],"categories_sizes":[],"default_left":[0,0,0,0,0,0,0],"id":40,"left_children":[1,-1,3,-1,5,-1,-1],"loss_changes":[3.8622491E0,0E0,3.5087326E0,0E0,4.209534E0,0E0,0E0],"parents":[2147483647,0,0,2,2,4,4],"right_children":[2,-1,4,-1,6,-1,-1],"split_conditions":[-6.808512E1,-2.632841E-2,1.338515E2,-1.0715697E-2,4.3603E3,3.3200935E-2,-5.2139196E-3],"split_indices":[60,0,44,0,39,0,0],"split_type":[0,0,0,0,0,0,0],"sum_hessian":[5.568024E1,1.0203414E1,4.547683E1,1.762287E1,2.785396E1,1.5961233E1,1.1892726E1],"tree_param":{"num_deleted":"0","num_feature":"67","num_nodes":"7","size_leaf_vector":"1"}},{"base_weights":[3.0721954E-4,2.9642966E-1,-2.261995E-1,3.3298966E-2,7.676484E-5,-2.8075604E-2,1.30152125E-2],"categories":[],"categories_nodes":[],"categories_segments":[],"categories_sizes":[],"default_left":[0,0,0,0,0,0,0],"id":41,"left_children":[1,3,5,-1,-1,-1,-1],"loss_changes":[3.8511505E0,2.7107732E0,5.4533234E0,0E0,0E0,0E0,0E0],"parents":[2147483647,0,0,1,1,2,2],"right_children":[2,4,6,-1,-1,-1,-1],"split_conditions":[3E0,-2.289143E1,3.226E-1,3.3298966E-2,7.676484E-5,-2.8075604E-2,1.30152125E-2],"split_indices":[6,42,20,0,0,0,0],"split_type":[0,0,0,0,0,0,0],"sum_hessian":[5.5417E1,2.3883856E1,3.1533146E1,1.0041674E1,1.3842182E1,1.8575909E1,1.2957237E1],"tree_param":{"num_deleted":"0","num_feature":"67","num_nodes":"7","size_leaf_vector":"1"}},{"base_weights":[6.1256153E-4,1.7219171E-1,-1.9736672E-2,3.758846E-1,-1.7966509E-2,3.5589162E-2,1.5090494E-3],"categories":[],"categories_nodes":[],"categories_segments":[],"categories_sizes":[],"default_left":[0,0,0,0,0,0,0],"id":42,"left_children":[1,3,-1,5,-1,-1,-1],"loss_changes":[3.8882241E0,4.4625072E0,0E0,3.390739E0,0E0,0E0,0E0],"parents":[2147483647,0,0,1,1,3,3],"right_children":[2,4,-1,6,-1,-1,-1],"split_conditions":[1.20007E0,1.551945E4,-1.9736672E-2,-1.8409E0,-1.7966509E-2,3.5589162E-2,1.5090494E-3],"split_indices":[29,39,0,29,0,0,0],"split_type":[0,0,0,0,0,0,0],"sum_hessian":[5.5318417E1,3.8969994E1,1.6348423E1,2.838496E1,1.0585033E1,1.3859555E1,1.4525406E1],"tree_param":{"num_deleted":"0","num_feature":"67","num_nodes":"7","size_leaf_vector":"1"}},{"base_weights":[5.911199E-4,1.7542136E-1,-1.8540828E-2,-9.728905E-2,2.928172E-2,1.8126665E-2,-2.7807254E-2],"categories":[],"categories_nodes":[],"categories_segments":[],"categories_sizes":[],"default_left":[0,0,0,0,0,0,0],"id":43,"left_children":[1,3,-1,5,-1,-1,-1],"loss_changes":[3.7070498E0,4.399233E0,0E0,5.301912E0,0E0,0E0,0E0],"parents":[2147483647,0,0,1,1,3,3],"right_children":[2,4,-1,6,-1,-1,-1],"split_conditions":[5.15E-1,2.3302E-1,-1.8540828E-2,3E0,2.928172E-2,1.8126665E-2,-2.7807254E-2],"split_indices":[0,20,0,6,0,0,0],"split_type":[0,0,0,0,0,0,0],"sum_hessian":[5.508834E1,3.7815426E1,1.7272915E1,2.3172882E1,1.4642543E1,1.1679103E1,1.1493779E1],"tree_param":{"num_deleted":"0","num_feature":"67","num_nodes":"7","size_leaf_vector":"1"}},{"base_weights":[5.793039E-4,1.6571009E-1,-1.8947823E-2,-7.936004E-2,2.9875824E-2,1.6963555E-2,-2.2741316E-2],"categories":[],"categories_nodes":[],"categories_segments":[],"categories_sizes":[],"default_left":[0,0,0,0,0,0,0],"id":44,"left_children":[1,3,-1,5,-1,-1,-1],"loss_changes":[3.5719922E0,4.249888E0,0E0,4.275116E0,0E0,0E0,0E0],"parents":[2147483647,0,0,1,1,3,3],"right_children":[2,4,-1,6,-1,-1,-1],"split_conditions":[1.20007E0,6.5E-3,-1.8947823E-2,3E0,2.9875824E-2,1.6963555E-2,-2.2741316E-2],"split_indices":[29,19,0,6,0,0,0],"split_type":[0,0,0,0,0,0,0],"sum_hessian":[5.4992104E1,3.8712303E1,1.6279802E1,2.5216808E1,1.3495493E1,1.1968629E1,1.324818E1],"tree_param":{"num_deleted":"0","num_feature":"67","num_nodes":"7","size_leaf_vector":"1"}},{"base_weights":[6.54893E-4,-2.300792E-2,1.3016856E-1,2.9780278E-2,-3.7607413E-2,1.4730453E-2,-2.4564845E-2],"categories":[],"categories_nodes":[],"categories_segments":[],"categories_sizes":[],"default_left":[0,0,0,0,0,0,0],"id":45,"left_children":[1,-1,3,-1,5,-1,-1],"loss_changes":[3.3898404E0,0E0,3.4843671E0,0E0,5.1981163E0,0E0,0E0],"parents":[2147483647,0,0,2,2,4,4],"right_children":[2,-1,4,-1,6,-1,-1],"split_conditions":[-6.12245E1,-2.300792E-2,2.5362012E-1,2.9780278E-2,3E0,1.4730453E-2,-2.4564845E-2],"split_indices":[60,0,16,0,6,0,0],"split_type":[0,0,0,0,0,0,0],"sum_hessian":[5.4795105E1,1.1461563E1,4.333354E1,1.0805997E1,3.2527546E1,1.8979988E1,1.3547557E1],"tree_param":{"num_deleted":"0","num_feature":"67","num_nodes":"7","size_leaf_vector":"1"}},{"base_weights":[5.6122435E-4,-1.5783659E-1,1.8926611E-2,2.5211627E-2,-4.868715E-1,5.2739745E-3,-4.2434182E-2],"categories":[],"categories_nodes":[],"categories_segments":[],"categories_sizes":[],"default_left":[0,0,0,0,0,0,0],"id":46,"left_children":[1,3,-1,-1,5,-1,-1],"loss_changes":[3.3794405E0,8.911219E0,0E0,0E0,5.893711E0,0E0,0E0],"parents":[2147483647,0,0,1,1,4,4],"right_children":[2,4,-1,-1,6,-1,-1],"split_conditions":[3.822907E4,-2.2479E0,1.8926611E-2,2.5211627E-2,1.0035E-1,5.2739745E-3,-4.2434182E-2],"split_indices":[38,29,0,0,22,0,0],"split_type":[0,0,0,0,0,0,0],"sum_hessian":[5.4448578E1,3.8779507E1,1.5669071E1,1.2697571E1,2.6081934E1,1.0158736E1,1.5923199E1],"tree_param":{"num_deleted":"0","num_feature":"67","num_nodes":"7","size_leaf_vector":"1"}},{"base_weights":[6.4839656E-4,1.6329566E-1,-1.7244821E-2,-1.0591269E-1,2.8450882E-2,1.6184244E-2,-2.6630431E-2],"categories":[],"categories_nodes":[],"categories_segments":[],"categories_sizes":[],"default_left":[0,0,0,0,0,0,0],"id":47,"left_children":[1,3,-1,5,-1,-1,-1],"loss_changes":[3.1668358E0,4.244706E0,0E0,4.5484724E0,0E0,0E0,0E0],"parents":[2147483647,0,0,1,1,3,3],"right_children":[2,4,-1,6,-1,-1,-1],"split_conditions":[5.15E-1,2.3302E-1,-1.7244821E-2,3E0,2.8450882E-2,1.6184244E-2,-2.6630431E-2],"split_indices":[0,20,0,6,0,0,0],"split_type":[0,0,0,0,0,0,0],"sum_hessian":[5.4345367E1,3.7310715E1,1.7034653E1,2.287286E1,1.4437854E1,1.1517975E1,1.1354884E1],"tree_param":{"num_deleted":"0","num_feature":"67","num_nodes":"7","size_leaf_vector":"1"}},{"base_weights":[6.279928E-4,-2.2251863E-2,1.2518135E-1,2.8880749E-2,-3.8635258E-2,2.3371827E-2,-3.1849143E-1,8.86726E-3,-3.8287673E-2],"categories":[],"categories_nodes":[],"categories_segments":[],"categories_sizes":[],"default_left":[0,0,0,0,0,0,0,0,0],"id":48,"left_children":[1,-1,3,-1,5,-1,7,-1,-1],"loss_changes":[3.1225836E0,0E0,3.2806168E0,0E0,4.852748E0,0E0,5.010544E0,0E0,0E0],"parents":[2147483647,0,0,2,2,4,4,6,6],"right_children":[2,-1,4,-1,6,-1,8,-1,-1],"split_conditions":[-6.12245E1,-2.2251863E-2,2.5362012E-1,2.8880749E-2,-1.15308E0,2.3371827E-2,1.8831E-1,8.86726E-3,-3.8287673E-2],"split_indices":[60,0,16,0,29,0,22,0,0],"split_type":[0,0,0,0,0,0,0,0,0],"sum_hessian":[5.4249916E1,1.1287821E1,4.2962097E1,1.0749053E1,3.2213043E1,1.1231868E1,2.0981176E1,1.0236469E1,1.0744707E1],"tree_param":{"num_deleted":"0","num_feature":"67","num_nodes":"9","size_leaf_vector":"1"}},{"base_weights":[6.185694E-4,-1.526533E-1,1.8173581E-2,2.3719084E-2,-4.6219254E-1,4.3883664E-3,-3.9925557E-2],"categories":[],"categories_nodes":[],"categories_segments":[],"categories_sizes":[],"default_left":[0,0,0,0,0,0,0],"id":49,"left_children":[1,3,-1,-1,5,-1,-1],"loss_changes":[3.1131625E0,7.8580236E0,0E0,0E0,5.0373373E0,0E0,0E0],"parents":[2147483647,0,0,1,1,4,4],"right_children":[2,4,-1,-1,6,-1,-1],"split_conditions":[3.822907E4,-2.2479E0,1.8173581E-2,2.3719084E-2,1.0035E-1,4.3883664E-3,-3.9925557E-2],"split_indices":[38,29,0,0,22,0,0],"split_type":[0,0,0,0,0,0,0],"sum_hessian":[5.39792E1,3.8356445E1,1.5622757E1,1.2500858E1,2.5855585E1,1.0091935E1,1.5763651E1],"tree_param":{"num_deleted":"0","num_feature":"67","num_nodes":"7","size_leaf_vector":"1"}},{"base_weights":[6.9142383E-4,-1.9134723E-2,1.4379276E-1,3.3404103E-1,-1.7767621E-2,-1.3964277E-3,4.1006576E-2],"categories":[],"categories_nodes":[],"categories_segments":[],"categories_sizes":[],"default_left":[0,0,0,0,0,0,0],"id":50,"left_children":[1,-1,3,5,-1,-1,-1],"loss_changes":[3.065365E0,0E0,3.9820225E0,5.2963715E0,0E0,0E0,0E0],"parents":[2147483647,0,0,2,2,3,3],"right_children":[2,-1,4,6,-1,-1,-1],"split_conditions":[-2.0191666E-1,-1.9134723E-2,5.1E-1,4.4154125E-1,-1.7767621E-2,-1.3964277E-3,4.1006576E-2],"split_indices":[19,0,0,59,0,0,0],"split_type":[0,0,0,0,0,0,0],"sum_hessian":[5.387003E1,1.4187013E1,3.9683018E1,2.8971397E1,1.071162E1,1.7146053E1,1.1825344E1],"tree_param":{"num_deleted":"0","num_feature":"67","num_nodes":"7","size_leaf_vector":"1"}},{"base_weights":[7.649559E-4,-1.8254565E-2,1.3781951E-1,-9.558451E-3,4.0808898E-1,2.9299464E-3,3.808135E-2],"categories":[],"categories_nodes":[],"categories_segments":[],"categories_sizes":[],"default_left":[0,0,0,0,0,0,0],"id":51,"left_children":[1,-1,3,-1,5,-1,-1],"loss_changes":[2.792173E0,0E0,3.6795864E0,0E0,2.742378E0,0E0,0E0],"parents":[2147483647,0,0,2,2,4,4],"right_children":[2,-1,4,-1,6,-1,-1],"split_conditions":[-2.0191666E-1,-1.8254565E-2,-1.130436E1,-9.558451E-3,1.57956E0,2.9299464E-3,3.808135E-2],"split_indices":[19,0,60,0,28,0,0],"split_type":[0,0,0,0,0,0,0],"sum_hessian":[5.3681534E1,1.4175997E1,3.9505535E1,1.7949265E1,2.155627E1,1.1426426E1,1.0129845E1],"tree_param":{"num_deleted":"0","num_feature":"67","num_nodes":"7","size_leaf_vector":"1"}},{"base_weights":[1.0244218E-3,-1.4453527E-1,1.7248647E-2,2.2655502E-2,-4.3708968E-1,3.0310692E-3,-3.9240547E-2],"categories":[],"categories_nodes":[],"categories_segments":[],"categories_sizes":[],"default_left":[0,0,0,0,0,0,0],"id":52,"left_children":[1,3,-1,-1,5,-1,-1],"loss_changes":[2.7755075E0,7.009612E0,0E0,0E0,4.662151E0,0E0,0E0],"parents":[2147483647,0,0,1,1,4,4],"right_children":[2,4,-1,-1,6,-1,-1],"split_conditions":[3.822907E4,-2.2479E0,1.7248647E-2,2.2655502E-2,4.8E-1,3.0310692E-3,-3.9240547E-2],"split_indices":[38,29,0,0,0,0,0],"split_type":[0,0,0,0,0,0,0],"sum_hessian":[5.3442116E1,3.7957993E1,1.5484121E1,1.229412E1,2.5663874E1,1.0894986E1,1.4768887E1],"tree_param":{"num_deleted":"0","num_feature":"67","num_nodes":"7","size_leaf_vector":"1"}},{"base_weights":[1.011201E-3,-1.5724765E-1,1.5554646E-2,1.0425333E-2,-2.5691772E-2],"categories":[],"categories_nodes":[],"categories_segments":[],"categories_sizes":[],"default_left":[0,0,0,0,0],"id":53,"left_children":[1,3,-1,-1,-1],"loss_changes":[2.7123795E0,4.8805285E0,0E0,0E0,0E0],"parents":[2147483647,0,0,1,1],"right_children":[2,4,-1,-1,-1],"split_conditions":[3.4599E-1,3E0,1.5554646E-2,1.0425333E-2,-2.5691772E-2],"split_indices":[20,6,0,0,0],"split_type":[0,0,0,0,0],"sum_hessian":[5.3275288E1,3.559915E1,1.7676136E1,1.77787E1,1.782045E1],"tree_param":{"num_deleted":"0","num_feature":"67","num_nodes":"5","size_leaf_vector":"1"}},{"base_weights":[9.544133E-4,-2.0611513E-2,1.1477156E-1,2.738857E-2,-4.2098965E-2,1.31441355E-2,-2.2784013E-2],"categories":[],"categories_nodes":[],"categories_segments":[],"categories_sizes":[],"default_left":[0,0,0,0,0,0,0],"id":54,"left_children":[1,-1,3,-1,5,-1,-1],"loss_changes":[2.5953362E0,0E0,2.9616377E0,0E0,4.24258E0,0E0,0E0],"parents":[2147483647,0,0,2,2,4,4],"right_children":[2,-1,4,-1,6,-1,-1],"split_conditions":[-6.12245E1,-2.0611513E-2,2.5362012E-1,2.738857E-2,3E0,1.31441355E-2,-2.2784013E-2],"split_indices":[60,0,16,0,6,0,0],"split_type":[0,0,0,0,0,0,0],"sum_hessian":[5.3181576E1,1.09194355E1,4.2262142E1,1.0576533E1,3.1685606E1,1.8446918E1,1.3238688E1],"tree_param":{"num_deleted":"0","num_feature":"67","num_nodes":"7","size_leaf_vector":"1"}},{"base_weights":[8.519449E-4,-1.4129214E-1,1.6729025E-2,2.1868428E-2,-4.2395023E-1,2.394603E-3,-3.7754383E-2],"categories":[],"categories_nodes":[],"categories_segments":[],"categories_sizes":[],"default_left":[0,0,0,0,0,0,0],"id":55,"left_children":[1,3,-1,-1,5,-1,-1],"loss_changes":[2.6024098E0,6.478879E0,0E0,0E0,4.154456E0,0E0,0E0],"parents":[2147483647,0,0,1,1,4,4],"right_children":[2,4,-1,-1,6,-1,-1],"split_conditions":[3.822907E4,-2.2479E0,1.6729025E-2,2.1868428E-2,4.8E-1,2.394603E-3,-3.7754383E-2],"split_indices":[38,29,0,0,0,0,0],"split_type":[0,0,0,0,0,0,0],"sum_hessian":[5.286317E1,3.7477226E1,1.5385944E1,1.2119242E1,2.5357983E1,1.0810014E1,1.454797E1],"tree_param":{"num_deleted":"0","num_feature":"67","num_nodes":"7","size_leaf_vector":"1"}},{"base_weights":[8.40249E-4,-1.5780748E-1,1.5577832E-2,9.443477E-3,-2.4792379E-2],"categories":[],"categories_nodes":[],"categories_segments":[],"categories_sizes":[],"default_left":[0,0,0,0,0],"id":56,"left_children":[1,3,-1,-1,-1],"loss_changes":[2.6962364E0,4.3373995E0,0E0,0E0,0E0],"parents":[2147483647,0,0,1,1],"right_children":[2,4,-1,-1,-1],"split_conditions":[3.4599E-1,3E0,1.5577832E-2,9.443477E-3,-2.4792379E-2],"split_indices":[20,6,0,0,0],"split_type":[0,0,0,0,0],"sum_hessian":[5.2699158E1,3.5212322E1,1.7486835E1,1.7601938E1,1.7610386E1],"tree_param":{"num_deleted":"0","num_feature":"67","num_nodes":"5","size_leaf_vector":"1"}},{"base_weights":[7.9069636E-4,-1.769337E-2,1.3416515E-1,-1.3093176E-2,3.5094756E-1,-6.0013765E-3,4.0688645E-2],"categories":[],"categories_nodes":[],"categories_segments":[],"categories_sizes":[],"default_left":[0,0,0,0,0,0,0],"id":57,"left_children":[1,-1,3,-1,5,-1,-1],"loss_changes":[2.583333E0,0E0,3.4988256E0,0E0,5.7810183E0,0E0,0E0],"parents":[2147483647,0,0,2,2,4,4],"right_children":[2,-1,4,-1,6,-1,-1],"split_conditions":[-2.0191666E-1,-1.769337E-2,1.3521239E2,-1.3093176E-2,5.233E1,-6.0013765E-3,4.0688645E-2],"split_indices":[19,0,44,0,42,0,0],"split_type":[0,0,0,0,0,0,0],"sum_hessian":[5.2609547E1,1.3925867E1,3.8683678E1,1.3610817E1,2.507286E1,1.2794118E1,1.2278742E1],"tree_param":{"num_deleted":"0","num_feature":"67","num_nodes":"7","size_leaf_vector":"1"}},{"base_weights":[8.3750515E-4,-1.3683243E-1,1.6122637E-2,2.1204568E-2,-4.0952268E-1,1.9227015E-3,-3.6846135E-2],"categories":[],"categories_nodes":[],"categories_segments":[],"categories_sizes":[],"default_left":[0,0,0,0,0,0,0],"id":58,"left_children":[1,3,-1,-1,5,-1,-1],"loss_changes":[2.4155488E0,6.017757E0,0E0,0E0,3.8736005E0,0E0,0E0],"parents":[2147483647,0,0,1,1,4,4],"right_children":[2,4,-1,-1,6,-1,-1],"split_conditions":[3.822907E4,-2.2479E0,1.6122637E-2,2.1204568E-2,1.4643E-1,1.9227015E-3,-3.6846135E-2],"split_indices":[38,29,0,0,22,0,0],"split_type":[0,0,0,0,0,0,0],"sum_hessian":[5.2559196E1,3.7206993E1,1.5352202E1,1.1989461E1,2.5217533E1,1.1020664E1,1.4196868E1],"tree_param":{"num_deleted":"0","num_feature":"67","num_nodes":"7","size_leaf_vector":"1"}},{"base_weights":[8.29889E-4,-1.0970298E-1,2.0124046E-2,-2.5841549E-2,1.2286754E-1,2.902456E-2,-8.387613E-3],"categories":[],"categories_nodes":[],"categories_segments":[],"categories_sizes":[],"default_left":[0,0,0,0,0,0,0],"id":59,"left_children":[1,3,-1,-1,5,-1,-1],"loss_changes":[2.4173632E0,4.10712E0,0E0,0E0,3.819542E0,0E0,0E0],"parents":[2147483647,0,0,1,1,4,4],"right_children":[2,4,-1,-1,6,-1,-1],"split_conditions":[5.699998E-1,1.338515E2,2.0124046E-2,-2.5841549E-2,2.8334497E1,2.902456E-2,-8.387613E-3],"split_indices":[59,44,0,0,4,0,0],"split_type":[0,0,0,0,0,0,0],"sum_hessian":[5.2455917E1,4.170557E1,1.0750348E1,1.4718224E1,2.6987347E1,1.0094557E1,1.689279E1],"tree_param":{"num_deleted":"0","num_feature":"67","num_nodes":"7","size_leaf_vector":"1"}},{"base_weights":[1.0814953E-3,-1.7125893E-2,1.3032216E-1,3.0276117E-1,-1.6147075E-2,-1.4718788E-3,3.8208477E-2],"categories":[],"categories_nodes":[],"categories_segments":[],"categories_sizes":[],"default_left":[0,0,0,0,0,0,0],"id":60,"left_children":[1,-1,3,5,-1,-1,-1],"loss_changes":[2.410986E0,0E0,3.1809688E0,4.481675E0,0E0,0E0,0E0],"parents":[2147483647,0,0,2,2,3,3],"right_children":[2,-1,4,6,-1,-1,-1],"split_conditions":[-2.0191666E-1,-1.7125893E-2,5.1E-1,4.4154125E-1,-1.6147075E-2,-1.4718788E-3,3.8208477E-2],"split_indices":[19,0,0,59,0,0,0],"split_type":[0,0,0,0,0,0,0],"sum_hessian":[5.228772E1,1.384067E1,3.844705E1,2.8091862E1,1.0355188E1,1.6877106E1,1.1214757E1],"tree_param":{"num_deleted":"0","num_feature":"67","num_nodes":"7","size_leaf_vector":"1"}},{"base_weights":[1.1470832E-3,1.9887557E-2,-1.0658678E-1,-3.2258064E-1,2.0692168E-2,-2.576342E-3,-3.9391275E-2],"categories":[],"categories_nodes":[],"categories_segments":[],"categories_sizes":[],"default_left":[0,0,0,0,0,0,0],"id":61,"left_children":[1,-1,3,5,-1,-1,-1],"loss_changes":[2.3114839E0,0E0,4.9165654E0,3.8223257E0,0E0,0E0,0E0],"parents":[2147483647,0,0,2,2,3,3],"right_children":[2,-1,4,6,-1,-1,-1],"split_conditions":[-2.2891666E-1,1.9887557E-2,3.822907E4,5.8121E2,2.0692168E-2,-2.576342E-3,-3.9391275E-2],"split_indices":[18,0,38,39,0,0,0],"split_type":[0,0,0,0,0,0,0],"sum_hessian":[5.210582E1,1.05555105E1,4.155031E1,2.9632227E1,1.1918083E1,1.942556E1,1.0206667E1],"tree_param":{"num_deleted":"0","num_feature":"67","num_nodes":"7","size_leaf_vector":"1"}},{"base_weights":[1.0454657E-3,-1.4743587E-1,1.4542485E-2,9.330543E-3,-2.4797186E-2],"categories":[],"categories_nodes":[],"categories_segments":[],"categories_sizes":[],"default_left":[0,0,0,0,0],"id":62,"left_children":[1,3,-1,-1,-1],"loss_changes":[2.3250403E0,4.2524014E0,0E0,0E0,0E0],"parents":[2147483647,0,0,1,1],"right_children":[2,4,-1,-1,-1],"split_conditions":[3.4599E-1,2.8357351E1,1.4542485E-2,9.330543E-3,-2.4797186E-2],"split_indices":[20,4,0,0,0],"split_type":[0,0,0,0,0],"sum_hessian":[5.2035816E1,3.4732075E1,1.730374E1,1.797116E1,1.6760916E1],"tree_param":{"num_deleted":"0","num_feature":"67","num_nodes":"5","size_leaf_vector":"1"}},{"base_weights":[9.688302E-4,-1.2358451E-1,1.7118674E-2,1.17991365E-1,-2.422198E-2,2.7309408E-2,-1.4034415E-2],"categories":[],"categories_nodes":[],"categories_segments":[],"categories_sizes":[],"default_left":[0,0,0,0,0,0,0],"id":63,"left_children":[1,3,-1,5,-1,-1,-1],"loss_changes":[2.2953312E0,3.5053592E0,0E0,4.335405E0,0E0,0E0,0E0],"parents":[2147483647,0,0,1,1,3,3],"right_children":[2,4,-1,6,-1,-1,-1],"split_conditions":[1.8E1,4.57592E3,1.7118674E-2,2.6561692E-1,-2.422198E-2,2.7309408E-2,-1.4034415E-2],"split_indices":[5,39,0,26,0,0,0],"split_type":[0,0,0,0,0,0,0],"sum_hessian":[5.1983437E1,3.855542E1,1.3428015E1,2.3497768E1,1.5057652E1,1.115109E1,1.2346678E1],"tree_param":{"num_deleted":"0","num_feature":"67","num_nodes":"7","size_leaf_vector":"1"}},{"base_weights":[1.0486749E-3,-1.9259272E-2,1.070839E-1,2.5686685E-2,-4.1097544E-2,1.2047911E-2,-2.1182647E-2],"categories":[],"categories_nodes":[],"categories_segments":[],"categories_sizes":[],"default_left":[0,0,0,0,0,0,0],"id":64,"left_children":[1,-1,3,-1,5,-1,-1],"loss_changes":[2.2033584E0,0E0,2.5642335E0,0E0,3.5396473E0,0E0,0E0],"parents":[2147483647,0,0,2,2,4,4],"right_children":[2,-1,4,-1,6,-1,-1],"split_conditions":[-6.12245E1,-1.9259272E-2,2.5362012E-1,2.5686685E-2,3E0,1.2047911E-2,-2.1182647E-2],"split_indices":[60,0,16,0,6,0,0],"split_type":[0,0,0,0,0,0,0],"sum_hessian":[5.1793114E1,1.0589212E1,4.1203903E1,1.0345673E1,3.085823E1,1.7975292E1,1.2882938E1],"tree_param":{"num_deleted":"0","num_feature":"67","num_nodes":"7","size_leaf_vector":"1"}},{"base_weights":[9.4413414E-4,-1.483065E-1,1.4540811E-2,9.056165E-3,-2.3648176E-2],"categories":[],"categories_nodes":[],"categories_segments":[],"categories_sizes":[],"default_left":[0,0,0,0,0],"id":65,"left_children":[1,3,-1,-1,-1],"loss_changes":[2.314264E0,3.862691E0,0E0,0E0,0E0],"parents":[2147483647,0,0,1,1],"right_children":[2,4,-1,-1,-1],"split_conditions":[3.4599E-1,3E0,1.4540811E-2,9.056165E-3,-2.3648176E-2],"split_indices":[20,6,0,0,0],"split_type":[0,0,0,0,0],"sum_hessian":[5.1495274E1,3.4315254E1,1.718002E1,1.7251871E1,1.7063383E1],"tree_param":{"num_deleted":"0","num_feature":"67","num_nodes":"5","size_leaf_vector":"1"}},{"base_weights":[8.8515587E-4,-1.2749633E-1,1.6021086E-2,1.76422E-2,-3.5664213E-1,1.8681319E-3,-3.1397577E-2],"categories":[],"categories_nodes":[],"categories_segments":[],"categories_sizes":[],"default_left":[0,0,0,0,0,0,0],"id":66,"left_children":[1,3,-1,-1,5,-1,-1],"loss_changes":[2.1908169E0,4.3197794E0,0E0,0E0,2.8342338E0,0E0,0E0],"parents":[2147483647,0,0,1,1,4,4],"right_children":[2,4,-1,-1,6,-1,-1],"split_conditions":[3.898092E4,-2.2479E0,1.6021086E-2,1.76422E-2,4.8E-1,1.8681319E-3,-3.1397577E-2],"split_indices":[38,29,0,0,0,0,0],"split_type":[0,0,0,0,0,0,0],"sum_hessian":[5.1409283E1,3.7103184E1,1.4306099E1,1.1809027E1,2.5294157E1,1.0666373E1,1.4627784E1],"tree_param":{"num_deleted":"0","num_feature":"67","num_nodes":"7","size_leaf_vector":"1"}},{"base_weights":[8.994624E-4,-1.4459044E-1,1.41630815E-2,8.377113E-3,-2.353807E-2],"categories":[],"categories_nodes":[],"categories_segments":[],"categories_sizes":[],"default_left":[0,0,0,0,0],"id":67,"left_children":[1,3,-1,-1,-1],"loss_changes":[2.1888583E0,3.6592283E0,0E0,0E0,0E0],"parents":[2147483647,0,0,1,1],"right_children":[2,4,-1,-1,-1],"split_conditions":[3.4599E-1,2.8357351E1,1.41630815E-2,8.377113E-3,-2.353807E-2],"split_indices":[20,4,0,0,0],"split_type":[0,0,0,0,0],"sum_hessian":[5.1284748E1,3.416752E1,1.7117228E1,1.7708E1,1.645952E1],"tree_param":{"num_deleted":"0","num_feature":"67","num_nodes":"5","size_leaf_vector":"1"}},{"base_weights":[8.2846073E-4,-1.6089978E-2,1.22376606E-1,-1.2188698E-2,3.2451707E-1,-6.3070417E-3,3.8359877E-2],"categories":[],"categories_nodes":[],"categories_segments":[],"categories_sizes":[],"default_left":[0,0,0,0,0,0,0],"id":68,"left_children":[1,-1,3,-1,5,-1,-1],"loss_changes":[2.0877244E0,0E0,2.9408288E0,0E0,5.152168E0,0E0,0E0],"parents":[2147483647,0,0,2,2,4,4],"right_children":[2,-1,4,-1,6,-1,-1],"split_conditions":[-2.0191666E-1,-1.6089978E-2,1.3521239E2,-1.2188698E-2,5.233E1,-6.3070417E-3,3.8359877E-2],"split_indices":[19,0,44,0,42,0,0],"split_type":[0,0,0,0,0,0,0],"sum_hessian":[5.12339E1,1.35692425E1,3.7664658E1,1.3324015E1,2.4340641E1,1.2415973E1,1.1924668E1],"tree_param":{"num_deleted":"0","num_feature":"67","num_nodes":"7","size_leaf_vector":"1"}},{"base_weights":[8.7316474E-4,-1.2567826E-1,1.5706515E-2,1.6831048E-2,-3.452189E-1,1.6109518E-3,-3.035904E-2],"categories":[],"categories_nodes":[],"categories_segments":[],"categories_sizes":[],"default_left":[0,0,0,0,0,0,0],"id":69,"left_children":[1,3,-1,-1,5,-1,-1],"loss_changes":[2.108115E0,3.9608698E0,0E0,0E0,2.6078548E0,0E0,0E0],"parents":[2147483647,0,0,1,1,4,4],"right_children":[2,4,-1,-1,6,-1,-1],"split_conditions":[3.898092E4,-2.2479E0,1.5706515E-2,1.6831048E-2,4.8E-1,1.6109518E-3,-3.035904E-2],"split_indices":[38,29,0,0,0,0,0],"split_type":[0,0,0,0,0,0,0],"sum_hessian":[5.1181435E1,3.6880886E1,1.4300551E1,1.1703295E1,2.5177591E1,1.067456E1,1.4503031E1],"tree_param":{"num_deleted":"0","num_feature":"67","num_nodes":"7","size_leaf_vector":"1"}},{"base_weights":[8.825143E-4,-1.1885752E-1,1.6350262E-2,1.1050387E-1,-2.300835E-2,2.5059402E-2,-1.2634257E-2],"categories":[],"categories_nodes":[],"categories_segments":[],"categories_sizes":[],"default_left":[0,0,0,0,0,0,0],"id":70,"left_children":[1,3,-1,5,-1,-1,-1],"loss_changes":[2.0718102E0,3.0892057E0,0E0,3.5348127E0,0E0,0E0,0E0],"parents":[2147483647,0,0,1,1,3,3],"right_children":[2,4,-1,6,-1,-1,-1],"split_conditions":[1.8E1,4.57592E3,1.6350262E-2,2.6561692E-1,-2.300835E-2,2.5059402E-2,-1.2634257E-2],"split_indices":[5,39,0,26,0,0,0],"split_type":[0,0,0,0,0,0,0],"sum_hessian":[5.106008E1,3.781235E1,1.3247733E1,2.3019432E1,1.4792918E1,1.0906881E1,1.2112551E1],"tree_param":{"num_deleted":"0","num_feature":"67","num_nodes":"7","size_leaf_vector":"1"}},{"base_weights":[9.5880957E-4,-1.3982582E-1,1.3683433E-2,8.608703E-3,-2.247625E-2],"categories":[],"categories_nodes":[],"categories_segments":[],"categories_sizes":[],"default_left":[0,0,0,0,0],"id":71,"left_children":[1,3,-1,-1,-1],"loss_changes":[2.0300002E0,3.4473326E0,0E0,0E0,0E0],"parents":[2147483647,0,0,1,1],"right_children":[2,4,-1,-1,-1],"split_conditions":[3.4599E-1,3E0,1.3683433E-2,8.608703E-3,-2.247625E-2],"split_indices":[20,6,0,0,0],"split_type":[0,0,0,0,0],"sum_hessian":[5.0877056E1,3.3876045E1,1.7001009E1,1.7096548E1,1.6779497E1],"tree_param":{"num_deleted":"0","num_feature":"67","num_nodes":"5","size_leaf_vector":"1"}},{"base_weights":[8.973559E-4,1.8912205E-2,-1.0166904E-1,-3.1713098E-1,2.0518586E-2,2.1776853E-3,-3.0148301E-2],"categories":[],"categories_nodes":[],"categories_segments":[],"categories_sizes":[],"default_left":[0,0,0,0,0,0,0],"id":72,"left_children":[1,-1,3,5,-1,-1,-1],"loss_changes":[2.0430202E0,0E0,4.710001E0,3.0966597E0,0E0,0E0,0E0],"parents":[2147483647,0,0,2,2,3,3],"right_children":[2,-1,4,6,-1,-1,-1],"split_conditions":[-2.2891666E-1,1.8912205E-2,3.822907E4,3.6535E-1,2.0518586E-2,2.1776853E-3,-3.0148301E-2],"split_indices":[18,0,38,22,0,0,0],"split_type":[0,0,0,0,0,0,0],"sum_hessian":[5.079339E1,1.0281063E1,4.0512325E1,2.8781847E1,1.1730476E1,1.3099587E1,1.568226E1],"tree_param":{"num_deleted":"0","num_feature":"67","num_nodes":"7","size_leaf_vector":"1"}},{"base_weights":[1.069622E-3,-1.8590726E-2,1.0341147E-1,2.5048127E-2,-4.2880792E-2,1.9936016E-2,-1.3822342E-2],"categories":[],"categories_nodes":[],"categories_segments":[],"categories_sizes":[],"default_left":[0,0,0,0,0,0,0],"id":73,"left_children":[1,-1,3,-1,5,-1,-1],"loss_changes":[2.0135334E0,0E0,2.4288015E0,0E0,3.3261263E0,0E0,0E0],"parents":[2147483647,0,0,2,2,4,4],"right_children":[2,-1,4,-1,6,-1,-1],"split_conditions":[-6.12245E1,-1.8590726E-2,2.5362012E-1,2.5048127E-2,-1.15308E0,1.9936016E-2,-1.3822342E-2],"split_indices":[60,0,16,0,29,0,0],"split_type":[0,0,0,0,0,0,0],"sum_hessian":[5.0755707E1,1.0363406E1,4.03923E1,1.0213255E1,3.0179045E1,1.019547E1,1.9983574E1],"tree_param":{"num_deleted":"0","num_feature":"67","num_nodes":"7","size_leaf_vector":"1"}},{"base_weights":[1.2706416E-3,-9.779135E-2,1.8237932E-2,-2.4157465E-2,1.21813156E-1,2.6563054E-2,-7.754328E-3],"categories":[],"categories_nodes":[],"categories_segments":[],"categories_sizes":[],"default_left":[0,0,0,0,0,0,0],"id":74,"left_children":[1,3,-1,-1,5,-1,-1],"loss_changes":[1.892003E0,3.5540218E0,0E0,0E0,3.1557071E0,0E0,0E0],"parents":[2147483647,0,0,1,1,4,4],"right_children":[2,4,-1,-1,6,-1,-1],"split_conditions":[5.699998E-1,1.338515E2,1.8237932E-2,-2.4157465E-2,2.8339987E1,2.6563054E-2,-7.754328E-3],"split_indices":[59,44,0,0,4,0,0],"split_type":[0,0,0,0,0,0,0],"sum_hessian":[5.0553566E1,4.030118E1,1.0252385E1,1.4193899E1,2.610728E1,1.0162106E1,1.5945175E1],"tree_param":{"num_deleted":"0","num_feature":"67","num_nodes":"7","size_leaf_vector":"1"}},{"base_weights":[1.4703277E-3,-1.54835535E-2,1.18401594E-1,-1.0960464E-2,3.0563423E-1,-6.4537446E-3,3.6642175E-2],"categories":[],"categories_nodes":[],"categories_segments":[],"categories_sizes":[],"default_left":[0,0,0,0,0,0,0],"id":75,"left_children":[1,-1,3,-1,5,-1,-1],"loss_changes":[1.9066484E0,0E0,2.4742236E0,0E0,4.721459E0,0E0,0E0],"parents":[2147483647,0,0,2,2,4,4],"right_children":[2,-1,4,-1,6,-1,-1],"split_conditions":[-2.0191666E-1,-1.54835535E-2,1.3521239E2,-1.0960464E-2,5.233E1,-6.4537446E-3,3.6642175E-2],"split_indices":[19,0,44,0,42,0,0],"split_type":[0,0,0,0,0,0,0],"sum_hessian":[5.039835E1,1.3316438E1,3.7081913E1,1.3167673E1,2.3914238E1,1.2198972E1,1.1715266E1],"tree_param":{"num_deleted":"0","num_feature":"67","num_nodes":"7","size_leaf_vector":"1"}},{"base_weights":[1.4840285E-3,-1.791262E-2,9.970355E-2,-5.4163456E-2,2.2615915E-2,1.7271638E-2,-2.2328792E-2],"categories":[],"categories_nodes":[],"categories_segments":[],"categories_sizes":[],"default_left":[0,0,0,0,0,0,0],"id":76,"left_children":[1,-1,3,5,-1,-1,-1],"loss_changes":[1.849899E0,0E0,2.2552328E0,4.782812E0,0E0,0E0,0E0],"parents":[2147483647,0,0,2,2,3,3],"right_children":[2,-1,4,6,-1,-1,-1],"split_conditions":[-6.12245E1,-1.791262E-2,1.7E1,3.0289876E-1,2.2615915E-2,1.7271638E-2,-2.2328792E-2],"split_indices":[60,0,5,26,0,0,0],"split_type":[0,0,0,0,0,0,0],"sum_hessian":[5.0345E1,1.0229868E1,4.0115135E1,2.8517591E1,1.1597543E1,1.418878E1,1.4328812E1],"tree_param":{"num_deleted":"0","num_feature":"67","num_nodes":"7","size_leaf_vector":"1"}},{"base_weights":[1.4150538E-3,-1.1950818E-1,1.4911515E-2,1.54876085E-2,-3.200942E-1,1.8313125E-3,-2.8880585E-2],"categories":[],"categories_nodes":[],"categories_segments":[],"categories_sizes":[],"default_left":[0,0,0,0,0,0,0],"id":77,"left_children":[1,3,-1,-1,5,-1,-1],"loss_changes":[1.8705667E0,3.2883253E0,0E0,0E0,2.3852105E0,0E0,0E0],"parents":[2147483647,0,0,1,1,4,4],"right_children":[2,4,-1,-1,6,-1,-1],"split_conditions":[3.898092E4,-2.2479E0,1.4911515E-2,1.54876085E-2,1.4643E-1,1.8313125E-3,-2.8880585E-2],"split_indices":[38,29,0,0,22,0,0],"split_type":[0,0,0,0,0,0,0],"sum_hessian":[5.0123737E1,3.6038807E1,1.4084931E1,1.1303891E1,2.4734917E1,1.072966E1,1.4005256E1],"tree_param":{"num_deleted":"0","num_feature":"67","num_nodes":"7","size_leaf_vector":"1"}},{"base_weights":[1.402965E-3,-1.3477957E-1,1.3256517E-2,8.765626E-3,-2.2204926E-2],"categories":[],"categories_nodes":[],"categories_segments":[],"categories_sizes":[],"default_left":[0,0,0,0,0],"id":78,"left_children":[1,3,-1,-1,-1],"loss_changes":[1.8692247E0,3.3706264E0,0E0,0E0,0E0],"parents":[2147483647,0,0,1,1],"right_children":[2,4,-1,-1,-1],"split_conditions":[3.4599E-1,3E0,1.3256517E-2,8.765626E-3,-2.2204926E-2],"split_indices":[20,6,0,0,0],"split_type":[0,0,0,0,0],"sum_hessian":[5.0050735E1,3.3329247E1,1.6721487E1,1.6860167E1,1.646908E1],"tree_param":{"num_deleted":"0","num_feature":"67","num_nodes":"5","size_leaf_vector":"1"}},{"base_weights":[1.3205046E-3,-1.2753612E-2,1.3600786E-1,-8.386405E-3,2.5988797E-2],"categories":[],"categories_nodes":[],"categories_segments":[],"categories_sizes":[],"default_left":[0,0,0,0,0],"id":79,"left_children":[1,-1,3,-1,-1],"loss_changes":[1.794804E0,0E0,4.0582557E0,0E0,0E0],"parents":[2147483647,0,0,2,2],"right_children":[2,-1,4,-1,-1],"split_conditions":[0E0,-1.2753612E-2,2E0,-8.386405E-3,2.5988797E-2],"split_indices":[50,0,56,0,0],"split_type":[0,0,0,0,0],"sum_hessian":[4.9969204E1,1.6901487E1,3.306772E1,1.8772799E1,1.429492E1],"tree_param":{"num_deleted":"0","num_feature":"67","num_nodes":"5","size_leaf_vector":"1"}},{"base_weights":[1.360464E-3,-1.1604853E-1,1.4432112E-2,9.500194E-2,-2.595121E-2,-1.1112494E-2,1.716418E-2],"categories":[],"categories_nodes":[],"categories_segments":[],"categories_sizes":[],"default_left":[0,0,0,0,0,0,0],"id":80,"left_children":[1,3,-1,5,-1,-1,-1],"loss_changes":[1.7504758E0,3.1832726E0,0E0,2.0477643E0,0E0,0E0,0E0],"parents":[2147483647,0,0,1,1,3,3],"right_children":[2,4,-1,6,-1,-1,-1],"split_conditions":[3.898092E4,2.799146E4,1.4432112E-2,1.836113E4,-2.595121E-2,-1.1112494E-2,1.716418E-2],"split_indices":[38,38,0,35,0,0,0],"split_type":[0,0,0,0,0,0,0],"sum_hessian":[4.9904434E1,3.5849266E1,1.4055168E1,2.4028873E1,1.18203945E1,1.0595235E1,1.3433638E1],"tree_param":{"num_deleted":"0","num_feature":"67","num_nodes":"7","size_leaf_vector":"1"}},{"base_weights":[1.1817237E-3,-1.7543562E-2,9.727194E-2,2.3727687E-2,-4.1570704E-2,9.866363E-3,-2.2238748E-2],"categories":[],"categories_nodes":[],"categories_segments":[],"categories_sizes":[],"default_left":[0,0,0,0,0,0,0],"id":81,"left_children":[1,-1,3,-1,5,-1,-1],"loss_changes":[1.7549165E0,0E0,2.153984E0,0E0,3.0451758E0,0E0,0E0],"parents":[2147483647,0,0,2,2,4,4],"right_children":[2,-1,4,-1,6,-1,-1],"split_conditions":[-6.12245E1,-1.7543562E-2,2.5362012E-1,2.3727687E-2,5.1E-1,9.866363E-3,-2.2238748E-2],"split_indices":[60,0,16,0,3,0,0],"split_type":[0,0,0,0,0,0,0],"sum_hessian":[4.9867435E1,1.0123979E1,3.9743458E1,1.0040942E1,2.9702515E1,1.8972147E1,1.0730369E1],"tree_param":{"num_deleted":"0","num_feature":"67","num_nodes":"7","size_leaf_vector":"1"}},{"base_weights":[1.008487E-3,-1.3195004E-1,1.2894558E-2,8.296958E-3,-2.2373622E-2],"categories":[],"categories_nodes":[],"categories_segments":[],"categories_sizes":[],"default_left":[0,0,0,0,0],"id":82,"left_children":[1,3,-1,-1,-1],"loss_changes":[1.7656592E0,3.2764783E0,0E0,0E0,0E0],"parents":[2147483647,0,0,1,1],"right_children":[2,4,-1,-1,-1],"split_conditions":[3.4599E-1,2.8357351E1,1.2894558E-2,8.296958E-3,-2.2373622E-2],"split_indices":[20,4,0,0,0],"split_type":[0,0,0,0,0],"sum_hessian":[4.9699566E1,3.306959E1,1.6629972E1,1.7253962E1,1.581563E1],"tree_param":{"num_deleted":"0","num_feature":"67","num_nodes":"5","size_leaf_vector":"1"}},{"base_weights":[9.28946E-4,-1.4827444E-2,1.1268549E-1,-7.6684877E-3,1.6830588E-2],"categories":[],"categories_nodes":[],"categories_segments":[],"categories_sizes":[],"default_left":[0,0,0,0,0],"id":83,"left_children":[1,-1,3,-1,-1],"loss_changes":[1.7173243E0,0E0,2.2883606E0,0E0,0E0],"parents":[2147483647,0,0,2,2],"right_children":[2,-1,4,-1,-1],"split_conditions":[-2.0191666E-1,-1.4827444E-2,-1.130436E1,-7.6684877E-3,1.6830588E-2],"split_indices":[19,0,60,0,0],"split_type":[0,0,0,0,0],"sum_hessian":[4.9651314E1,1.3107567E1,3.6543747E1,1.6844841E1,1.9698904E1],"tree_param":{"num_deleted":"0","num_feature":"67","num_nodes":"5","size_leaf_vector":"1"}},{"base_weights":[7.86268E-4,-1.1542602E-1,1.4233536E-2,1.5224387E-2,-3.1043294E-1,1.5438054E-3,-2.7653834E-2],"categories":[],"categories_nodes":[],"categories_segments":[],"categories_sizes":[],"default_left":[0,0,0,0,0,0,0],"id":84,"left_children":[1,3,-1,-1,5,-1,-1],"loss_changes":[1.6987292E0,3.0866115E0,0E0,0E0,2.1245222E0,0E0,0E0],"parents":[2147483647,0,0,1,1,4,4],"right_children":[2,4,-1,-1,6,-1,-1],"split_conditions":[3.898092E4,-2.2479E0,1.4233536E-2,1.5224387E-2,4.8E-1,1.5438054E-3,-2.7653834E-2],"split_indices":[38,29,0,0,0,0,0],"split_type":[0,0,0,0,0,0,0],"sum_hessian":[4.9494915E1,3.5539642E1,1.3955274E1,1.1092481E1,2.4447163E1,1.0520917E1,1.3926246E1],"tree_param":{"num_deleted":"0","num_feature":"67","num_nodes":"7","size_leaf_vector":"1"}},{"base_weights":[7.963204E-4,-1.2981719E-1,1.2668259E-2,8.441542E-3,-2.1471744E-2],"categories":[],"categories_nodes":[],"categories_segments":[],"categories_sizes":[],"default_left":[0,0,0,0,0],"id":85,"left_children":[1,3,-1,-1,-1],"loss_changes":[1.694947E0,3.1031902E0,0E0,0E0,0E0],"parents":[2147483647,0,0,1,1],"right_children":[2,4,-1,-1,-1],"split_conditions":[3.4599E-1,3E0,1.2668259E-2,8.441542E-3,-2.1471744E-2],"split_indices":[20,6,0,0,0],"split_type":[0,0,0,0,0],"sum_hessian":[4.9382267E1,3.2869923E1,1.6512344E1,1.668021E1,1.6189714E1],"tree_param":{"num_deleted":"0","num_feature":"67","num_nodes":"5","size_leaf_vector":"1"}},{"base_weights":[7.404188E-4,1.6444169E-2,-9.673181E-2,-2.8315524E-2,9.285686E-2,-1.7848423E-2,1.8241514E-2],"categories":[],"categories_nodes":[],"categories_segments":[],"categories_sizes":[],"default_left":[0,0,0,0,0,0,0],"id":86,"left_children":[1,-1,3,-1,5,-1,-1],"loss_changes":[1.6407669E0,0E0,3.5741374E0,0E0,3.682776E0,0E0,0E0],"parents":[2147483647,0,0,2,2,4,4],"right_children":[2,-1,4,-1,6,-1,-1],"split_conditions":[-6.81E1,1.6444169E-2,-1.2725E-1,-2.8315524E-2,1.5315053E2,-1.7848423E-2,1.8241514E-2],"split_indices":[42,0,19,0,44,0,0],"split_type":[0,0,0,0,0,0,0],"sum_hessian":[4.9303646E1,1.0747561E1,3.8556084E1,1.0517929E1,2.8038155E1,1.0447008E1,1.7591146E1],"tree_param":{"num_deleted":"0","num_feature":"67","num_nodes":"7","size_leaf_vector":"1"}},{"base_weights":[4.735792E-4,-1.2252109E-2,1.2879956E-1,-8.092113E-3,2.4882784E-2],"categories":[],"categories_nodes":[],"categories_segments":[],"categories_sizes":[],"default_left":[0,0,0,0,0],"id":87,"left_children":[1,-1,3,-1,-1],"loss_changes":[1.6156571E0,0E0,3.6907377E0,0E0,0E0],"parents":[2147483647,0,0,2,2],"right_children":[2,-1,4,-1,-1],"split_conditions":[0E0,-1.2252109E-2,2E0,-8.092113E-3,2.4882784E-2],"split_indices":[50,0,56,0,0],"split_type":[0,0,0,0,0],"sum_hessian":[4.92791E1,1.6603477E1,3.2675625E1,1.8589317E1,1.4086305E1],"tree_param":{"num_deleted":"0","num_feature":"67","num_nodes":"5","size_leaf_vector":"1"}},{"base_weights":[5.495346E-4,-1.0731359E-1,1.4630513E-2,1.4092754E-1,-2.1606866E-2,-1.2290074E-2,2.522091E-2],"categories":[],"categories_nodes":[],"categories_segments":[],"categories_sizes":[],"default_left":[0,0,0,0,0,0,0],"id":88,"left_children":[1,3,-1,5,-1,-1,-1],"loss_changes":[1.6133441E0,3.07697E0,0E0,3.210317E0,0E0,0E0,0E0],"parents":[2147483647,0,0,1,1,3,3],"right_children":[2,4,-1,6,-1,-1,-1],"split_conditions":[1.8E1,2.79852E4,1.4630513E-2,2.017285E4,-2.1606866E-2,-1.2290074E-2,2.522091E-2],"split_indices":[5,37,0,37,0,0,0],"split_type":[0,0,0,0,0,0,0],"sum_hessian":[4.9216297E1,3.6404167E1,1.281213E1,2.0955452E1,1.5448714E1,1.0310047E1,1.0645405E1],"tree_param":{"num_deleted":"0","num_feature":"67","num_nodes":"7","size_leaf_vector":"1"}},{"base_weights":[6.3864636E-4,-1.12627506E-1,1.3810645E-2,1.4672942E-2,-3.0044645E-1,1.8489764E-3,-2.7451131E-2],"categories":[],"categories_nodes":[],"categories_segments":[],"categories_sizes":[],"default_left":[0,0,0,0,0,0,0],"id":89,"left_children":[1,3,-1,-1,5,-1,-1],"loss_changes":[1.5975747E0,2.8550808E0,0E0,0E0,2.1422904E0,0E0,0E0],"parents":[2147483647,0,0,1,1,4,4],"right_children":[2,4,-1,-1,6,-1,-1],"split_conditions":[3.898092E4,-2.2479E0,1.3810645E-2,1.4672942E-2,3.9577E-1,1.8489764E-3,-2.7451131E-2],"split_indices":[38,29,0,0,21,0,0],"split_type":[0,0,0,0,0,0,0],"sum_hessian":[4.9185944E1,3.5277523E1,1.39084215E1,1.097843E1,2.4299095E1,1.0668514E1,1.3630581E1],"tree_param":{"num_deleted":"0","num_feature":"67","num_nodes":"7","size_leaf_vector":"1"}},{"base_weights":[6.4563495E-4,-1.2470881E-1,1.2124814E-2,7.987439E-3,-2.140337E-2],"categories":[],"categories_nodes":[],"categories_segments":[],"categories_sizes":[],"default_left":[0,0,0,0,0],"id":90,"left_children":[1,3,-1,-1,-1],"loss_changes":[1.5482141E0,2.9710708E0,0E0,0E0,0E0],"parents":[2147483647,0,0,1,1],"right_children":[2,4,-1,-1,-1],"split_conditions":[3.4599E-1,2.8357351E1,1.2124814E-2,7.987439E-3,-2.140337E-2],"split_indices":[20,4,0,0,0],"split_type":[0,0,0,0,0],"sum_hessian":[4.906993E1,3.263772E1,1.6432213E1,1.7087896E1,1.5549821E1],"tree_param":{"num_deleted":"0","num_feature":"67","num_nodes":"5","size_leaf_vector":"1"}},{"base_weights":[5.8183E-4,-1.10595584E-1,1.3495043E-2,8.8996254E-2,-2.4689777E-2,-1.0692972E-2,1.6343465E-2],"categories":[],"categories_nodes":[],"categories_segments":[],"categories_sizes":[],"default_left":[0,0,0,0,0,0,0],"id":91,"left_children":[1,3,-1,5,-1,-1,-1],"loss_changes":[1.52763E0,2.8062015E0,0E0,1.8417023E0,0E0,0E0,0E0],"parents":[2147483647,0,0,1,1,3,3],"right_children":[2,4,-1,6,-1,-1,-1],"split_conditions":[3.898092E4,2.799146E4,1.3495043E-2,1.836113E4,-2.4689777E-2,-1.0692972E-2,1.6343465E-2],"split_indices":[38,38,0,35,0,0,0],"split_type":[0,0,0,0,0,0,0],"sum_hessian":[4.9022392E1,3.511567E1,1.3906725E1,2.3594234E1,1.1521434E1,1.0423797E1,1.3170438E1],"tree_param":{"num_deleted":"0","num_feature":"67","num_nodes":"7","size_leaf_vector":"1"}},{"base_weights":[4.3849213E-4,-1.1954651E-2,1.2533799E-1,-7.622046E-3,2.3927419E-2],"categories":[],"categories_nodes":[],"categories_segments":[],"categories_sizes":[],"default_left":[0,0,0,0,0],"id":92,"left_children":[1,-1,3,-1,-1],"loss_changes":[1.5254118E0,0E0,3.3608158E0,0E0,0E0],"parents":[2147483647,0,0,2,2],"right_children":[2,-1,4,-1,-1],"split_conditions":[0E0,-1.1954651E-2,2E0,-7.622046E-3,2.3927419E-2],"split_indices":[50,0,56,0,0],"split_type":[0,0,0,0,0],"sum_hessian":[4.898584E1,1.6475307E1,3.2510532E1,1.851668E1,1.3993852E1],"tree_param":{"num_deleted":"0","num_feature":"67","num_nodes":"5","size_leaf_vector":"1"}},{"base_weights":[5.1231094E-4,-1.394627E-2,1.05373554E-1,-7.7576335E-3,1.6337495E-2],"categories":[],"categories_nodes":[],"categories_segments":[],"categories_sizes":[],"default_left":[0,0,0,0,0],"id":93,"left_children":[1,-1,3,-1,-1],"loss_changes":[1.4922988E0,0E0,2.1862605E0,0E0,0E0],"parents":[2147483647,0,0,2,2],"right_children":[2,-1,4,-1,-1],"split_conditions":[-2.0191666E-1,-1.394627E-2,-1.130436E1,-7.7576335E-3,1.6337495E-2],"split_indices":[19,0,60,0,0],"split_type":[0,0,0,0,0],"sum_hessian":[4.8924862E1,1.289688E1,3.602798E1,1.668795E1,1.9340029E1],"tree_param":{"num_deleted":"0","num_feature":"67","num_nodes":"5","size_leaf_vector":"1"}},{"base_weights":[3.924639E-4,-1.0374812E-1,1.4099955E-2,1.4008638E-1,-1.9932836E-2,-1.0704696E-2,2.4072077E-2],"categories":[],"categories_nodes":[],"categories_segments":[],"categories_sizes":[],"default_left":[0,0,0,0,0,0,0],"id":94,"left_children":[1,3,-1,5,-1,-1,-1],"loss_changes":[1.4889978E0,2.7213924E0,0E0,2.645778E0,0E0,0E0,0E0],"parents":[2147483647,0,0,1,1,3,3],"right_children":[2,4,-1,6,-1,-1,-1],"split_conditions":[1.8E1,2.765254E4,1.4099955E-2,2.0258E4,-1.9932836E-2,-1.0704696E-2,2.4072077E-2],"split_indices":[5,37,0,36,0,0,0],"split_type":[0,0,0,0,0,0,0],"sum_hessian":[4.877519E1,3.6068375E1,1.2706815E1,2.0031246E1,1.6037127E1,1.0013911E1,1.0017336E1],"tree_param":{"num_deleted":"0","num_feature":"67","num_nodes":"7","size_leaf_vector":"1"}},{"base_weights":[5.223628E-4,-1.0838122E-1,1.3181183E-2,1.5614745E-2,-2.859251E-1,3.2177423E-3,-2.763376E-2],"categories":[],"categories_nodes":[],"categories_segments":[],"categories_sizes":[],"default_left":[0,0,0,0,0,0,0],"id":95,"left_children":[1,3,-1,-1,5,-1,-1],"loss_changes":[1.4539428E0,2.770012E0,0E0,0E0,2.442675E0,0E0,0E0],"parents":[2147483647,0,0,1,1,4,4],"right_children":[2,4,-1,-1,6,-1,-1],"split_conditions":[3.898092E4,-1.4733334E-1,1.3181183E-2,1.5614745E-2,2.7308E-1,3.2177423E-3,-2.763376E-2],"split_indices":[38,18,0,0,22,0,0],"split_type":[0,0,0,0,0,0,0],"sum_hessian":[4.874653E1,3.4892002E1,1.3854527E1,1.0130237E1,2.4761765E1,1.1032847E1,1.3728917E1],"tree_param":{"num_deleted":"0","num_feature":"67","num_nodes":"7","size_leaf_vector":"1"}},{"base_weights":[5.800376E-4,1.5392238E-2,-9.1365956E-2,-2.6781721E-2,8.704769E-2,-1.7211191E-2,1.7452817E-2],"categories":[],"categories_nodes":[],"categories_segments":[],"categories_sizes":[],"default_left":[0,0,0,0,0,0,0],"id":96,"left_children":[1,-1,3,-1,5,-1,-1],"loss_changes":[1.4324722E0,0E0,3.14033E0,0E0,3.364021E0,0E0,0E0],"parents":[2147483647,0,0,2,2,4,4],"right_children":[2,-1,4,-1,6,-1,-1],"split_conditions":[-6.81E1,1.5392238E-2,-1.2725E-1,-2.6781721E-2,1.5315053E2,-1.7211191E-2,1.7452817E-2],"split_indices":[42,0,19,0,44,0,0],"split_type":[0,0,0,0,0,0,0],"sum_hessian":[4.870825E1,1.0677643E1,3.8030605E1,1.0323018E1,2.7707588E1,1.0352831E1,1.7354757E1],"tree_param":{"num_deleted":"0","num_feature":"67","num_nodes":"7","size_leaf_vector":"1"}},{"base_weights":[3.2510623E-4,1.09370306E-1,-1.2567102E-2,-1.262422E-1,2.7326537E-2,-2.3318788E-2,1.1366044E-2],"categories":[],"categories_nodes":[],"categories_segments":[],"categories_sizes":[],"default_left":[0,0,0,0,0,0,0],"id":97,"left_children":[1,3,-1,5,-1,-1,-1],"loss_changes":[1.3908787E0,3.7109573E0,0E0,2.9667351E0,0E0,0E0,0E0],"parents":[2147483647,0,0,1,1,3,3],"right_children":[2,4,-1,6,-1,-1,-1],"split_conditions":[1.20007E0,1.25321E0,-1.2567102E-2,-7.75E-3,2.7326537E-2,-2.3318788E-2,1.1366044E-2],"split_indices":[29,27,0,19,0,0,0],"split_type":[0,0,0,0,0,0,0],"sum_hessian":[4.86806E1,3.4358692E1,1.4321908E1,2.2788044E1,1.1570649E1,1.1451978E1,1.1336065E1],"tree_param":{"num_deleted":"0","num_feature":"67","num_nodes":"7","size_leaf_vector":"1"}},{"base_weights":[3.739059E-4,-1.1500741E-2,1.2024561E-1,-7.1319365E-3,2.2689348E-2],"categories":[],"categories_nodes":[],"categories_segments":[],"categories_sizes":[],"default_left":[0,0,0,0,0],"id":98,"left_children":[1,-1,3,-1,-1],"loss_changes":[1.3964239E0,0E0,2.980792E0,0E0,0E0],"parents":[2147483647,0,0,2,2],"right_children":[2,-1,4,-1,-1],"split_conditions":[0E0,-1.1500741E-2,2E0,-7.1319365E-3,2.2689348E-2],"split_indices":[50,0,56,0,0],"split_type":[0,0,0,0,0],"sum_hessian":[4.8562267E1,1.6305294E1,3.2256973E1,1.8359266E1,1.389771E1],"tree_param":{"num_deleted":"0","num_feature":"67","num_nodes":"5","size_leaf_vector":"1"}},{"base_weights":[4.449589E-4,-1.0033787E-1,1.3687312E-2,1.2207029E-1,-2.1610765E-2,2.3101123E-2,-9.884533E-3],"categories":[],"categories_nodes":[],"categories_segments":[],"categories_sizes":[],"default_left":[0,0,0,0,0,0,0],"id":99,"left_children":[1,3,-1,5,-1,-1,-1],"loss_changes":[1.3909836E0,2.7762935E0,0E0,2.577651E0,0E0,0E0,0E0],"parents":[2147483647,0,0,1,1,3,3],"right_children":[2,4,-1,6,-1,-1,-1],"split_conditions":[1.8E1,4.57592E3,1.3687312E-2,2.6561692E-1,-2.1610765E-2,2.3101123E-2,-9.884533E-3],"split_indices":[5,39,0,26,0,0,0],"split_type":[0,0,0,0,0,0,0],"sum_hessian":[4.8503075E1,3.5898117E1,1.2604957E1,2.1872446E1,1.4025671E1,1.0385866E1,1.148658E1],"tree_param":{"num_deleted":"0","num_feature":"67","num_nodes":"7","size_leaf_vector":"1"}},{"base_weights":[5.35816E-4,-1.4881352E-1,1.9098964E-1,9.179414E-3,-2.687617E-2,-6.6745356E-3,2.601423E-2],"categories":[],"categories_nodes":[],"categories_segments":[],"categories_sizes":[],"default_left":[0,0,0,0,0,0,0],"id":100,"left_children":[1,3,5,-1,-1,-1,-1],"loss_changes":[1.4318146E0,3.7443419E0,2.4332976E0,0E0,0E0,0E0,0E0],"parents":[2147483647,0,0,1,1,2,2],"right_children":[2,4,6,-1,-1,-1,-1],"split_conditions":[6.5197E-1,3E0,3.07569E4,9.179414E-3,-2.687617E-2,-6.6745356E-3,2.601423E-2],"split_indices":[21,6,35,0,0,0,0],"split_type":[0,0,0,0,0,0,0],"sum_hessian":[4.8338528E1,2.7215456E1,2.1123072E1,1.49547415E1,1.22607155E1,1.0938811E1,1.018426E1],"tree_param":{"num_deleted":"0","num_feature":"67","num_nodes":"7","size_leaf_vector":"1"}},{"base_weights":[5.2584056E-4,1.4972381E-2,-8.906449E-2,-2.5097389E-2,7.667912E-2,-1.7112393E-2,1.663031E-2],"categories":[],"categories_nodes":[],"categories_segments":[],"categories_sizes":[],"default_left":[0,0,0,0,0,0,0],"id":101,"left_children":[1,-1,3,-1,5,-1,-1],"loss_changes":[1.3455212E0,0E0,2.6841836E0,0E0,3.164573E0,0E0,0E0],"parents":[2147483647,0,0,2,2,4,4],"right_children":[2,-1,4,-1,6,-1,-1],"split_conditions":[-6.81E1,1.4972381E-2,-1.2725E-1,-2.5097389E-2,1.5315053E2,-1.7112393E-2,1.663031E-2],"split_indices":[42,0,19,0,44,0,0],"split_type":[0,0,0,0,0,0,0],"sum_hessian":[4.824669E1,1.058546E1,3.766123E1,1.0206756E1,2.7454472E1,1.0283738E1,1.7170734E1],"tree_param":{"num_deleted":"0","num_feature":"67","num_nodes":"7","size_leaf_vector":"1"}},{"base_weights":[2.8257654E-4,1.0737929E-1,-1.230121E-2,-1.2229157E-1,2.6611967E-2,-2.195671E-2,1.0410468E-2],"categories":[],"categories_nodes":[],"categories_segments":[],"categories_sizes":[],"default_left":[0,0,0,0,0,0,0],"id":102,"left_children":[1,3,-1,5,-1,-1,-1],"loss_changes":[1.3247441E0,3.4802713E0,0E0,2.5555828E0,0E0,0E0,0E0],"parents":[2147483647,0,0,1,1,3,3],"right_children":[2,4,-1,6,-1,-1,-1],"split_conditions":[1.20007E0,1.25321E0,-1.230121E-2,-7.75E-3,2.6611967E-2,-2.195671E-2,1.0410468E-2],"split_indices":[29,27,0,19,0,0,0],"split_type":[0,0,0,0,0,0,0],"sum_hessian":[4.8218834E1,3.399953E1,1.4219302E1,2.2531572E1,1.1467959E1,1.1335669E1,1.1195904E1],"tree_param":{"num_deleted":"0","num_feature":"67","num_nodes":"7","size_leaf_vector":"1"}},{"base_weights":[3.3225393E-4,-1.0447941E-1,1.2652961E-2,1.5102818E-2,-2.9179618E-1,1.3843818E-3,-2.6366463E-2],"categories":[],"categories_nodes":[],"categories_segments":[],"categories_sizes":[],"default_left":[0,0,0,0,0,0,0],"id":103,"left_children":[1,3,-1,-1,5,-1,-1],"loss_changes":[1.3271322E0,2.7851613E0,0E0,0E0,1.8773172E0,0E0,0E0],"parents":[2147483647,0,0,1,1,4,4],"right_children":[2,4,-1,-1,6,-1,-1],"split_conditions":[3.898092E4,-2.2479E0,1.2652961E-2,1.5102818E-2,3.9577E-1,1.3843818E-3,-2.6366463E-2],"split_indices":[38,29,0,0,21,0,0],"split_type":[0,0,0,0,0,0,0],"sum_hessian":[4.8103622E1,3.4416786E1,1.3686838E1,1.066275E1,2.3754034E1,1.04550085E1,1.3299026E1],"tree_param":{"num_deleted":"0","num_feature":"67","num_nodes":"7","size_leaf_vector":"1"}},{"base_weights":[3.5497482E-4,-1.4555089E-1,1.8619218E-1,8.716839E-3,-2.6005024E-2,-7.0330277E-3,2.508914E-2],"categories":[],"categories_nodes":[],"categories_segments":[],"categories_sizes":[],"default_left":[0,0,0,0,0,0,0],"id":104,"left_children":[1,3,5,-1,-1,-1,-1],"loss_changes":[1.3555043E0,3.4461496E0,2.3384914E0,0E0,0E0,0E0,0E0],"parents":[2147483647,0,0,1,1,2,2],"right_children":[2,4,6,-1,-1,-1,-1],"split_conditions":[6.5197E-1,3E0,1E0,8.716839E-3,-2.6005024E-2,-7.0330277E-3,2.508914E-2],"split_indices":[21,6,57,0,0,0,0],"split_type":[0,0,0,0,0,0,0],"sum_hessian":[4.7991943E1,2.7005764E1,2.098618E1,1.4854057E1,1.2151707E1,1.0581432E1,1.0404748E1],"tree_param":{"num_deleted":"0","num_feature":"67","num_nodes":"7","size_leaf_vector":"1"}},{"base_weights":[3.4284158E-4,1.4543633E-2,-9.209625E-2,-2.856977E-1,1.874884E-2,1.0760921E-2,-3.3759467E-2],"categories":[],"categories_nodes":[],"categories_segments":[],"categories_sizes":[],"default_left":[0,0,0,0,0,0,0],"id":105,"left_children":[1,-1,3,5,-1,-1,-1],"loss_changes":[1.3392844E0,0E0,3.528337E0,5.474554E0,0E0,0E0,0E0],"parents":[2147483647,0,0,2,2,3,3],"right_children":[2,-1,4,6,-1,-1,-1],"split_conditions":[2.5362012E-1,1.4543633E-2,3.822907E4,3.0289876E-1,1.874884E-2,1.0760921E-2,-3.3759467E-2],"split_indices":[16,0,38,26,0,0,0],"split_type":[0,0,0,0,0,0,0],"sum_hessian":[4.7871044E1,1.1036724E1,3.683432E1,2.6315067E1,1.0519254E1,1.1706739E1,1.4608328E1],"tree_param":{"num_deleted":"0","num_feature":"67","num_nodes":"7","size_leaf_vector":"1"}},{"base_weights":[5.105922E-4,1.4172393E-1,-1.902121E-1,2.5437651E-2,-4.3734475E-3,-2.5880033E-2,7.895332E-3],"categories":[],"categories_nodes":[],"categories_segments":[],"categories_sizes":[],"default_left":[0,0,0,0,0,0,0],"id":106,"left_children":[1,3,5,-1,-1,-1,-1],"loss_changes":[1.339835E0,2.4488149E0,2.4939084E0,0E0,0E0,0E0,0E0],"parents":[2147483647,0,0,1,1,2,2],"right_children":[2,4,6,-1,-1,-1,-1],"split_conditions":[4.57592E3,-1.7498E-1,7.1822E-1,2.5437651E-2,-4.3734475E-3,-2.5880033E-2,7.895332E-3],"split_indices":[39,20,21,0,0,0,0],"split_type":[0,0,0,0,0,0,0],"sum_hessian":[4.77468E1,2.758181E1,2.016499E1,1.0133801E1,1.744801E1,1.0141013E1,1.0023975E1],"tree_param":{"num_deleted":"0","num_feature":"67","num_nodes":"7","size_leaf_vector":"1"}},{"base_weights":[5.561602E-4,-1.1812415E-1,1.1353703E-2,7.394568E-3,-2.0238083E-2],"categories":[],"categories_nodes":[],"categories_segments":[],"categories_sizes":[],"default_left":[0,0,0,0,0],"id":107,"left_children":[1,3,-1,-1,-1],"loss_changes":[1.3340387E0,2.543007E0,0E0,0E0,0E0],"parents":[2147483647,0,0,1,1],"right_children":[2,4,-1,-1,-1],"split_conditions":[3.4599E-1,2.8357351E1,1.1353703E-2,7.394568E-3,-2.0238083E-2],"split_indices":[20,4,0,0,0],"split_type":[0,0,0,0,0],"sum_hessian":[4.762572E1,3.1565842E1,1.605988E1,1.6622908E1,1.4942934E1],"tree_param":{"num_deleted":"0","num_feature":"67","num_nodes":"5","size_leaf_vector":"1"}},{"base_weights":[4.924198E-4,1.4652237E-2,-8.747627E-2,-2.4180148E-2,7.1683116E-2,-1.6552618E-2,1.6003681E-2],"categories":[],"categories_nodes":[],"categories_segments":[],"categories_sizes":[],"default_left":[0,0,0,0,0,0,0],"id":108,"left_children":[1,-1,3,-1,5,-1,-1],"loss_changes":[1.2758601E0,0E0,2.4379869E0,0E0,2.913388E0,0E0,0E0],"parents":[2147483647,0,0,2,2,4,4],"right_children":[2,-1,4,-1,6,-1,-1],"split_conditions":[-6.81E1,1.4652237E-2,-1.2725E-1,-2.4180148E-2,1.5315053E2,-1.6552618E-2,1.6003681E-2],"split_indices":[42,0,19,0,44,0,0],"split_type":[0,0,0,0,0,0,0],"sum_hessian":[4.7579914E1,1.046057E1,3.7119347E1,1.0055085E1,2.706426E1,1.0197478E1,1.6866781E1],"tree_param":{"num_deleted":"0","num_feature":"67","num_nodes":"7","size_leaf_vector":"1"}},{"base_weights":[2.5891126E-4,-9.690916E-2,1.3145985E-2,1.3217752E-1,-2.0255148E-2,-1.0119091E-2,2.2510273E-2],"categories":[],"categories_nodes":[],"categories_segments":[],"categories_sizes":[],"default_left":[0,0,0,0,0,0,0],"id":109,"left_children":[1,3,-1,5,-1,-1,-1],"loss_changes":[1.2646217E0,2.6073534E0,0E0,2.3789644E0,0E0,0E0,0E0],"parents":[2147483647,0,0,1,1,3,3],"right_children":[2,4,-1,6,-1,-1,-1],"split_conditions":[1.8E1,2.79852E4,1.3145985E-2,2.07246E4,-2.0255148E-2,-1.0119091E-2,2.2510273E-2],"split_indices":[5,37,0,36,0,0,0],"split_type":[0,0,0,0,0,0,0],"sum_hessian":[4.755147E1,3.5171326E1,1.2380143E1,2.0502516E1,1.4668811E1,1.0168784E1,1.0333732E1],"tree_param":{"num_deleted":"0","num_feature":"67","num_nodes":"7","size_leaf_vector":"1"}},{"base_weights":[3.522645E-4,1.3773963E-1,-1.8552116E-1,2.4577986E-2,-4.0820036E-3,-2.4608543E-2,6.9101253E-3],"categories":[],"categories_nodes":[],"categories_segments":[],"categories_sizes":[],"default_left":[0,0,0,0,0,0,0],"id":110,"left_children":[1,3,5,-1,-1,-1,-1],"loss_changes":[1.2646538E0,2.250314E0,2.1574836E0,0E0,0E0,0E0,0E0],"parents":[2147483647,0,0,1,1,2,2],"right_children":[2,4,6,-1,-1,-1,-1],"split_conditions":[4.57592E3,-1.7498E-1,7.1822E-1,2.4577986E-2,-4.0820036E-3,-2.4608543E-2,6.9101253E-3],"split_indices":[39,20,21,0,0,0,0],"split_type":[0,0,0,0,0,0,0],"sum_hessian":[4.7522404E1,2.7474056E1,2.0048346E1,1.0040253E1,1.7433804E1,1.0028464E1,1.0019882E1],"tree_param":{"num_deleted":"0","num_feature":"67","num_nodes":"7","size_leaf_vector":"1"}},{"base_weights":[4.0006745E-4,-1.1179927E-2,1.1657065E-1,-6.9148936E-3,2.2050016E-2],"categories":[],"categories_nodes":[],"categories_segments":[],"categories_sizes":[],"default_left":[0,0,0,0,0],"id":111,"left_children":[1,-1,3,-1,-1],"loss_changes":[1.2856283E0,0E0,2.7508564E0,0E0,0E0],"parents":[2147483647,0,0,2,2],"right_children":[2,-1,4,-1,-1],"split_conditions":[0E0,-1.1179927E-2,2E0,-6.9148936E-3,2.2050016E-2],"split_indices":[50,0,56,0,0],"split_type":[0,0,0,0,0],"sum_hessian":[4.7403698E1,1.5872946E1,3.1530752E1,1.7979761E1,1.3550991E1],"tree_param":{"num_deleted":"0","num_feature":"67","num_nodes":"5","size_leaf_vector":"1"}},{"base_weights":[4.6935392E-4,-1.0520894E-1,1.2110316E-2,8.9381255E-2,-2.4860306E-2,-1.0692322E-2,1.6487356E-2],"categories":[],"categories_nodes":[],"categories_segments":[],"categories_sizes":[],"default_left":[0,0,0,0,0,0,0],"id":112,"left_children":[1,3,-1,5,-1,-1,-1],"loss_changes":[1.2606069E0,2.6637576E0,0E0,1.8048328E0,0E0,0E0,0E0],"parents":[2147483647,0,0,1,1,3,3],"right_children":[2,4,-1,6,-1,-1,-1],"split_conditions":[3.872778E4,2.799146E4,1.2110316E-2,1.836113E4,-2.4860306E-2,-1.0692322E-2,1.6487356E-2],"split_indices":[35,38,0,35,0,0,0],"split_type":[0,0,0,0,0,0,0],"sum_hessian":[4.734838E1,3.3338726E1,1.4009655E1,2.2795073E1,1.0543653E1,1.0128296E1,1.2666777E1],"tree_param":{"num_deleted":"0","num_feature":"67","num_nodes":"7","size_leaf_vector":"1"}},{"base_weights":[2.983766E-4,-1.0781519E-2,1.1208053E-1,-6.5070875E-3,2.1084588E-2],"categories":[],"categories_nodes":[],"categories_segments":[],"categories_sizes":[],"default_left":[0,0,0,0,0],"id":113,"left_children":[1,-1,3,-1,-1],"loss_changes":[1.1901727E0,0E0,2.4913092E0,0E0,0E0],"parents":[2147483647,0,0,2,2],"right_children":[2,-1,4,-1,-1],"split_conditions":[0E0,-1.0781519E-2,2E0,-6.5070875E-3,2.1084588E-2],"split_indices":[50,0,56,0,0],"split_type":[0,0,0,0,0],"sum_hessian":[4.7307808E1,1.5819798E1,3.148801E1,1.799186E1,1.3496151E1],"tree_param":{"num_deleted":"0","num_feature":"67","num_nodes":"5","size_leaf_vector":"1"}},{"base_weights":[3.6895633E-4,1.37105035E-2,-8.657184E-2,1.1635594E-1,-2.5977109E-2,-7.203657E-3,2.3349425E-2],"categories":[],"categories_nodes":[],"categories_segments":[],"categories_sizes":[],"default_left":[0,0,0,0,0,0,0],"id":114,"left_children":[1,-1,3,5,-1,-1,-1],"loss_changes":[1.172567E0,0E0,3.345233E0,2.4663308E0,0E0,0E0,0E0],"parents":[2147483647,0,0,2,2,3,3],"right_children":[2,-1,4,6,-1,-1,-1],"split_conditions":[2.5362012E-1,1.37105035E-2,1E0,6.618E-2,-2.5977109E-2,-7.203657E-3,2.3349425E-2],"split_indices":[16,0,8,20,0,0,0],"split_type":[0,0,0,0,0,0,0],"sum_hessian":[4.725394E1,1.08681345E1,3.6385807E1,2.5272272E1,1.1113537E1,1.4839486E1,1.0432786E1],"tree_param":{"num_deleted":"0","num_feature":"67","num_nodes":"7","size_leaf_vector":"1"}},{"base_weights":[4.216737E-4,1.396848E-2,-8.3304726E-2,-1.6292466E-2,7.977138E-3],"categories":[],"categories_nodes":[],"categories_segments":[],"categories_sizes":[],"default_left":[0,0,0,0,0],"id":115,"left_children":[1,-1,3,-1,-1],"loss_changes":[1.1485368E0,0E0,2.2800906E0,0E0,0E0],"parents":[2147483647,0,0,2,2],"right_children":[2,-1,4,-1,-1],"split_conditions":[-6.81E1,1.396848E-2,6.644918E4,-1.6292466E-2,7.977138E-3],"split_indices":[42,0,10,0,0],"split_type":[0,0,0,0,0],"sum_hessian":[4.7180233E1,1.0352505E1,3.682773E1,1.8254356E1,1.857337E1],"tree_param":{"num_deleted":"0","num_feature":"67","num_nodes":"5","size_leaf_vector":"1"}},{"base_weights":[5.2152E-4,1.0147705E-1,-1.1589672E-2,-1.19348526E-1,2.554814E-2,-2.1889066E-2,1.0487765E-2],"categories":[],"categories_nodes":[],"categories_segments":[],"categories_sizes":[],"default_left":[0,0,0,0,0,0,0],"id":116,"left_children":[1,3,-1,5,-1,-1,-1],"loss_changes":[1.1544003E0,3.1631994E0,0E0,2.5124884E0,0E0,0E0,0E0],"parents":[2147483647,0,0,1,1,3,3],"right_children":[2,4,-1,6,-1,-1,-1],"split_conditions":[1.20007E0,1.25321E0,-1.1589672E-2,-7.75E-3,2.554814E-2,-2.1889066E-2,1.0487765E-2],"split_indices":[29,27,0,19,0,0,0],"split_type":[0,0,0,0,0,0,0],"sum_hessian":[4.7217945E1,3.33071E1,1.3910847E1,2.2098475E1,1.1208623E1,1.106349E1,1.1034985E1],"tree_param":{"num_deleted":"0","num_feature":"67","num_nodes":"7","size_leaf_vector":"1"}},{"base_weights":[5.570563E-4,-1.0644134E-2,1.1061623E-1,-5.9187463E-3,2.0180913E-2],"categories":[],"categories_nodes":[],"categories_segments":[],"categories_sizes":[],"default_left":[0,0,0,0,0],"id":117,"left_children":[1,-1,3,-1,-1],"loss_changes":[1.1536565E0,0E0,2.2215908E0,0E0,0E0],"parents":[2147483647,0,0,2,2],"right_children":[2,-1,4,-1,-1],"split_conditions":[0E0,-1.0644134E-2,2E0,-5.9187463E-3,2.0180913E-2],"split_indices":[50,0,56,0,0],"split_type":[0,0,0,0,0],"sum_hessian":[4.710813E1,1.57090435E1,3.1399088E1,1.7959282E1,1.3439805E1],"tree_param":{"num_deleted":"0","num_feature":"67","num_nodes":"5","size_leaf_vector":"1"}},{"base_weights":[6.1095547E-4,1.3066626E-1,-8.777815E-3,-9.750775E-3,1.6160954E-2],"categories":[],"categories_nodes":[],"categories_segments":[],"categories_sizes":[],"default_left":[0,0,0,0,0],"id":118,"left_children":[1,3,-1,-1,-1],"loss_changes":[1.1239654E0,1.8326917E0,0E0,0E0,0E0],"parents":[2147483647,0,0,1,1],"right_children":[2,4,-1,-1,-1],"split_conditions":[4.57592E3,1.836113E4,-8.777815E-3,-9.750775E-3,1.6160954E-2],"split_indices":[39,35,0,0,0],"split_type":[0,0,0,0,0],"sum_hessian":[4.705564E1,2.7219301E1,1.9836342E1,1.0108724E1,1.7110577E1],"tree_param":{"num_deleted":"0","num_feature":"67","num_nodes":"5","size_leaf_vector":"1"}},{"base_weights":[5.361769E-4,-1.01149775E-1,1.1626883E-2,8.507038E-2,-2.3897387E-2,-9.301207E-3,1.5068713E-2],"categories":[],"categories_nodes":[],"categories_segments":[],"categories_sizes":[],"default_left":[0,0,0,0,0,0,0],"id":119,"left_children":[1,3,-1,5,-1,-1,-1],"loss_changes":[1.156089E0,2.4316201E0,0E0,1.4430788E0,0E0,0E0,0E0],"parents":[2147483647,0,0,1,1,3,3],"right_children":[2,4,-1,6,-1,-1,-1],"split_conditions":[3.872778E4,2.799146E4,1.1626883E-2,1.836113E4,-2.3897387E-2,-9.301207E-3,1.5068713E-2],"split_indices":[35,38,0,35,0,0,0],"split_type":[0,0,0,0,0,0,0],"sum_hessian":[4.7007874E1,3.307511E1,1.3932765E1,2.2653555E1,1.04215555E1,1.0115608E1,1.2537947E1],"tree_param":{"num_deleted":"0","num_feature":"67","num_nodes":"7","size_leaf_vector":"1"}},{"base_weights":[3.7015957E-4,9.892738E-2,-1.1323975E-2,-1.10245205E-1,2.4353659E-2,-2.1013448E-2,1.0434242E-2],"categories":[],"categories_nodes":[],"categories_segments":[],"categories_sizes":[],"default_left":[0,0,0,0,0,0,0],"id":120,"left_children":[1,3,-1,5,-1,-1,-1],"loss_changes":[1.0948294E0,2.8250878E0,0E0,2.3615265E0,0E0,0E0,0E0],"parents":[2147483647,0,0,1,1,3,3],"right_children":[2,4,-1,6,-1,-1,-1],"split_conditions":[1.20007E0,1.25321E0,-1.1323975E-2,-7.75E-3,2.4353659E-2,-2.1013448E-2,1.0434242E-2],"split_indices":[29,27,0,19,0,0,0],"split_type":[0,0,0,0,0,0,0],"sum_hessian":[4.6966732E1,3.3134853E1,1.3831877E1,2.1996737E1,1.1138117E1,1.0992988E1,1.1003749E1],"tree_param":{"num_deleted":"0","num_feature":"67","num_nodes":"7","size_leaf_vector":"1"}},{"base_weights":[4.104538E-4,1.3956534E-2,-8.357983E-2,-1.5694743E-2,7.378465E-3],"categories":[],"categories_nodes":[],"categories_segments":[],"categories_sizes":[],"default_left":[0,0,0,0,0],"id":121,"left_children":[1,-1,3,-1,-1],"loss_changes":[1.1437013E0,0E0,2.0451772E0,0E0,0E0],"parents":[2147483647,0,0,2,2],"right_children":[2,-1,4,-1,-1],"split_conditions":[-6.81E1,1.3956534E-2,6.644918E4,-1.5694743E-2,7.378465E-3],"split_indices":[42,0,10,0,0],"split_type":[0,0,0,0,0],"sum_hessian":[4.685911E1,1.0312824E1,3.6546288E1,1.8126862E1,1.8419426E1],"tree_param":{"num_deleted":"0","num_feature":"67","num_nodes":"5","size_leaf_vector":"1"}},{"base_weights":[5.111435E-4,1.7489573E-1,-1.3597079E-1,1.9490382E-2,-3.059613E-3,-2.5384272E-2,8.630463E-3],"categories":[],"categories_nodes":[],"categories_segments":[],"categories_sizes":[],"default_left":[0,0,0,0,0,0,0],"id":122,"left_children":[1,3,5,-1,-1,-1,-1],"loss_changes":[1.1636795E0,1.1129327E0,3.2338946E0,0E0,0E0,0E0,0E0],"parents":[2147483647,0,0,1,1,2,2],"right_children":[2,4,6,-1,-1,-1,-1],"split_conditions":[3E0,9.9342E-1,6.5192E-1,1.9490382E-2,-3.059613E-3,-2.5384272E-2,8.630463E-3],"split_indices":[6,27,21,0,0,0,0],"split_type":[0,0,0,0,0,0,0],"sum_hessian":[4.689421E1,2.0464727E1,2.6429482E1,1.0371969E1,1.0092758E1,1.1695676E1,1.4733807E1],"tree_param":{"num_deleted":"0","num_feature":"67","num_nodes":"7","size_leaf_vector":"1"}},{"base_weights":[4.7456377E-4,-1.03249615E-2,1.0690196E-1,2.1628922E-2,-4.4012805E-3],"categories":[],"categories_nodes":[],"categories_segments":[],"categories_sizes":[],"default_left":[0,0,0,0,0],"id":123,"left_children":[1,-1,3,-1,-1],"loss_changes":[1.0750674E0,0E0,2.0840592E0,0E0,0E0],"parents":[2147483647,0,0,2,2],"right_children":[2,-1,4,-1,-1],"split_conditions":[0E0,-1.03249615E-2,-2.5204346E1,2.1628922E-2,-4.4012805E-3],"split_indices":[50,0,42,0,0],"split_type":[0,0,0,0,0],"sum_hessian":[4.6803135E1,1.5574491E1,3.1228643E1,1.1236319E1,1.9992325E1],"tree_param":{"num_deleted":"0","num_feature":"67","num_nodes":"5","size_leaf_vector":"1"}},{"base_weights":[5.9873017E-4,1.2690394E-1,-8.544555E-3,2.1401092E-2,-3.8294864E-3],"categories":[],"categories_nodes":[],"categories_segments":[],"categories_sizes":[],"default_left":[0,0,0,0,0],"id":124,"left_children":[1,3,-1,-1,-1],"loss_changes":[1.0564027E0,1.7536051E0,0E0,0E0,0E0],"parents":[2147483647,0,0,1,1],"right_children":[2,4,-1,-1,-1],"split_conditions":[4.57592E3,-4.932E-2,-8.544555E-3,2.1401092E-2,-3.8294864E-3],"split_indices":[39,20,0,0,0],"split_type":[0,0,0,0,0],"sum_hessian":[4.6770695E1,2.7083338E1,1.9687355E1,1.047689E1,1.660645E1],"tree_param":{"num_deleted":"0","num_feature":"67","num_nodes":"5","size_leaf_vector":"1"}},{"base_weights":[7.7323365E-4,-1.0798097E-1,1.0306345E-2,7.928429E-3,-2.0050153E-2],"categories":[],"categories_nodes":[],"categories_segments":[],"categories_sizes":[],"default_left":[0,0,0,0,0],"id":125,"left_children":[1,3,-1,-1,-1],"loss_changes":[1.087051E0,2.5493917E0,0E0,0E0,0E0],"parents":[2147483647,0,0,1,1],"right_children":[2,4,-1,-1,-1],"split_conditions":[3.4599E-1,2.8357351E1,1.0306345E-2,7.928429E-3,-2.0050153E-2],"split_indices":[20,4,0,0,0],"split_type":[0,0,0,0,0],"sum_hessian":[4.6677864E1,3.0826492E1,1.5851374E1,1.6382704E1,1.4443788E1],"tree_param":{"num_deleted":"0","num_feature":"67","num_nodes":"5","size_leaf_vector":"1"}},{"base_weights":[6.918359E-4,-1.00116655E-1,1.14937965E-2,1.4423834E-2,-2.8017583E-1,2.436972E-3,-2.6757045E-2],"categories":[],"categories_nodes":[],"categories_segments":[],"categories_sizes":[],"default_left":[0,0,0,0,0,0,0],"id":126,"left_children":[1,3,-1,-1,5,-1,-1],"loss_changes":[1.1234562E0,2.4441683E0,0E0,0E0,2.0042868E0,0E0,0E0],"parents":[2147483647,0,0,1,1,4,4],"right_children":[2,4,-1,-1,6,-1,-1],"split_conditions":[3.872778E4,-2.2479E0,1.14937965E-2,1.4423834E-2,1.4643E-1,2.436972E-3,-2.6757045E-2],"split_indices":[35,29,0,0,22,0,0],"split_type":[0,0,0,0,0,0,0],"sum_hessian":[4.663054E1,3.277663E1,1.3853909E1,1.0187797E1,2.2588835E1,1.0217142E1,1.2371693E1],"tree_param":{"num_deleted":"0","num_feature":"67","num_nodes":"7","size_leaf_vector":"1"}},{"base_weights":[6.835679E-4,-8.994161E-2,1.2261627E-2,1.3524276E-1,-1.979211E-2,1.4608042E-2,-1.7722736E-3],"categories":[],"categories_nodes":[],"categories_segments":[],"categories_sizes":[],"default_left":[0,0,0,0,0,0,0],"id":127,"left_children":[1,3,-1,5,-1,-1,-1],"loss_changes":[1.0760493E0,2.4941478E0,0E0,5.769236E-1,0E0,0E0,0E0],"parents":[2147483647,0,0,1,1,3,3],"right_children":[2,4,-1,6,-1,-1,-1],"split_conditions":[1.8E1,2.79852E4,1.2261627E-2,2.0265E3,-1.979211E-2,1.4608042E-2,-1.7722736E-3],"split_indices":[5,37,0,39,0,0,0],"split_type":[0,0,0,0,0,0,0],"sum_hessian":[4.655792E1,3.443075E1,1.2127166E1,2.015317E1,1.4277584E1,1.0129342E1,1.00238285E1],"tree_param":{"num_deleted":"0","num_feature":"67","num_nodes":"7","size_leaf_vector":"1"}},{"base_weights":[7.6445466E-4,-8.0161154E-2,1.3797613E-2,1.0918111E-1,-2.3250915E-2,1.6527085E-2,-8.518353E-3],"categories":[],"categories_nodes":[],"categories_segments":[],"categories_sizes":[],"default_left":[0,0,0,0,0,0,0],"id":128,"left_children":[1,3,-1,5,-1,-1,-1],"loss_changes":[1.0796065E0,2.7811518E0,0E0,1.6604955E0,0E0,0E0,0E0],"parents":[2147483647,0,0,1,1,3,3],"right_children":[2,4,-1,6,-1,-1,-1],"split_conditions":[5.6E-1,1.85971E0,1.3797613E-2,4.57592E3,-2.3250915E-2,1.6527085E-2,-8.518353E-3],"split_indices":[59,27,0,39,0,0,0],"split_type":[0,0,0,0,0,0,0],"sum_hessian":[4.648533E1,3.6469345E1,1.00159855E1,2.4923681E1,1.1545662E1,1.3807656E1,1.1116025E1],"tree_param":{"num_deleted":"0","num_feature":"67","num_nodes":"7",