{"learner":{"attributes":{"scikit_learn":"{\"_estimator_type\": \"classifier\"}"},"feature_names":[],"feature_types":[],"gradient_booster":{"model":{"cats":{"enc":[],"feature_segments":[],"sorted_idx":[]},"gbtree_model_param":{"num_parallel_tree":"1","num_trees":"200"},"iteration_indptr":[0,1,2,3,4,5,6,7,8,9,10,11,12,13,14,15,16,17,18,19,20,21,22,23,24,25,26,27,28,29,30,31,32,33,34,35,36,37,38,39,40,41,42,43,44,45,46,47,48,49,50,51,52,53,54,55,56,57,58,59,60,61,62,63,64,65,66,67,68,69,70,71,72,73,74,75,76,77,78,79,80,81,82,83,84,85,86,87,88,89,90,91,92,93,94,95,96,97,98,99,100,101,102,103,104,105,106,107,108,109,110,111,112,113,114,115,116,117,118,119,120,121,122,123,124,125,126,127,128,129,130,131,132,133,134,135,136,137,138,139,140,141,142,143,144,145,146,147,148,149,150,151,152,153,154,155,156,157,158,159,160,161,162,163,164,165,166,167,168,169,170,171,172,173,174,175,176,177,178,179,180,181,182,183,184,185,186,187,188,189,190,191,192,193,194,195,196,197,198,199,200],"tree_info":[0,0,0,0,0,0,0,0,0,0,0,0,0,0,0,0,0,0,0,0,0,0,0,0,0,0,0,0,0,0,0,0,0,0,0,0,0,0,0,0,0,0,0,0,0,0,0,0,0,0,0,0,0,0,0,0,0,0,0,0,0,0,0,0,0,0,0,0,0,0,0,0,0,0,0,0,0,0,0,0,0,0,0,0,0,0,0,0,0,0,0,0,0,0,0,0,0,0,0,0,0,0,0,0,0,0,0,0,0,0,0,0,0,0,0,0,0,0,0,0,0,0,0,0,0,0,0,0,0,0,0,0,0,0,0,0,0,0,0,0,0,0,0,0,0,0,0,0,0,0,0,0,0,0,0,0,0,0,0,0,0,0,0,0,0,0,0,0,0,0,0,0,0,0,0,0,0,0,0,0,0,0,0,0,0,0,0,0,0,0,0,0,0,0,0,0,0,0,0,0],"trees":[{"base_weights":[8.638354E-9,-8.4731483E-1,9.2455E-1,-7.168981E-2,-1.0237849E-2,7.5682E-2,1.6785208E-2],"categories":[],"categories_nodes":[],"categories_segments":[],"categories_sizes":[],"default_left":[0,0,0,0,0,0,0],"id":0,"left_children":[1,3,5,-1,-1,-1,-1],"loss_changes":[5.4836945E1,1.3471041E1,1.110355E1,0E0,0E0,0E0,0E0],"parents":[2147483647,0,0,1,1,2,2],"right_children":[2,4,6,-1,-1,-1,-1],"split_conditions":[-1.130436E1,-6.12245E1,5.2E-1,-7.168981E-2,-1.0237849E-2,7.5682E-2,1.6785208E-2],"split_indices":[60,60,61,0,0,0,0],"split_type":[0,0,0,0,0,0,0],"sum_hessian":[6.8E1,3.5525642E1,3.2474358E1,1.7929487E1,1.7596153E1,1.5448718E1,1.702564E1],"tree_param":{"num_deleted":"0","num_feature":"67","num_nodes":"7","size_leaf_vector":"1"}},{"base_weights":[1.5305274E-4,-8.077264E-1,8.8171536E-1,-6.837927E-2,-9.753732E-3,7.222669E-2,1.5993586E-2],"categories":[],"categories_nodes":[],"categories_segments":[],"categories_sizes":[],"default_left":[0,0,0,0,0,0,0],"id":1,"left_children":[1,3,5,-1,-1,-1,-1],"loss_changes":[4.9820393E1,1.225341E1,1.0115696E1,0E0,0E0,0E0,0E0],"parents":[2147483647,0,0,1,1,2,2],"right_children":[2,4,6,-1,-1,-1,-1],"split_conditions":[-1.130436E1,-6.12245E1,5.2E-1,-6.837927E-2,-9.753732E-3,7.222669E-2,1.5993586E-2],"split_indices":[60,60,61,0,0,0,0],"split_type":[0,0,0,0,0,0,0],"sum_hessian":[6.7953224E1,3.5502163E1,3.245106E1,1.790647E1,1.7595692E1,1.5426618E1,1.7024443E1],"tree_param":{"num_deleted":"0","num_feature":"67","num_nodes":"7","size_leaf_vector":"1"}},{"base_weights":[2.9287516E-4,-7.709273E-1,8.4197503E-1,-6.536985E-2,-9.292933E-3,6.9102466E-2,1.5241193E-2],"categories":[],"categories_nodes":[],"categories_segments":[],"categories_sizes":[],"default_left":[0,0,0,0,0,0,0],"id":2,"left_children":[1,3,5,-1,-1,-1,-1],"loss_changes":[4.5322887E1,1.1193306E1,9.263931E0,0E0,0E0,0E0,0E0],"parents":[2147483647,0,0,1,1,2,2],"right_children":[2,4,6,-1,-1,-1,-1],"split_conditions":[-1.130436E1,-6.12245E1,5.2E-1,-6.536985E-2,-9.292933E-3,6.9102466E-2,1.5241193E-2],"split_indices":[60,60,61,0,0,0,0],"split_type":[0,0,0,0,0,0,0],"sum_hessian":[6.782183E1,3.543623E1,3.23856E1,1.7841833E1,1.7594397E1,1.5364532E1,1.7021069E1],"tree_param":{"num_deleted":"0","num_feature":"67","num_nodes":"7","size_leaf_vector":"1"}},{"base_weights":[4.2125853E-4,-7.365811E-1,8.0494493E-1,-6.261598E-2,-8.85426E-3,6.625785E-2,1.4525746E-2],"categories":[],"categories_nodes":[],"categories_segments":[],"categories_sizes":[],"default_left":[0,0,0,0,0,0,0],"id":3,"left_children":[1,3,5,-1,-1,-1,-1],"loss_changes":[4.1279034E1,1.0262543E1,8.5222645E0,0E0,0E0,0E0,0E0],"parents":[2147483647,0,0,1,1,2,2],"right_children":[2,4,6,-1,-1,-1,-1],"split_conditions":[-1.130436E1,-6.12245E1,5.2E-1,-6.261598E-2,-8.85426E-3,6.625785E-2,1.4525746E-2],"split_indices":[60,60,61,0,0,0,0],"split_type":[0,0,0,0,0,0,0],"sum_hessian":[6.7618095E1,3.5334015E1,3.228408E1,1.774163E1,1.7592382E1,1.526825E1,1.701583E1],"tree_param":{"num_deleted":"0","num_feature":"67","num_nodes":"7","size_leaf_vector":"1"}},{"base_weights":[5.395648E-4,-7.044059E-1,7.703047E-1,-6.0080685E-2,-8.436578E-3,6.365123E-2,1.384516E-2],"categories":[],"categories_nodes":[],"categories_segments":[],"categories_sizes":[],"default_left":[0,0,0,0,0,0,0],"id":4,"left_children":[1,3,5,-1,-1,-1,-1],"loss_changes":[3.763379E1,9.439074E0,7.8705883E0,0E0,0E0,0E0,0E0],"parents":[2147483647,0,0,1,1,2,2],"right_children":[2,4,6,-1,-1,-1,-1],"split_conditions":[-1.130436E1,-6.12245E1,5.2E-1,-6.0080685E-2,-8.436578E-3,6.365123E-2,1.384516E-2],"split_indices":[60,60,61,0,0,0,0],"split_type":[0,0,0,0,0,0,0],"sum_hessian":[6.7352905E1,3.520099E1,3.2151913E1,1.7611233E1,1.7589758E1,1.514291E1,1.7009E1],"tree_param":{"num_deleted":"0","num_feature":"67","num_nodes":"7","size_leaf_vector":"1"}},{"base_weights":[6.487982E-4,-6.7416465E-1,7.3778474E-1,-1.0352482E0,2.260633E-3,5.785815E-2,9.524049E-3,-2.2983935E-2,-7.265092E-2],"categories":[],"categories_nodes":[],"categories_segments":[],"categories_sizes":[],"default_left":[0,0,0,0,0,0,0,0,0],"id":5,"left_children":[1,3,5,7,-1,-1,-1,-1,-1],"loss_changes":[3.4340427E1,9.408907E0,7.352579E0,5.1123543E0,0E0,0E0,0E0,0E0,0E0],"parents":[2147483647,0,0,1,1,2,2,3,3],"right_children":[2,4,6,8,-1,-1,-1,-1,-1],"split_conditions":[-1.130436E1,1.06253E0,6.7E-1,2.635117E4,2.260633E-3,5.785815E-2,9.524049E-3,-2.2983935E-2,-7.265092E-2],"split_indices":[60,21,61,37,0,0,0,0,0],"split_type":[0,0,0,0,0,0,0,0,0],"sum_hessian":[6.703589E1,3.5042004E1,3.1993885E1,2.3038828E1,1.2003175E1,1.7483013E1,1.4510872E1,1.0572803E1,1.2466025E1],"tree_param":{"num_deleted":"0","num_feature":"67","num_nodes":"9","size_leaf_vector":"1"}},{"base_weights":[2.538745E-4,-5.6591686E-2,4.128248E-1,6.9978243E-1,-2.7385855E-2,9.273573E-3,9.3237644E-1,6.441619E-2,1.5272781E-2],"categories":[],"categories_nodes":[],"categories_segments":[],"categories_sizes":[],"default_left":[0,0,0,0,0,0,0,0,0],"id":6,"left_children":[1,-1,3,5,-1,-1,7,-1,-1],"loss_changes":[3.2108856E1,0E0,1.4270781E1,4.5203648E0,0E0,0E0,5.5796013E0,0E0,0E0],"parents":[2147483647,0,0,2,2,3,3,6,6],"right_children":[2,-1,4,6,-1,-1,8,-1,-1],"split_conditions":[-6.12245E1,-5.6591686E-2,5.0857145E-1,1.0814363E2,-2.7385855E-2,9.273573E-3,2.8354403E1,6.441619E-2,1.5272781E-2],"split_indices":[60,0,16,44,0,0,4,0,0],"split_type":[0,0,0,0,0,0,0,0,0],"sum_hessian":[6.6745415E1,1.7361736E1,4.9383675E1,3.823316E1,1.1150516E1,1.2465936E1,2.5767223E1,1.5762651E1,1.0004573E1],"tree_param":{"num_deleted":"0","num_feature":"67","num_nodes":"9","size_leaf_vector":"1"}},{"base_weights":[2.998605E-4,-5.448378E-2,3.946294E-1,6.696207E-1,-2.6133766E-2,8.849976E-3,8.934087E-1,6.1380994E-2,1.7000057E-2],"categories":[],"categories_nodes":[],"categories_segments":[],"categories_sizes":[],"default_left":[0,0,0,0,0,0,0,0,0],"id":7,"left_children":[1,-1,3,5,-1,-1,7,-1,-1],"loss_changes":[2.9404726E1,0E0,1.3022501E1,4.1511726E0,0E0,0E0,4.508276E0,0E0,0E0],"parents":[2147483647,0,0,2,2,3,3,6,6],"right_children":[2,-1,4,6,-1,-1,8,-1,-1],"split_conditions":[-6.12245E1,-5.448378E-2,5.0857145E-1,1.0814363E2,-2.6133766E-2,8.849976E-3,2.8354254E1,6.1380994E-2,1.7000057E-2],"split_indices":[60,0,16,44,0,0,4,0,0],"split_type":[0,0,0,0,0,0,0,0,0],"sum_hessian":[6.641291E1,1.7175194E1,4.9237717E1,3.808926E1,1.1148458E1,1.2457555E1,2.5631704E1,1.5221138E1,1.0410566E1],"tree_param":{"num_deleted":"0","num_feature":"67","num_nodes":"9","size_leaf_vector":"1"}},{"base_weights":[3.6916975E-4,-6.0944325E-1,6.666286E-1,-9.5736486E-1,3.8382676E-3,5.632926E-2,1.1540763E-2,-1.9969067E-2,-6.831398E-2],"categories":[],"categories_nodes":[],"categories_segments":[],"categories_sizes":[],"default_left":[0,0,0,0,0,0,0,0,0],"id":8,"left_children":[1,3,5,7,-1,-1,-1,-1,-1],"loss_changes":[2.7644915E1,8.555239E0,6.2579117E0,4.8500423E0,0E0,0E0,0E0,0E0,0E0],"parents":[2147483647,0,0,1,1,2,2,3,3],"right_children":[2,4,6,8,-1,-1,-1,-1,-1],"split_conditions":[-1.130436E1,1.06253E0,5.2E-1,2.635117E4,3.8382676E-3,5.632926E-2,1.1540763E-2,-1.9969067E-2,-6.831398E-2],"split_indices":[60,21,61,37,0,0,0,0,0],"split_type":[0,0,0,0,0,0,0,0,0],"sum_hessian":[6.604183E1,3.452612E1,3.151571E1,2.2647984E1,1.1878137E1,1.4561993E1,1.6953718E1,1.0414115E1,1.2233868E1],"tree_param":{"num_deleted":"0","num_feature":"67","num_nodes":"9","size_leaf_vector":"1"}},{"base_weights":[1.2028291E-4,-5.157582E-2,3.6985016E-1,6.294189E-1,-2.4458833E-2,3.9986265E-1,5.7287812E-2,3.7765395E-2,-1.0574777E-2],"categories":[],"categories_nodes":[],"categories_segments":[],"categories_sizes":[],"default_left":[0,0,0,0,0,0,0,0,0],"id":9,"left_children":[1,-1,3,5,-1,7,-1,-1,-1],"loss_changes":[2.581098E1,0E0,1.1415624E1,4.1281166E0,0E0,6.3140535E0,0E0,0E0,0E0],"parents":[2147483647,0,0,2,2,3,3,5,5],"right_children":[2,-1,4,6,-1,8,-1,-1,-1],"split_conditions":[-6.12245E1,-5.157582E-2,5.0857145E-1,3.7638E-1,-2.4458833E-2,3E0,5.7287812E-2,3.7765395E-2,-1.0574777E-2],"split_indices":[60,0,16,20,0,6,0,0,0],"split_type":[0,0,0,0,0,0,0,0,0],"sum_hessian":[6.566931E1,1.6853634E1,4.8815678E1,3.7693325E1,1.1122354E1,2.7321152E1,1.0372174E1,1.7127638E1,1.0193514E1],"tree_param":{"num_deleted":"0","num_feature":"67","num_nodes":"9","size_leaf_vector":"1"}},{"base_weights":[2.1720113E-4,-5.700414E-1,6.23833E-1,-9.0401477E-1,4.137582E-3,6.0590575E-3,4.939251E-2,-1.8232185E-2,-6.515708E-2],"categories":[],"categories_nodes":[],"categories_segments":[],"categories_sizes":[],"default_left":[0,0,0,0,0,0,0,0,0],"id":10,"left_children":[1,3,5,7,-1,-1,-1,-1,-1],"loss_changes":[2.3919197E1,7.7344055E0,5.7586727E0,4.546417E0,0E0,0E0,0E0,0E0,0E0],"parents":[2147483647,0,0,1,1,2,2,3,3],"right_children":[2,4,6,8,-1,-1,-1,-1,-1],"split_conditions":[-1.130436E1,1.06253E0,1.66458E0,2.635117E4,4.137582E-3,6.0590575E-3,4.939251E-2,-1.8232185E-2,-6.515708E-2],"split_indices":[60,21,28,37,0,0,0,0,0],"split_type":[0,0,0,0,0,0,0,0,0],"sum_hessian":[6.5260155E1,3.413327E1,3.1126883E1,2.2326195E1,1.1807074E1,1.3633714E1,1.7493168E1,1.03087635E1,1.2017432E1],"tree_param":{"num_deleted":"0","num_feature":"67","num_nodes":"9","size_leaf_vector":"1"}},{"base_weights":[-1.7625571E-4,-4.8950262E-2,3.4658942E-1,5.9396154E-1,-2.3338407E-2,3.7340593E-1,5.4543804E-2,3.569482E-2,-1.0315922E-2],"categories":[],"categories_nodes":[],"categories_segments":[],"categories_sizes":[],"default_left":[0,0,0,0,0,0,0,0,0],"id":11,"left_children":[1,-1,3,5,-1,7,-1,-1,-1],"loss_changes":[2.2711899E1,0E0,1.0218519E1,3.793167E0,0E0,5.687109E0,0E0,0E0,0E0],"parents":[2147483647,0,0,2,2,3,3,5,5],"right_children":[2,-1,4,6,-1,8,-1,-1,-1],"split_conditions":[-6.12245E1,-4.8950262E-2,5.0857145E-1,3.7638E-1,-2.3338407E-2,3E0,5.4543804E-2,3.569482E-2,-1.0315922E-2],"split_indices":[60,0,16,20,0,6,0,0,0],"split_type":[0,0,0,0,0,0,0,0,0],"sum_hessian":[6.491333E1,1.6503895E1,4.840944E1,3.7326736E1,1.1082702E1,2.7065262E1,1.0261474E1,1.6904987E1,1.0160275E1],"tree_param":{"num_deleted":"0","num_feature":"67","num_nodes":"9","size_leaf_vector":"1"}},{"base_weights":[-7.347969E-5,-4.728518E-2,3.3191812E-1,5.694268E-1,-2.2292687E-2,4.8659467E-3,7.8844416E-1,5.6580015E-2,1.43989995E-2],"categories":[],"categories_nodes":[],"categories_segments":[],"categories_sizes":[],"default_left":[0,0,0,0,0,0,0,0,0],"id":12,"left_children":[1,-1,3,5,-1,-1,7,-1,-1],"loss_changes":[2.0867271E1,0E0,9.341902E0,3.8656178E0,0E0,0E0,4.1227894E0,0E0,0E0],"parents":[2147483647,0,0,2,2,3,3,6,6],"right_children":[2,-1,4,6,-1,-1,8,-1,-1],"split_conditions":[-6.12245E1,-4.728518E-2,5.0857145E-1,1.0814363E2,-2.2292687E-2,4.8659467E-3,2.814911E4,5.6580015E-2,1.43989995E-2],"split_indices":[60,0,16,44,0,0,35,0,0],"split_type":[0,0,0,0,0,0,0,0,0],"sum_hessian":[6.446885E1,1.6271955E1,4.8196896E1,3.7127213E1,1.1069685E1,1.2223315E1,2.4903896E1,1.4025707E1,1.087819E1],"tree_param":{"num_deleted":"0","num_feature":"67","num_nodes":"9","size_leaf_vector":"1"}},{"base_weights":[6.9763473E-6,-5.2112514E-1,5.6780106E-1,-8.446692E-1,5.164144E-3,4.0679197E-3,4.62084E-2,-1.5931612E-2,-6.1950352E-2],"categories":[],"categories_nodes":[],"categories_segments":[],"categories_sizes":[],"default_left":[0,0,0,0,0,0,0,0,0],"id":13,"left_children":[1,3,5,7,-1,-1,-1,-1,-1],"loss_changes":[1.9538372E1,7.0429926E0,5.4028883E0,4.332262E0,0E0,0E0,0E0,0E0,0E0],"parents":[2147483647,0,0,1,1,2,2,3,3],"right_children":[2,4,6,8,-1,-1,-1,-1,-1],"split_conditions":[-1.130436E1,1.06253E0,1.66458E0,2.635117E4,5.164144E-3,4.0679197E-3,4.62084E-2,-1.5931612E-2,-6.1950352E-2],"split_indices":[60,21,28,37,0,0,0,0,0],"split_type":[0,0,0,0,0,0,0,0,0],"sum_hessian":[6.403127E1,3.343041E1,3.0600864E1,2.1787971E1,1.1642435E1,1.3458391E1,1.7142473E1,1.0109785E1,1.1678187E1],"tree_param":{"num_deleted":"0","num_feature":"67","num_nodes":"9","size_leaf_vector":"1"}},{"base_weights":[-3.6680792E-4,-4.500647E-2,3.1146115E-1,5.512118E-1,-2.0408107E-2,5.065003E-2,6.721896E-3],"categories":[],"categories_nodes":[],"categories_segments":[],"categories_sizes":[],"default_left":[0,0,0,0,0,0,0],"id":14,"left_children":[1,-1,3,5,-1,-1,-1],"loss_changes":[1.8420206E1,0E0,8.636927E0,6.984397E0,0E0,0E0,0E0],"parents":[2147483647,0,0,2,2,3,3],"right_children":[2,-1,4,6,-1,-1,-1],"split_conditions":[-6.12245E1,-4.500647E-2,1.20007E0,6.7E-1,-2.0408107E-2,5.065003E-2,6.721896E-3],"split_indices":[60,0,29,61,0,0,0],"split_type":[0,0,0,0,0,0,0],"sum_hessian":[6.3653313E1,1.5896939E1,4.775637E1,3.5997444E1,1.1758926E1,1.639788E1,1.9599566E1],"tree_param":{"num_deleted":"0","num_feature":"67","num_nodes":"7","size_leaf_vector":"1"}},{"base_weights":[-4.7398912E-4,-4.3528233E-2,2.9801223E-1,5.1065344E-1,-2.3266584E-2,2.3170586E-3,7.2881037E-1,5.3265523E-2,1.35592325E-2],"categories":[],"categories_nodes":[],"categories_segments":[],"categories_sizes":[],"default_left":[0,0,0,0,0,0,0,0,0],"id":15,"left_children":[1,-1,3,5,-1,-1,7,-1,-1],"loss_changes":[1.6934544E1,0E0,8.118421E0,3.860958E0,0E0,0E0,3.728942E0,0E0,0E0],"parents":[2147483647,0,0,2,2,3,3,6,6],"right_children":[2,-1,4,6,-1,-1,8,-1,-1],"split_conditions":[-6.12245E1,-4.3528233E-2,5.443709E-1,1.0814363E2,-2.3266584E-2,2.3170586E-3,2.814911E4,5.3265523E-2,1.35592325E-2],"split_indices":[60,0,16,44,0,0,35,0,0],"split_type":[0,0,0,0,0,0,0,0,0],"sum_hessian":[6.3206615E1,1.5655133E1,4.7551483E1,3.7450188E1,1.0101295E1,1.2358823E1,2.5091366E1,1.3694012E1,1.1397354E1],"tree_param":{"num_deleted":"0","num_feature":"67","num_nodes":"9","size_leaf_vector":"1"}},{"base_weights":[-4.2855207E-4,-4.7602937E-1,5.1570886E-1,-7.919924E-1,6.262269E-3,4.0047117E-2,-3.4084585E-3,-1.481157E-2,-5.905449E-2],"categories":[],"categories_nodes":[],"categories_segments":[],"categories_sizes":[],"default_left":[0,0,0,0,0,0,0,0,0],"id":16,"left_children":[1,3,5,7,-1,-1,-1,-1,-1],"loss_changes":[1.5893871E1,6.5008636E0,5.2258472E0,3.9374056E0,0E0,0E0,0E0,0E0,0E0],"parents":[2147483647,0,0,1,1,2,2,3,3],"right_children":[2,4,6,8,-1,-1,-1,-1,-1],"split_conditions":[-1.130436E1,1.06253E0,2E-2,2.634519E4,6.262269E-3,4.0047117E-2,-3.4084585E-3,-1.481157E-2,-5.905449E-2],"split_indices":[60,21,41,36,0,0,0,0,0],"split_type":[0,0,0,0,0,0,0,0,0],"sum_hessian":[6.2747242E1,3.2696438E1,3.0050804E1,2.1225492E1,1.1470946E1,1.9938686E1,1.0112119E1,1.0107958E1,1.1117535E1],"tree_param":{"num_deleted":"0","num_feature":"67","num_nodes":"9","size_leaf_vector":"1"}},{"base_weights":[-9.170568E-4,-4.1524198E-2,2.8010562E-1,5.080229E-1,-1.9815607E-2,4.7339823E-2,6.0784463E-3],"categories":[],"categories_nodes":[],"categories_segments":[],"categories_sizes":[],"default_left":[0,0,0,0,0,0,0],"id":17,"left_children":[1,-1,3,5,-1,-1,-1],"loss_changes":[1.4995529E1,0E0,7.6089973E0,6.0533524E0,0E0,0E0,0E0],"parents":[2147483647,0,0,2,2,3,3],"right_children":[2,-1,4,6,-1,-1,-1],"split_conditions":[-6.12245E1,-4.1524198E-2,1.20007E0,6.7E-1,-1.9815607E-2,4.7339823E-2,6.0784463E-3],"split_indices":[60,0,29,61,0,0,0],"split_type":[0,0,0,0,0,0,0],"sum_hessian":[6.2325558E1,1.527606E1,4.7049496E1,3.537794E1,1.1671557E1,1.5888471E1,1.948947E1],"tree_param":{"num_deleted":"0","num_feature":"67","num_nodes":"7","size_leaf_vector":"1"}},{"base_weights":[-9.97075E-4,-4.0189695E-2,2.6812798E-1,4.8731008E-1,-1.8885158E-2,4.5739148E-2,5.790538E-3],"categories":[],"categories_nodes":[],"categories_segments":[],"categories_sizes":[],"default_left":[0,0,0,0,0,0,0],"id":18,"left_children":[1,-1,3,5,-1,-1,-1],"loss_changes":[1.3797728E1,0E0,6.9548554E0,5.6346445E0,0E0,0E0,0E0],"parents":[2147483647,0,0,2,2,3,3],"right_children":[2,-1,4,6,-1,-1,-1],"split_conditions":[-6.12245E1,-4.0189695E-2,1.20007E0,6.7E-1,-1.8885158E-2,4.5739148E-2,5.790538E-3],"split_indices":[60,0,29,61,0,0,0],"split_type":[0,0,0,0,0,0,0],"sum_hessian":[6.186526E1,1.5033581E1,4.683168E1,3.5148453E1,1.1683228E1,1.5663053E1,1.9485401E1],"tree_param":{"num_deleted":"0","num_feature":"67","num_nodes":"7","size_leaf_vector":"1"}},{"base_weights":[-1.0677692E-3,-4.349834E-1,4.6861604E-1,-7.421821E-1,7.0759966E-3,7.9415424E-4,4.0516544E-2,-1.4148565E-2,-5.607272E-2],"categories":[],"categories_nodes":[],"categories_segments":[],"categories_sizes":[],"default_left":[0,0,0,0,0,0,0,0,0],"id":19,"left_children":[1,3,5,7,-1,-1,-1,-1,-1],"loss_changes":[1.2921301E1,5.941221E0,4.697405E0,3.4548244E0,0E0,0E0,0E0,0E0,0E0],"parents":[2147483647,0,0,1,1,2,2,3,3],"right_children":[2,4,6,8,-1,-1,-1,-1,-1],"split_conditions":[-1.130436E1,1.06253E0,1.66458E0,2.65092E4,7.0759966E-3,7.9415424E-4,4.0516544E-2,-1.4148565E-2,-5.607272E-2],"split_indices":[60,21,28,36,0,0,0,0,0],"split_type":[0,0,0,0,0,0,0,0,0],"sum_hessian":[6.140071E1,3.1954002E1,2.9446707E1,2.0658447E1,1.1295555E1,1.3115996E1,1.633071E1,1.0134278E1,1.0524169E1],"tree_param":{"num_deleted":"0","num_feature":"67","num_nodes":"9","size_leaf_vector":"1"}},{"base_weights":[-1.3997465E-3,-3.8383704E-2,2.520527E-1,4.489213E-1,-2.195063E-2,-3.5809996E-4,6.532617E-1,4.7032546E-2,1.7092124E-2],"categories":[],"categories_nodes":[],"categories_segments":[],"categories_sizes":[],"default_left":[0,0,0,0,0,0,0,0,0],"id":20,"left_children":[1,-1,3,5,-1,-1,7,-1,-1],"loss_changes":[1.2236148E1,0E0,6.6387477E0,3.4850664E0,0E0,0E0,1.9875793E0,0E0,0E0],"parents":[2147483647,0,0,2,2,3,3,6,6],"right_children":[2,-1,4,6,-1,-1,8,-1,-1],"split_conditions":[-6.12245E1,-3.8383704E-2,5.443709E-1,-2.475E-1,-2.195063E-2,-3.5809996E-4,1E0,4.7032546E-2,1.7092124E-2],"split_indices":[60,0,16,17,0,0,55,0,0],"split_type":[0,0,0,0,0,0,0,0,0],"sum_hessian":[6.1007107E1,1.4659003E1,4.6348103E1,3.634472E1,1.0003383E1,1.1543912E1,2.4800808E1,1.1847221E1,1.2953587E1],"tree_param":{"num_deleted":"0","num_feature":"67","num_nodes":"9","size_leaf_vector":"1"}},{"base_weights":[-1.2989743E-3,-3.716382E-2,2.4146014E-1,4.4824636E-1,-1.800349E-2,4.1997936E-2,3.7602463E-3],"categories":[],"categories_nodes":[],"categories_segments":[],"categories_sizes":[],"default_left":[0,0,0,0,0,0,0],"id":21,"left_children":[1,-1,3,5,-1,-1,-1],"loss_changes":[1.1268499E1,0E0,6.025298E0,5.12827E0,0E0,0E0,0E0],"parents":[2147483647,0,0,2,2,3,3],"right_children":[2,-1,4,6,-1,-1,-1],"split_conditions":[-6.12245E1,-3.716382E-2,1.20007E0,3E0,-1.800349E-2,4.1997936E-2,3.7602463E-3],"split_indices":[60,0,29,6,0,0,0],"split_type":[0,0,0,0,0,0,0],"sum_hessian":[6.0564053E1,1.4422089E1,4.6141964E1,3.45274E1,1.1614562E1,1.6231674E1,1.8295727E1],"tree_param":{"num_deleted":"0","num_feature":"67","num_nodes":"7","size_leaf_vector":"1"}},{"base_weights":[-1.3940127E-3,-3.9635968E-1,4.241324E-1,7.483613E-5,-4.124873E-2,4.2431742E-2,3.7615323E-3],"categories":[],"categories_nodes":[],"categories_segments":[],"categories_sizes":[],"default_left":[0,0,0,0,0,0,0],"id":22,"left_children":[1,3,5,-1,-1,-1,-1],"loss_changes":[1.0440471E1,5.4948134E0,4.365359E0,0E0,0E0,0E0,0E0],"parents":[2147483647,0,0,1,1,2,2],"right_children":[2,4,6,-1,-1,-1,-1],"split_conditions":[-1.130436E1,2.767635E4,5.2E-1,7.483613E-5,-4.124873E-2,4.2431742E-2,3.7615323E-3],"split_indices":[60,36,61,0,0,0,0],"split_type":[0,0,0,0,0,0,0],"sum_hessian":[6.0120148E1,3.1215265E1,2.8904882E1,1.6705294E1,1.4509972E1,1.239356E1,1.6511322E1],"tree_param":{"num_deleted":"0","num_feature":"67","num_nodes":"7","size_leaf_vector":"1"}},{"base_weights":[-1.2294098E-3,-3.5418015E-2,2.2713283E-1,4.19947E-1,-1.8757029E-2,-2.995371E-4,6.2721604E-1,4.794542E-2,8.159645E-3],"categories":[],"categories_nodes":[],"categories_segments":[],"categories_sizes":[],"default_left":[0,0,0,0,0,0,0,0,0],"id":23,"left_children":[1,-1,3,5,-1,-1,7,-1,-1],"loss_changes":[9.964083E0,0E0,5.5743413E0,3.1648011E0,0E0,0E0,3.5519953E0,0E0,0E0],"parents":[2147483647,0,0,2,2,3,3,6,6],"right_children":[2,-1,4,6,-1,-1,8,-1,-1],"split_conditions":[-6.12245E1,-3.5418015E-2,5.0857145E-1,1.0814363E2,-1.8757029E-2,-2.995371E-4,2.814911E4,4.794542E-2,8.159645E-3],"split_indices":[60,0,16,44,0,0,35,0,0],"split_type":[0,0,0,0,0,0,0,0,0],"sum_hessian":[5.9707638E1,1.4062072E1,4.5645565E1,3.480552E1,1.0840045E1,1.1710843E1,2.3094677E1,1.2845771E1,1.0248906E1],"tree_param":{"num_deleted":"0","num_feature":"67","num_nodes":"9","size_leaf_vector":"1"}},{"base_weights":[-1.1447358E-3,-3.429603E-2,2.1770084E-1,4.1565427E-1,-1.758393E-2,3.9439227E-2,3.4660026E-3],"categories":[],"categories_nodes":[],"categories_segments":[],"categories_sizes":[],"default_left":[0,0,0,0,0,0,0],"id":24,"left_children":[1,-1,3,5,-1,-1,-1],"loss_changes":[9.179561E0,0E0,5.37856E0,4.456072E0,0E0,0E0,0E0],"parents":[2147483647,0,0,2,2,3,3],"right_children":[2,-1,4,6,-1,-1,-1],"split_conditions":[-6.12245E1,-3.429603E-2,1.20007E0,3E0,-1.758393E-2,3.9439227E-2,3.4660026E-3],"split_indices":[60,0,29,6,0,0,0],"split_type":[0,0,0,0,0,0,0],"sum_hessian":[5.9257748E1,1.38345785E1,4.542317E1,3.3905422E1,1.1517747E1,1.5706345E1,1.8199078E1],"tree_param":{"num_deleted":"0","num_feature":"67","num_nodes":"7","size_leaf_vector":"1"}},{"base_weights":[-1.2392733E-3,-3.6320108E-1,3.879179E-1,-3.3381205E-2,9.768648E-3,-2.3016315E-3,3.6283016E-2],"categories":[],"categories_nodes":[],"categories_segments":[],"categories_sizes":[],"default_left":[0,0,0,0,0,0,0],"id":25,"left_children":[1,3,5,-1,-1,-1,-1],"loss_changes":[8.567962E0,5.4888926E0,4.3296814E0,0E0,0E0,0E0,0E0],"parents":[2147483647,0,0,1,1,2,2],"right_children":[2,4,6,-1,-1,-1,-1],"split_conditions":[-1.130436E1,1.06253E0,1.66458E0,-3.3381205E-2,9.768648E-3,-2.3016315E-3,3.6283016E-2],"split_indices":[60,21,28,0,0,0,0],"split_type":[0,0,0,0,0,0,0],"sum_hessian":[5.8825836E1,3.0512413E1,2.8313423E1,1.962277E1,1.0889643E1,1.2769786E1,1.5543637E1],"tree_param":{"num_deleted":"0","num_feature":"67","num_nodes":"7","size_leaf_vector":"1"}},{"base_weights":[-1.0116728E-3,-3.2686807E-2,2.0460543E-1,3.8680923E-1,-1.7885618E-2,1.4772587E-1,3.7918057E-2,-1.1387772E-2,2.6375776E-2],"categories":[],"categories_nodes":[],"categories_segments":[],"categories_sizes":[],"default_left":[0,0,0,0,0,0,0,0,0],"id":26,"left_children":[1,-1,3,5,-1,7,-1,-1,-1],"loss_changes":[8.114548E0,0E0,4.8494368E0,3.0156407E0,0E0,3.352317E0,0E0,0E0,0E0],"parents":[2147483647,0,0,2,2,3,3,5,5],"right_children":[2,-1,4,6,-1,8,-1,-1,-1],"split_conditions":[-6.12245E1,-3.2686807E-2,5.0857145E-1,5.31E-2,-1.7885618E-2,1.8004514E2,3.7918057E-2,-1.1387772E-2,2.6375776E-2],"split_indices":[60,0,16,20,0,44,0,0,0],"split_type":[0,0,0,0,0,0,0,0,0],"sum_hessian":[5.846436E1,1.3483156E1,4.4981205E1,3.4208866E1,1.0772338E1,2.1665384E1,1.2543483E1,1.1095784E1,1.05696E1],"tree_param":{"num_deleted":"0","num_feature":"67","num_nodes":"9","size_leaf_vector":"1"}},{"base_weights":[-9.326325E-4,-3.42249E-1,3.6473152E-1,2.156657E-3,-3.8215186E-2,-8.791405E-4,3.764334E-2],"categories":[],"categories_nodes":[],"categories_segments":[],"categories_sizes":[],"default_left":[0,0,0,0,0,0,0],"id":27,"left_children":[1,3,5,-1,-1,-1,-1],"loss_changes":[7.496071E0,5.0855055E0,4.316183E0,0E0,0E0,0E0,0E0],"parents":[2147483647,0,0,1,1,2,2],"right_children":[2,4,6,-1,-1,-1,-1],"split_conditions":[-1.130436E1,2.767635E4,2E0,2.156657E-3,-3.8215186E-2,-8.791405E-4,3.764334E-2],"split_indices":[60,36,56,0,0,0,0],"split_type":[0,0,0,0,0,0,0],"sum_hessian":[5.8061043E1,3.0063427E1,2.7997616E1,1.618372E1,1.3879707E1,1.4585527E1,1.3412088E1],"tree_param":{"num_deleted":"0","num_feature":"67","num_nodes":"7","size_leaf_vector":"1"}},{"base_weights":[-8.817706E-4,-3.1164443E-2,1.9243197E-1,3.8019484E-1,-1.7046435E-2,3.715018E-2,2.557213E-3],"categories":[],"categories_nodes":[],"categories_segments":[],"categories_sizes":[],"default_left":[0,0,0,0,0,0,0],"id":28,"left_children":[1,-1,3,5,-1,-1,-1],"loss_changes":[7.1868944E0,0E0,4.6942005E0,4.043034E0,0E0,0E0,0E0],"parents":[2147483647,0,0,2,2,3,3],"right_children":[2,-1,4,6,-1,-1,-1],"split_conditions":[-6.12245E1,-3.1164443E-2,1.20007E0,3E0,-1.7046435E-2,3.715018E-2,2.557213E-3],"split_indices":[60,0,29,6,0,0,0],"split_type":[0,0,0,0,0,0,0],"sum_hessian":[5.7734737E1,1.3155166E1,4.457957E1,3.3184544E1,1.1395028E1,1.5184358E1,1.8000185E1],"tree_param":{"num_deleted":"0","num_feature":"67","num_nodes":"7","size_leaf_vector":"1"}},{"base_weights":[-9.790697E-4,-3.016881E-2,1.8421488E-1,3.6467516E-1,-1.6257284E-2,3.716932E-2,3.2216099E-3],"categories":[],"categories_nodes":[],"categories_segments":[],"categories_sizes":[],"default_left":[0,0,0,0,0,0,0],"id":29,"left_children":[1,-1,3,5,-1,-1,-1],"loss_changes":[6.6177955E0,0E0,4.289489E0,3.8154302E0,0E0,0E0,0E0],"parents":[2147483647,0,0,2,2,3,3],"right_children":[2,-1,4,6,-1,-1,-1],"split_conditions":[-6.12245E1,-3.016881E-2,1.20007E0,6.7E-1,-1.6257284E-2,3.716932E-2,3.2216099E-3],"split_indices":[60,0,29,61,0,0,0],"split_type":[0,0,0,0,0,0,0],"sum_hessian":[5.7324017E1,1.2948189E1,4.4375828E1,3.297665E1,1.1399178E1,1.3930048E1,1.90466E1],"tree_param":{"num_deleted":"0","num_feature":"67","num_nodes":"7","size_leaf_vector":"1"}},{"base_weights":[-1.0239825E-3,-3.1330895E-1,3.3231083E-1,-3.0572036E-2,1.121861E-2,-1.8305678E-3,3.571068E-2],"categories":[],"categories_nodes":[],"categories_segments":[],"categories_sizes":[],"default_left":[0,0,0,0,0,0,0],"id":30,"left_children":[1,3,5,-1,-1,-1,-1],"loss_changes":[6.1318393E0,5.0121593E0,4.040761E0,0E0,0E0,0E0,0E0],"parents":[2147483647,0,0,1,1,2,2],"right_children":[2,4,6,-1,-1,-1,-1],"split_conditions":[-1.130436E1,1.06253E0,2E0,-3.0572036E-2,1.121861E-2,-1.8305678E-3,3.571068E-2],"split_indices":[60,21,56,0,0,0,0],"split_type":[0,0,0,0,0,0,0],"sum_hessian":[5.6905735E1,2.9411566E1,2.749417E1,1.8832306E1,1.057926E1,1.44446335E1,1.3049536E1],"tree_param":{"num_deleted":"0","num_feature":"67","num_nodes":"7","size_leaf_vector":"1"}},{"base_weights":[-7.281409E-4,-2.875273E-2,1.7350304E-1,3.4096442E-2,-1.6237052E-2,2.0805715E-2,-2.8967967E-2],"categories":[],"categories_nodes":[],"categories_segments":[],"categories_sizes":[],"default_left":[0,0,0,0,0,0,0],"id":31,"left_children":[1,-1,3,-1,5,-1,-1],"loss_changes":[5.8614883E0,0E0,4.3469253E0,0E0,8.447746E0,0E0,0E0],"parents":[2147483647,0,0,2,2,4,4],"right_children":[2,-1,4,-1,6,-1,-1],"split_conditions":[-6.12245E1,-2.875273E-2,2.5362012E-1,3.4096442E-2,3E0,2.0805715E-2,-2.8967967E-2],"split_indices":[60,0,16,0,6,0,0],"split_type":[0,0,0,0,0,0,0],"sum_hessian":[5.6579388E1,1.2633724E1,4.3945663E1,1.12381115E1,3.2707554E1,1.8649775E1,1.4057777E1],"tree_param":{"num_deleted":"0","num_feature":"67","num_nodes":"7","size_leaf_vector":"1"}},{"base_weights":[-7.586054E-4,-1.4844678E-1,3.1483766E-2,1.4315492E-1,-3.2245573E-2,2.1985874E-2,-2.1077802E-2],"categories":[],"categories_nodes":[],"categories_segments":[],"categories_sizes":[],"default_left":[0,0,0,0,0,0,0],"id":32,"left_children":[1,3,-1,5,-1,-1,-1],"loss_changes":[5.4166765E0,6.9153876E0,0E0,5.294852E0,0E0,0E0,0E0],"parents":[2147483647,0,0,1,1,3,3],"right_children":[2,4,-1,6,-1,-1,-1],"split_conditions":[1.7525755E1,1.85971E0,3.1483766E-2,1.250382E4,-3.2245573E-2,2.1985874E-2,-2.1077802E-2],"split_indices":[60,27,0,39,0,0,0],"split_type":[0,0,0,0,0,0,0],"sum_hessian":[5.6172573E1,4.6130398E1,1.0042174E1,2.9509472E1,1.6620926E1,1.9493593E1,1.0015879E1],"tree_param":{"num_deleted":"0","num_feature":"67","num_nodes":"7","size_leaf_vector":"1"}},{"base_weights":[-7.234144E-4,-2.7075619E-2,1.6076905E-1,-1.1469133E-2,3.8780808E-1,3.489786E-2,-3.3542372E-3],"categories":[],"categories_nodes":[],"categories_segments":[],"categories_sizes":[],"default_left":[0,0,0,0,0,0,0],"id":33,"left_children":[1,-1,3,-1,5,-1,-1],"loss_changes":[5.045336E0,0E0,4.0298476E0,0E0,4.067096E0,0E0,0E0],"parents":[2147483647,0,0,2,2,4,4],"right_children":[2,-1,4,-1,6,-1,-1],"split_conditions":[-6.12245E1,-2.7075619E-2,1.338515E2,-1.1469133E-2,-6.804E-1,3.489786E-2,-3.3542372E-3],"split_indices":[60,0,44,0,29,0,0],"split_type":[0,0,0,0,0,0,0],"sum_hessian":[5.5774166E1,1.2284374E1,4.348979E1,1.5994305E1,2.7495487E1,1.6031063E1,1.1464424E1],"tree_param":{"num_deleted":"0","num_feature":"67","num_nodes":"7","size_leaf_vector":"1"}},{"base_weights":[-8.119567E-4,3.367803E-1,-2.4340822E-1,-2.1372295E-3,3.883716E-2,-3.49102E-2,8.616185E-3],"categories":[],"categories_nodes":[],"categories_segments":[],"categories_sizes":[],"default_left":[0,0,0,0,0,0,0],"id":34,"left_children":[1,3,5,-1,-1,-1,-1],"loss_changes":[4.706955E0,4.046051E0,6.4428525E0,0E0,0E0,0E0,0E0],"parents":[2147483647,0,0,1,1,2,2],"right_children":[2,4,6,-1,-1,-1,-1],"split_conditions":[3E0,2.38281E0,6.5192E-1,-2.1372295E-3,3.883716E-2,-3.49102E-2,8.616185E-3],"split_indices":[6,28,21,0,0,0,0],"split_type":[0,0,0,0,0,0,0],"sum_hessian":[5.5472004E1,2.303237E1,3.2439636E1,1.2850229E1,1.0182141E1,1.516749E1,1.7272144E1],"tree_param":{"num_deleted":"0","num_feature":"67","num_nodes":"7","size_leaf_vector":"1"}},{"base_weights":[-5.8482564E-4,-2.6159717E-2,1.5405996E-1,3.2217823E-2,-2.9498251E-2,1.8675199E-2,-2.7267093E-2],"categories":[],"categories_nodes":[],"categories_segments":[],"categories_sizes":[],"default_left":[0,0,0,0,0,0,0],"id":35,"left_children":[1,-1,3,-1,5,-1,-1],"loss_changes":[4.6315746E0,0E0,3.9991884E0,0E0,7.09189E0,0E0,0E0],"parents":[2147483647,0,0,2,2,4,4],"right_children":[2,-1,4,-1,6,-1,-1],"split_conditions":[-6.12245E1,-2.6159717E-2,2.5362012E-1,3.2217823E-2,3E0,1.8675199E-2,-2.7267093E-2],"split_indices":[60,0,16,0,6,0,0],"split_type":[0,0,0,0,0,0,0],"sum_hessian":[5.5310772E1,1.2085524E1,4.3225246E1,1.1090746E1,3.2134502E1,1.8195345E1,1.39391575E1],"tree_param":{"num_deleted":"0","num_feature":"67","num_nodes":"7","size_leaf_vector":"1"}},{"base_weights":[-6.1457785E-4,-2.6963916E-1,2.839055E-1,5.3899004E-3,-3.4640785E-2,-3.5796307E-3,3.313717E-2],"categories":[],"categories_nodes":[],"categories_segments":[],"categories_sizes":[],"default_left":[0,0,0,0,0,0,0],"id":36,"left_children":[1,3,5,-1,-1,-1,-1],"loss_changes":[4.357116E0,4.7477655E0,3.7734296E0,0E0,0E0,0E0,0E0],"parents":[2147483647,0,0,1,1,2,2],"right_children":[2,4,6,-1,-1,-1,-1],"split_conditions":[-1.130436E1,2.767635E4,2E0,5.3899004E-3,-3.4640785E-2,-3.5796307E-3,3.313717E-2],"split_indices":[60,36,56,0,0,0,0],"split_type":[0,0,0,0,0,0,0],"sum_hessian":[5.4923725E1,2.825749E1,2.6666235E1,1.5329845E1,1.2927645E1,1.4175289E1,1.2490945E1],"tree_param":{"num_deleted":"0","num_feature":"67","num_nodes":"7","size_leaf_vector":"1"}},{"base_weights":[-5.857138E-4,1.841703E-1,-2.0360779E-2,4.1321865E-1,-1.8767841E-2,3.805214E-2,2.9265773E-4],"categories":[],"categories_nodes":[],"categories_segments":[],"categories_sizes":[],"default_left":[0,0,0,0,0,0,0],"id":37,"left_children":[1,3,-1,5,-1,-1,-1],"loss_changes":[4.2553096E0,5.14664E0,0E0,3.9786754E0,0E0,0E0,0E0],"parents":[2147483647,0,0,1,1,3,3],"right_children":[2,4,-1,6,-1,-1,-1],"split_conditions":[1.20007E0,1.551945E4,-2.0360779E-2,-1.8409E0,-1.8767841E-2,3.805214E-2,2.9265773E-4],"split_indices":[29,39,0,29,0,0,0],"split_type":[0,0,0,0,0,0,0],"sum_hessian":[5.464304E1,3.7948067E1,1.6694973E1,2.7111269E1,1.0836798E1,1.415607E1,1.2955199E1],"tree_param":{"num_deleted":"0","num_feature":"67","num_nodes":"7","size_leaf_vector":"1"}},{"base_weights":[-5.5046845E-4,-2.5291834E-2,1.3926953E-1,-1.0690868E-2,4.3426895E-1,-1.5810758E-3,4.564253E-2],"categories":[],"categories_nodes":[],"categories_segments":[],"categories_sizes":[],"default_left":[0,0,0,0,0,0,0],"id":38,"left_children":[1,-1,3,-1,5,-1,-1],"loss_changes":[3.9843824E0,0E0,4.6942925E0,0E0,5.4687824E0,0E0,0E0],"parents":[2147483647,0,0,2,2,4,4],"right_children":[2,-1,4,-1,6,-1,-1],"split_conditions":[-9.97E1,-2.5291834E-2,-1.130436E1,-1.0690868E-2,2E0,-1.5810758E-3,4.564253E-2],"split_indices":[48,0,60,0,56,0,0],"split_type":[0,0,0,0,0,0,0],"sum_hessian":[5.4399628E1,1.1223173E1,4.3176453E1,1.9778555E1,2.3397898E1,1.2329389E1,1.1068509E1],"tree_param":{"num_deleted":"0","num_feature":"67","num_nodes":"7","size_leaf_vector":"1"}},{"base_weights":[-3.100527E-4,1.759357E-1,-1.9397028E-2,-9.332583E-2,3.1314593E-2,1.9501295E-2,-2.352594E-2],"categories":[],"categories_nodes":[],"categories_segments":[],"categories_sizes":[],"default_left":[0,0,0,0,0,0,0],"id":39,"left_children":[1,3,-1,5,-1,-1,-1],"loss_changes":[3.831026E0,4.7331805E0,0E0,4.7407155E0,0E0,0E0,0E0],"parents":[2147483647,0,0,1,1,3,3],"right_children":[2,4,-1,6,-1,-1,-1],"split_conditions":[1.20007E0,6.5E-3,-1.9397028E-2,3E0,3.1314593E-2,1.9501295E-2,-2.352594E-2],"split_indices":[29,19,0,6,0,0,0],"split_type":[0,0,0,0,0,0,0],"sum_hessian":[5.4077152E1,3.7550167E1,1.6526983E1,2.3996048E1,1.3554121E1,1.0503008E1,1.3493039E1],"tree_param":{"num_deleted":"0","num_feature":"67","num_nodes":"7","size_leaf_vector":"1"}},{"base_weights":[-1.3737402E-4,-2.5963014E-2,1.2784874E-1,-1.2737334E-2,3.4903216E-1,3.1942856E-2,-7.1653696E-3],"categories":[],"categories_nodes":[],"categories_segments":[],"categories_sizes":[],"default_left":[0,0,0,0,0,0,0],"id":40,"left_children":[1,-1,3,-1,5,-1,-1],"loss_changes":[3.7115512E0,0E0,3.881329E0,0E0,4.203911E0,0E0,0E0],"parents":[2147483647,0,0,2,2,4,4],"right_children":[2,-1,4,-1,6,-1,-1],"split_conditions":[-6.808512E1,-2.5963014E-2,1.338515E2,-1.2737334E-2,5.1E-1,3.1942856E-2,-7.1653696E-3],"split_indices":[60,0,44,0,3,0,0],"split_type":[0,0,0,0,0,0,0],"sum_hessian":[5.3863567E1,1.004856E1,4.3815006E1,1.5995243E1,2.7819761E1,1.7324043E1,1.0495718E1],"tree_param":{"num_deleted":"0","num_feature":"67","num_nodes":"7","size_leaf_vector":"1"}},{"base_weights":[-3.8904123E-4,-1.838674E-1,1.7159091E-2,1.1883958E-2,-2.7593901E-2],"categories":[],"categories_nodes":[],"categories_segments":[],"categories_sizes":[],"default_left":[0,0,0,0,0],"id":41,"left_children":[1,3,-1,-1,-1],"loss_changes":[3.507367E0,5.757622E0,0E0,0E0,0E0],"parents":[2147483647,0,0,1,1],"right_children":[2,4,-1,-1,-1],"split_conditions":[3.4599E-1,3E0,1.7159091E-2,1.1883958E-2,-2.7593901E-2],"split_indices":[20,6,0,0,0],"split_type":[0,0,0,0,0],"sum_hessian":[5.3638107E1,3.526842E1,1.8369684E1,1.6603592E1,1.866483E1],"tree_param":{"num_deleted":"0","num_feature":"67","num_nodes":"5","size_leaf_vector":"1"}},{"base_weights":[-3.582893E-4,1.7046954E-1,-1.8769637E-2,3.8205147E-1,-1.7405141E-2,3.6187958E-2,-6.59089E-4],"categories":[],"categories_nodes":[],"categories_segments":[],"categories_sizes":[],"default_left":[0,0,0,0,0,0,0],"id":42,"left_children":[1,3,-1,5,-1,-1,-1],"loss_changes":[3.55776E0,4.3193793E0,0E0,3.7337027E0,0E0,0E0,0E0],"parents":[2147483647,0,0,1,1,3,3],"right_children":[2,4,-1,6,-1,-1,-1],"split_conditions":[1.20007E0,1.551945E4,-1.8769637E-2,-1.8409E0,-1.7405141E-2,3.6187958E-2,-6.59089E-4],"split_indices":[29,39,0,29,0,0,0],"split_type":[0,0,0,0,0,0,0],"sum_hessian":[5.3533596E1,3.715499E1,1.6378607E1,2.6575304E1,1.0579686E1,1.3806964E1,1.2768339E1],"tree_param":{"num_deleted":"0","num_feature":"67","num_nodes":"7","size_leaf_vector":"1"}},{"base_weights":[-3.3104295E-4,-1.6877489E-1,1.926041E-2,2.6094615E-2,-5.330435E-1,-4.4053537E-3,-4.4785824E-2],"categories":[],"categories_nodes":[],"categories_segments":[],"categories_sizes":[],"default_left":[0,0,0,0,0,0,0],"id":43,"left_children":[1,3,-1,-1,5,-1,-1],"loss_changes":[3.591503E0,9.960964E0,0E0,0E0,4.0668893E0,0E0,0E0],"parents":[2147483647,0,0,1,1,4,4],"right_children":[2,4,-1,-1,6,-1,-1],"split_conditions":[3.822907E4,-2.2479E0,1.926041E-2,2.6094615E-2,4.9E-1,-4.4053537E-3,-4.4785824E-2],"split_indices":[38,29,0,0,0,0,0],"split_type":[0,0,0,0,0,0,0],"sum_hessian":[5.3302376E1,3.7486565E1,1.5815814E1,1.279467E1,2.4691893E1,1.1646548E1,1.3045345E1],"tree_param":{"num_deleted":"0","num_feature":"67","num_nodes":"7","size_leaf_vector":"1"}},{"base_weights":[-4.2231864E-4,-1.8127643E-1,1.6910523E-2,1.1286816E-2,-2.683957E-2],"categories":[],"categories_nodes":[],"categories_segments":[],"categories_sizes":[],"default_left":[0,0,0,0,0],"id":44,"left_children":[1,3,-1,-1,-1],"loss_changes":[3.3772123E0,5.322366E0,0E0,0E0,0E0],"parents":[2147483647,0,0,1,1],"right_children":[2,4,-1,-1,-1],"split_conditions":[3.4599E-1,3E0,1.6910523E-2,1.1286816E-2,-2.683957E-2],"split_indices":[20,6,0,0,0],"split_type":[0,0,0,0,0],"sum_hessian":[5.314327E1,3.4944885E1,1.8198385E1,1.6462626E1,1.848226E1],"tree_param":{"num_deleted":"0","num_feature":"67","num_nodes":"5","size_leaf_vector":"1"}},{"base_weights":[-3.911609E-4,-1.628508E-1,1.8471576E-2,2.5243586E-2,-5.1417553E-1,-4.3288902E-3,-4.3272108E-2],"categories":[],"categories_nodes":[],"categories_segments":[],"categories_sizes":[],"default_left":[0,0,0,0,0,0,0],"id":45,"left_children":[1,3,-1,-1,5,-1,-1],"loss_changes":[3.3070505E0,9.230555E0,0E0,0E0,3.7631273E0,0E0,0E0],"parents":[2147483647,0,0,1,1,4,4],"right_children":[2,4,-1,-1,6,-1,-1],"split_conditions":[3.822907E4,-2.2479E0,1.8471576E-2,2.5243586E-2,4.9E-1,-4.3288902E-3,-4.3272108E-2],"split_indices":[38,29,0,0,0,0,0],"split_type":[0,0,0,0,0,0,0],"sum_hessian":[5.3041615E1,3.7241447E1,1.5800166E1,1.2688611E1,2.4552835E1,1.1635449E1,1.2917387E1],"tree_param":{"num_deleted":"0","num_feature":"67","num_nodes":"7","size_leaf_vector":"1"}},{"base_weights":[-4.8002353E-4,-1.7677788E-1,1.6470533E-2,1.0722387E-2,-2.5925681E-2],"categories":[],"categories_nodes":[],"categories_segments":[],"categories_sizes":[],"default_left":[0,0,0,0,0],"id":46,"left_children":[1,3,-1,-1,-1],"loss_changes":[3.1919246E0,4.892972E0,0E0,0E0,0E0],"parents":[2147483647,0,0,1,1],"right_children":[2,4,-1,-1,-1],"split_conditions":[3.4599E-1,3E0,1.6470533E-2,1.0722387E-2,-2.5925681E-2],"split_indices":[20,6,0,0,0],"split_type":[0,0,0,0,0],"sum_hessian":[5.2881447E1,3.4766117E1,1.8115334E1,1.6383007E1,1.8383108E1],"tree_param":{"num_deleted":"0","num_feature":"67","num_nodes":"5","size_leaf_vector":"1"}},{"base_weights":[-4.4727605E-4,2.1974009E-2,-1.3895579E-1,-4.1664343E-2,1.3899425E-1,2.6309714E-2,-8.0781495E-3],"categories":[],"categories_nodes":[],"categories_segments":[],"categories_sizes":[],"default_left":[0,0,0,0,0,0,0],"id":47,"left_children":[1,-1,3,-1,5,-1,-1],"loss_changes":[3.338164E0,0E0,8.156335E0,0E0,3.6472366E0,0E0,0E0],"parents":[2147483647,0,0,2,2,4,4],"right_children":[2,-1,4,-1,6,-1,-1],"split_conditions":[2.5362012E-1,2.1974009E-2,-4.97E1,-4.1664343E-2,1.00784E0,2.6309714E-2,-8.0781495E-3],"split_indices":[16,0,50,0,27,0,0],"split_type":[0,0,0,0,0,0,0],"sum_hessian":[5.2781345E1,1.2118359E1,4.066299E1,1.1053328E1,2.9609661E1,1.261166E1,1.6998001E1],"tree_param":{"num_deleted":"0","num_feature":"67","num_nodes":"7","size_leaf_vector":"1"}},{"base_weights":[-4.823143E-4,-2.2238344E-2,1.2731443E-1,3.0250588E-2,-5.4696023E-2,2.4302039E-1,-2.9724523E-2,2.2149917E-3,2.1041203E-2],"categories":[],"categories_nodes":[],"categories_segments":[],"categories_sizes":[],"default_left":[0,0,0,0,0,0,0,0,0],"id":48,"left_children":[1,-1,3,-1,5,7,-1,-1,-1],"loss_changes":[3.0979645E0,0E0,3.7175875E0,0E0,5.223153E0,7.2612095E-1,0E0,0E0,0E0],"parents":[2147483647,0,0,2,2,4,4,5,5],"right_children":[2,-1,4,-1,6,8,-1,-1,-1],"split_conditions":[-6.12245E1,-2.2238344E-2,2.5362012E-1,3.0250588E-2,5.1E-1,1.075E-2,-2.9724523E-2,2.2149917E-3,2.1041203E-2],"split_indices":[60,0,16,0,3,18,0,0,0],"split_type":[0,0,0,0,0,0,0,0,0],"sum_hessian":[5.256534E1,1.118846E1,4.1376877E1,1.0774503E1,3.0602375E1,2.0078266E1,1.0524109E1,1.0071312E1,1.0006954E1],"tree_param":{"num_deleted":"0","num_feature":"67","num_nodes":"9","size_leaf_vector":"1"}},{"base_weights":[-4.2376434E-4,-1.7552358E-1,1.6353777E-2,-3.483781E-2,7.308807E-2,2.0163592E-2,-1.2349427E-2],"categories":[],"categories_nodes":[],"categories_segments":[],"categories_sizes":[],"default_left":[0,0,0,0,0,0,0],"id":49,"left_children":[1,3,-1,-1,5,-1,-1],"loss_changes":[3.1179547E0,4.641807E0,0E0,0E0,2.7302747E0,0E0,0E0],"parents":[2147483647,0,0,1,1,4,4],"right_children":[2,4,-1,-1,6,-1,-1],"split_conditions":[3.4599E-1,-2.6125542E1,1.6353777E-2,-3.483781E-2,-4.8918E-1,2.0163592E-2,-1.2349427E-2],"split_indices":[20,60,0,0,20,0,0],"split_type":[0,0,0,0,0,0,0],"sum_hessian":[5.237069E1,3.4427715E1,1.7942974E1,1.053588E1,2.3891834E1,1.16322975E1,1.2259537E1],"tree_param":{"num_deleted":"0","num_feature":"67","num_nodes":"7","size_leaf_vector":"1"}},{"base_weights":[-6.389283E-4,-1.20384425E-1,2.3471052E-2,-3.3183083E-2,1.5931174E-1,3.4725364E-2,-8.413055E-3],"categories":[],"categories_nodes":[],"categories_segments":[],"categories_sizes":[],"default_left":[0,0,0,0,0,0,0],"id":50,"left_children":[1,3,-1,-1,5,-1,-1],"loss_changes":[3.0521693E0,6.6718063E0,0E0,0E0,5.259204E0,0E0,0E0],"parents":[2147483647,0,0,1,1,4,4],"right_children":[2,4,-1,-1,6,-1,-1],"split_conditions":[5.9E-1,1.338515E2,2.3471052E-2,-3.3183083E-2,2.1869987E2,3.4725364E-2,-8.413055E-3],"split_indices":[59,44,0,0,44,0,0],"split_type":[0,0,0,0,0,0,0],"sum_hessian":[5.2220608E1,4.2211365E1,1.0009244E1,1.3879416E1,2.8331947E1,1.0331675E1,1.8000273E1],"tree_param":{"num_deleted":"0","num_feature":"67","num_nodes":"7","size_leaf_vector":"1"}},{"base_weights":[-2.9364557E-4,-1.5603352E-1,1.7604055E-2,2.4137639E-2,-4.9108368E-1,-4.511766E-3,-4.1247915E-2],"categories":[],"categories_nodes":[],"categories_segments":[],"categories_sizes":[],"default_left":[0,0,0,0,0,0,0],"id":51,"left_children":[1,3,-1,-1,5,-1,-1],"loss_changes":[2.9676073E0,8.2630005E0,0E0,0E0,3.2839265E0,0E0,0E0],"parents":[2147483647,0,0,1,1,4,4],"right_children":[2,4,-1,-1,6,-1,-1],"split_conditions":[3.822907E4,-2.2479E0,1.7604055E-2,2.4137639E-2,4.9E-1,-4.511766E-3,-4.1247915E-2],"split_indices":[38,29,0,0,0,0,0],"split_type":[0,0,0,0,0,0,0],"sum_hessian":[5.207461E1,3.6499874E1,1.5574738E1,1.2406176E1,2.4093697E1,1.1525954E1,1.2567742E1],"tree_param":{"num_deleted":"0","num_feature":"67","num_nodes":"7","size_leaf_vector":"1"}},{"base_weights":[-3.887386E-4,-1.8514732E-2,1.445063E-1,-9.857789E-3,2.2087295E-2],"categories":[],"categories_nodes":[],"categories_segments":[],"categories_sizes":[],"default_left":[0,0,0,0,0],"id":52,"left_children":[1,-1,3,-1,-1],"loss_changes":[2.889634E0,0E0,4.021461E0,0E0,0E0],"parents":[2147483647,0,0,2,2],"right_children":[2,-1,4,-1,-1],"split_conditions":[-2.0191666E-1,-1.8514732E-2,-1.130436E1,-9.857789E-3,2.2087295E-2],"split_indices":[19,0,60,0,0],"split_type":[0,0,0,0,0],"sum_hessian":[5.19152E1,1.4174131E1,3.774107E1,1.7715126E1,2.0025944E1],"tree_param":{"num_deleted":"0","num_feature":"67","num_nodes":"5","size_leaf_vector":"1"}},{"base_weights":[-4.6621822E-4,-1.7059548E-1,1.5836013E-2,1.0558623E-2,-2.5411313E-2],"categories":[],"categories_nodes":[],"categories_segments":[],"categories_sizes":[],"default_left":[0,0,0,0,0],"id":53,"left_children":[1,3,-1,-1,-1],"loss_changes":[2.8980367E0,4.612728E0,0E0,0E0,0E0],"parents":[2147483647,0,0,1,1],"right_children":[2,4,-1,-1,-1],"split_conditions":[3.4599E-1,3E0,1.5836013E-2,1.0558623E-2,-2.5411313E-2],"split_indices":[20,6,0,0,0],"split_type":[0,0,0,0,0],"sum_hessian":[5.1703175E1,3.3953632E1,1.7749542E1,1.6111023E1,1.784261E1],"tree_param":{"num_deleted":"0","num_feature":"67","num_nodes":"5","size_leaf_vector":"1"}},{"base_weights":[-4.379041E-4,-1.5172839E-1,1.7010523E-2,2.3515342E-2,-4.772956E-1,-4.749957E-3,-3.987686E-2],"categories":[],"categories_nodes":[],"categories_segments":[],"categories_sizes":[],"default_left":[0,0,0,0,0,0,0],"id":54,"left_children":[1,3,-1,-1,5,-1,-1],"loss_changes":[2.7628112E0,7.741755E0,0E0,0E0,2.9681244E0,0E0,0E0],"parents":[2147483647,0,0,1,1,4,4],"right_children":[2,4,-1,-1,6,-1,-1],"split_conditions":[3.822907E4,-2.2479E0,1.7010523E-2,2.3515342E-2,4.9E-1,-4.749957E-3,-3.987686E-2],"split_indices":[38,29,0,0,0,0,0],"split_type":[0,0,0,0,0,0,0],"sum_hessian":[5.160685E1,3.611975E1,1.5487101E1,1.2256899E1,2.3862852E1,1.1468585E1,1.2394267E1],"tree_param":{"num_deleted":"0","num_feature":"67","num_nodes":"7","size_leaf_vector":"1"}},{"base_weights":[-5.271746E-4,-1.6640048E-1,1.5432522E-2,1.0045282E-2,-2.4563264E-2],"categories":[],"categories_nodes":[],"categories_segments":[],"categories_sizes":[],"default_left":[0,0,0,0,0],"id":55,"left_children":[1,3,-1,-1,-1],"loss_changes":[2.7412117E0,4.24949E0,0E0,0E0,0E0],"parents":[2147483647,0,0,1,1],"right_children":[2,4,-1,-1,-1],"split_conditions":[3.4599E-1,3E0,1.5432522E-2,1.0045282E-2,-2.4563264E-2],"split_indices":[20,6,0,0,0],"split_type":[0,0,0,0,0],"sum_hessian":[5.1449806E1,3.3785652E1,1.7664154E1,1.603611E1,1.7749544E1],"tree_param":{"num_deleted":"0","num_feature":"67","num_nodes":"5","size_leaf_vector":"1"}},{"base_weights":[-4.9676246E-4,2.0104086E-2,-1.283484E-1,-3.9452642E-2,1.3104726E-1,-8.880604E-3,2.5196576E-2],"categories":[],"categories_nodes":[],"categories_segments":[],"categories_sizes":[],"default_left":[0,0,0,0,0,0,0],"id":56,"left_children":[1,-1,3,-1,5,-1,-1],"loss_changes":[2.7463608E0,0E0,7.0434346E0,0E0,3.534909E0,0E0,0E0],"parents":[2147483647,0,0,2,2,4,4],"right_children":[2,-1,4,-1,6,-1,-1],"split_conditions":[2.5362012E-1,2.0104086E-2,-4.97E1,-3.9452642E-2,2E0,-8.880604E-3,2.5196576E-2],"split_indices":[16,0,50,0,56,0,0],"split_type":[0,0,0,0,0,0,0],"sum_hessian":[5.1355503E1,1.1861421E1,3.949408E1,1.0558564E1,2.8935516E1,1.6117634E1,1.2817883E1],"tree_param":{"num_deleted":"0","num_feature":"67","num_nodes":"7","size_leaf_vector":"1"}},{"base_weights":[-5.611272E-4,2.0772982E-2,-1.2062734E-1,-4.6292397E-1,1.3678682E-2,-3.3295613E-3,-4.0324017E-2],"categories":[],"categories_nodes":[],"categories_segments":[],"categories_sizes":[],"default_left":[0,0,0,0,0,0,0],"id":57,"left_children":[1,-1,3,5,-1,-1,-1],"loss_changes":[2.6558046E0,0E0,5.693657E0,3.0036855E0,0E0,0E0,0E0],"parents":[2147483647,0,0,2,2,3,3],"right_children":[2,-1,4,6,-1,-1,-1],"split_conditions":[-2.2891666E-1,2.0772982E-2,6.892E-2,3E0,1.3678682E-2,-3.3295613E-3,-4.0324017E-2],"split_indices":[18,0,20,6,0,0,0],"split_type":[0,0,0,0,0,0,0],"sum_hessian":[5.1165905E1,1.0908497E1,4.025741E1,2.1453955E1,1.8803452E1,1.0516158E1,1.0937798E1],"tree_param":{"num_deleted":"0","num_feature":"67","num_nodes":"7","size_leaf_vector":"1"}},{"base_weights":[-7.417184E-4,-1.4397967E-1,1.719941E-2,2.0006957E-2,-4.2471665E-1,-5.631745E-3,-3.7192646E-2],"categories":[],"categories_nodes":[],"categories_segments":[],"categories_sizes":[],"default_left":[0,0,0,0,0,0,0],"id":58,"left_children":[1,3,-1,-1,5,-1,-1],"loss_changes":[2.6199496E0,5.895199E0,0E0,0E0,2.4269476E0,0E0,0E0],"parents":[2147483647,0,0,1,1,4,4],"right_children":[2,4,-1,-1,6,-1,-1],"split_conditions":[3.898092E4,-2.2479E0,1.719941E-2,2.0006957E-2,5E-1,-5.631745E-3,-3.7192646E-2],"split_indices":[38,29,0,0,45,0,0],"split_type":[0,0,0,0,0,0,0],"sum_hessian":[5.105559E1,3.6480152E1,1.4575443E1,1.2271146E1,2.4209005E1,1.2923811E1,1.1285194E1],"tree_param":{"num_deleted":"0","num_feature":"67","num_nodes":"7","size_leaf_vector":"1"}},{"base_weights":[-8.483347E-4,-1.7628608E-2,1.3752937E-1,-1.4874195E-2,3.4979296E-1,-5.9940033E-3,4.0906344E-2],"categories":[],"categories_nodes":[],"categories_segments":[],"categories_sizes":[],"default_left":[0,0,0,0,0,0,0],"id":59,"left_children":[1,-1,3,-1,5,-1,-1],"loss_changes":[2.5752983E0,0E0,3.6107998E0,0E0,5.8133917E0,0E0,0E0],"parents":[2147483647,0,0,2,2,4,4],"right_children":[2,-1,4,-1,6,-1,-1],"split_conditions":[-2.0191666E-1,-1.7628608E-2,1.3521239E2,-1.4874195E-2,5.233E1,-5.9940033E-3,4.0906344E-2],"split_indices":[19,0,44,0,42,0,0],"split_type":[0,0,0,0,0,0,0],"sum_hessian":[5.09164E1,1.3938949E1,3.697745E1,1.1994474E1,2.4982977E1,1.2845139E1,1.2137837E1],"tree_param":{"num_deleted":"0","num_feature":"67","num_nodes":"7","size_leaf_vector":"1"}},{"base_weights":[-7.4500736E-4,-2.0327842E-2,1.1472182E-1,2.8056903E-2,-5.6325763E-2,1.1221437E-2,-2.821733E-2],"categories":[],"categories_nodes":[],"categories_segments":[],"categories_sizes":[],"default_left":[0,0,0,0,0,0,0],"id":60,"left_children":[1,-1,3,-1,5,-1,-1],"loss_changes":[2.4766612E0,0E0,3.17392E0,0E0,4.4998236E0,0E0,0E0],"parents":[2147483647,0,0,2,2,4,4],"right_children":[2,-1,4,-1,6,-1,-1],"split_conditions":[-6.12245E1,-2.0327842E-2,2.5362012E-1,2.8056903E-2,5.1E-1,1.1221437E-2,-2.821733E-2],"split_indices":[60,0,16,0,3,0,0],"split_type":[0,0,0,0,0,0,0],"sum_hessian":[5.085946E1,1.0707307E1,4.0152153E1,1.0491041E1,2.9661112E1,1.9463154E1,1.0197958E1],"tree_param":{"num_deleted":"0","num_feature":"67","num_nodes":"7","size_leaf_vector":"1"}},{"base_weights":[-8.828038E-4,1.8561466E-2,-1.2531343E-1,1.19687E-1,-2.6943166E-2,2.4267603E-2,-1.9663548E-2],"categories":[],"categories_nodes":[],"categories_segments":[],"categories_sizes":[],"default_left":[0,0,0,0,0,0,0],"id":61,"left_children":[1,-1,3,5,-1,-1,-1],"loss_changes":[2.4388692E0,0E0,4.0633993E0,4.9932575E0,0E0,0E0,0E0],"parents":[2147483647,0,0,2,2,3,3],"right_children":[2,-1,4,6,-1,-1,-1],"split_conditions":[-3E0,1.8561466E-2,1.5376827E0,1.121578E4,-2.6943166E-2,2.4267603E-2,-1.9663548E-2],"split_indices":[43,0,26,39,0,0,0],"split_type":[0,0,0,0,0,0,0],"sum_hessian":[5.066822E1,1.2200118E1,3.84681E1,2.4603043E1,1.3865059E1,1.4395176E1,1.0207868E1],"tree_param":{"num_deleted":"0","num_feature":"67","num_nodes":"7","size_leaf_vector":"1"}},{"base_weights":[-9.139851E-4,-1.4251095E-1,1.6817357E-2,1.8600823E-2,-4.0657303E-1,-5.3661754E-3,-3.5831925E-2],"categories":[],"categories_nodes":[],"categories_segments":[],"categories_sizes":[],"default_left":[0,0,0,0,0,0,0],"id":62,"left_children":[1,3,-1,-1,5,-1,-1],"loss_changes":[2.503747E0,5.1676383E0,0E0,0E0,2.2313528E0,0E0,0E0],"parents":[2147483647,0,0,1,1,4,4],"right_children":[2,4,-1,-1,6,-1,-1],"split_conditions":[3.898092E4,-2.2479E0,1.6817357E-2,1.8600823E-2,5E-1,-5.3661754E-3,-3.5831925E-2],"split_indices":[38,29,0,0,45,0,0],"split_type":[0,0,0,0,0,0,0],"sum_hessian":[5.0425114E1,3.592125E1,1.4503864E1,1.2044197E1,2.3877052E1,1.2835461E1,1.1041592E1],"tree_param":{"num_deleted":"0","num_feature":"67","num_nodes":"7","size_leaf_vector":"1"}},{"base_weights":[-1.0154969E-3,-1.6277134E-1,1.501018E-2,9.123417E-3,-2.3571631E-2],"categories":[],"categories_nodes":[],"categories_segments":[],"categories_sizes":[],"default_left":[0,0,0,0,0],"id":63,"left_children":[1,3,-1,-1,-1],"loss_changes":[2.5478618E0,3.7110317E0,0E0,0E0,0E0],"parents":[2147483647,0,0,1,1],"right_children":[2,4,-1,-1,-1],"split_conditions":[3.4599E-1,3E0,1.501018E-2,9.123417E-3,-2.3571631E-2],"split_indices":[20,6,0,0,0],"split_type":[0,0,0,0,0],"sum_hessian":[5.028889E1,3.301782E1,1.7271074E1,1.5778405E1,1.7239412E1],"tree_param":{"num_deleted":"0","num_feature":"67","num_nodes":"5","size_leaf_vector":"1"}},{"base_weights":[-9.6736144E-4,-1.164048E-1,1.9966615E-2,-2.8657729E-2,1.1854613E-1,2.0160554E-2,-1.722291E-2],"categories":[],"categories_nodes":[],"categories_segments":[],"categories_sizes":[],"default_left":[0,0,0,0,0,0,0],"id":64,"left_children":[1,3,-1,-1,5,-1,-1],"loss_changes":[2.4124596E0,4.415759E0,0E0,0E0,3.774202E0,0E0,0E0],"parents":[2147483647,0,0,1,1,4,4],"right_children":[2,4,-1,-1,6,-1,-1],"split_conditions":[5.699998E-1,1.338515E2,1.9966615E-2,-2.8657729E-2,9.28434E3,2.0160554E-2,-1.722291E-2],"split_indices":[59,44,0,0,39,0,0],"split_type":[0,0,0,0,0,0,0],"sum_hessian":[5.0200985E1,3.951496E1,1.0686022E1,1.2933156E1,2.6581806E1,1.6541115E1,1.004069E1],"tree_param":{"num_deleted":"0","num_feature":"67","num_nodes":"7","size_leaf_vector":"1"}},{"base_weights":[-1.0364857E-3,-1.3978863E-1,1.6445814E-2,1.8048355E-2,-3.952551E-1,-3.595116E-3,-3.34237E-2],"categories":[],"categories_nodes":[],"categories_segments":[],"categories_sizes":[],"default_left":[0,0,0,0,0,0,0],"id":65,"left_children":[1,3,-1,-1,5,-1,-1],"loss_changes":[2.3823073E0,4.8281784E0,0E0,0E0,2.1368E0,0E0,0E0],"parents":[2147483647,0,0,1,1,4,4],"right_children":[2,4,-1,-1,6,-1,-1],"split_conditions":[3.898092E4,-2.2479E0,1.6445814E-2,1.8048355E-2,5E-1,-3.595116E-3,-3.34237E-2],"split_indices":[38,29,0,0,3,0,0],"split_type":[0,0,0,0,0,0,0],"sum_hessian":[5.0031994E1,3.562659E1,1.4405401E1,1.1895841E1,2.3730751E1,1.1446755E1,1.2283995E1],"tree_param":{"num_deleted":"0","num_feature":"67","num_nodes":"7","size_leaf_vector":"1"}},{"base_weights":[-1.0441934E-3,-1.7136209E-2,1.3374637E-1,-8.747528E-3,2.0159477E-2],"categories":[],"categories_nodes":[],"categories_segments":[],"categories_sizes":[],"default_left":[0,0,0,0,0],"id":66,"left_children":[1,-1,3,-1,-1],"loss_changes":[2.3925335E0,0E0,3.1695771E0,0E0,0E0],"parents":[2147483647,0,0,2,2],"right_children":[2,-1,4,-1,-1],"split_conditions":[-2.0191666E-1,-1.7136209E-2,-1.130436E1,-8.747528E-3,2.0159477E-2],"split_indices":[19,0,60,0,0],"split_type":[0,0,0,0,0],"sum_hessian":[4.9953938E1,1.3695255E1,3.6258682E1,1.7061861E1,1.919682E1],"tree_param":{"num_deleted":"0","num_feature":"67","num_nodes":"5","size_leaf_vector":"1"}},{"base_weights":[-1.0883058E-3,-1.5814167E-1,1.4534225E-2,8.758372E-3,-2.381379E-2],"categories":[],"categories_nodes":[],"categories_segments":[],"categories_sizes":[],"default_left":[0,0,0,0,0],"id":67,"left_children":[1,3,-1,-1,-1],"loss_changes":[2.3722339E0,3.651483E0,0E0,0E0,0E0],"parents":[2147483647,0,0,1,1],"right_children":[2,4,-1,-1,-1],"split_conditions":[3.4599E-1,2.8357351E1,1.4534225E-2,8.758372E-3,-2.381379E-2],"split_indices":[20,4,0,0,0],"split_type":[0,0,0,0,0],"sum_hessian":[4.9765312E1,3.264916E1,1.7116156E1,1.6163769E1,1.648539E1],"tree_param":{"num_deleted":"0","num_feature":"67","num_nodes":"5","size_leaf_vector":"1"}},{"base_weights":[-1.0525069E-3,-1.3819247E-1,1.6189111E-2,1.732861E-2,-3.8452268E-1,-2.0163616E-3,-3.1155393E-2],"categories":[],"categories_nodes":[],"categories_segments":[],"categories_sizes":[],"default_left":[0,0,0,0,0,0,0],"id":68,"left_children":[1,3,-1,-1,5,-1,-1],"loss_changes":[2.3039317E0,4.475084E0,0E0,0E0,1.9936354E0,0E0,0E0],"parents":[2147483647,0,0,1,1,4,4],"right_children":[2,4,-1,-1,6,-1,-1],"split_conditions":[3.898092E4,-2.2479E0,1.6189111E-2,1.732861E-2,2.8339987E1,-2.0163616E-3,-3.1155393E-2],"split_indices":[38,29,0,0,4,0,0],"split_type":[0,0,0,0,0,0,0],"sum_hessian":[4.9713757E1,3.535994E1,1.435382E1,1.1776828E1,2.358311E1,1.0133304E1,1.3449807E1],"tree_param":{"num_deleted":"0","num_feature":"67","num_nodes":"7","size_leaf_vector":"1"}},{"base_weights":[-1.0104631E-3,-1.2926343E-1,1.6814016E-2,1.3904965E-1,-2.5111059E-2,2.1599261E-2,-6.9885696E-3],"categories":[],"categories_nodes":[],"categories_segments":[],"categories_sizes":[],"default_left":[0,0,0,0,0,0,0],"id":69,"left_children":[1,3,-1,5,-1,-1,-1],"loss_changes":[2.2329655E0,3.8117106E0,0E0,1.9005945E0,0E0,0E0,0E0],"parents":[2147483647,0,0,1,1,3,3],"right_children":[2,4,-1,6,-1,-1,-1],"split_conditions":[1.8E1,4.57592E3,1.6814016E-2,3.914432E-1,-2.5111059E-2,2.1599261E-2,-6.9885696E-3],"split_indices":[5,39,0,26,0,0,0],"split_type":[0,0,0,0,0,0,0],"sum_hessian":[4.961421E1,3.6392803E1,1.3221404E1,2.1530506E1,1.4862296E1,1.0231615E1,1.1298891E1],"tree_param":{"num_deleted":"0","num_feature":"67","num_nodes":"7","size_leaf_vector":"1"}},{"base_weights":[-8.363332E-4,-1.5536271E-1,1.4279527E-2,8.575889E-3,-2.2450784E-2],"categories":[],"categories_nodes":[],"categories_segments":[],"categories_sizes":[],"default_left":[0,0,0,0,0],"id":70,"left_children":[1,3,-1,-1,-1],"loss_changes":[2.2766473E0,3.2838626E0,0E0,0E0,0E0],"parents":[2147483647,0,0,1,1],"right_children":[2,4,-1,-1,-1],"split_conditions":[3.4599E-1,3E0,1.4279527E-2,8.575889E-3,-2.2450784E-2],"split_indices":[20,6,0,0,0],"split_type":[0,0,0,0,0],"sum_hessian":[4.943497E1,3.240835E1,1.7026619E1,1.5533319E1,1.6875034E1],"tree_param":{"num_deleted":"0","num_feature":"67","num_nodes":"5","size_leaf_vector":"1"}},{"base_weights":[-7.9897715E-4,-1.3637437E-1,1.5960088E-2,1.6629152E-2,-3.732939E-1,-3.0704709E-3,-3.183933E-2],"categories":[],"categories_nodes":[],"categories_segments":[],"categories_sizes":[],"default_left":[0,0,0,0,0,0,0],"id":71,"left_children":[1,3,-1,-1,5,-1,-1],"loss_changes":[2.227998E0,4.131504E0,0E0,0E0,1.9688163E0,0E0,0E0],"parents":[2147483647,0,0,1,1,4,4],"right_children":[2,4,-1,-1,6,-1,-1],"split_conditions":[3.898092E4,-2.2479E0,1.5960088E-2,1.6629152E-2,5E-1,-3.0704709E-3,-3.183933E-2],"split_indices":[38,29,0,0,3,0,0],"split_type":[0,0,0,0,0,0,0],"sum_hessian":[4.9351654E1,3.5068104E1,1.4283549E1,1.1634685E1,2.343342E1,1.1295958E1,1.2137462E1],"tree_param":{"num_deleted":"0","num_feature":"67","num_nodes":"7","size_leaf_vector":"1"}},{"base_weights":[-8.147409E-4,-1.6638992E-2,1.3093622E-1,-1.3266325E-2,3.273238E-1,-5.9937527E-3,3.8686287E-2],"categories":[],"categories_nodes":[],"categories_segments":[],"categories_sizes":[],"default_left":[0,0,0,0,0,0,0],"id":72,"left_children":[1,-1,3,-1,5,-1,-1],"loss_changes":[2.2425468E0,0E0,2.9436839E0,0E0,5.082163E0,0E0,0E0],"parents":[2147483647,0,0,2,2,4,4],"right_children":[2,-1,4,-1,6,-1,-1],"split_conditions":[-2.0191666E-1,-1.6638992E-2,1.3521239E2,-1.3266325E-2,5.233E1,-5.9937527E-3,3.8686287E-2],"split_indices":[19,0,44,0,42,0,0],"split_type":[0,0,0,0,0,0,0],"sum_hessian":[4.927752E1,1.3567206E1,3.571031E1,1.1717067E1,2.3993246E1,1.2351331E1,1.1641916E1],"tree_param":{"num_deleted":"0","num_feature":"67","num_nodes":"7","size_leaf_vector":"1"}},{"base_weights":[-7.036081E-4,1.889114E-2,-1.09889835E-1,-3.4074914E-1,2.0407885E-2,3.6917252E-3,-3.1357266E-2],"categories":[],"categories_nodes":[],"categories_segments":[],"categories_sizes":[],"default_left":[0,0,0,0,0,0,0],"id":73,"left_children":[1,-1,3,5,-1,-1,-1],"loss_changes":[2.117045E0,0E0,4.8930945E0,3.3758779E0,0E0,0E0,0E0],"parents":[2147483647,0,0,2,2,3,3],"right_children":[2,-1,4,6,-1,-1,-1],"split_conditions":[-2.2891666E-1,1.889114E-2,3.822907E4,3.6535E-1,2.0407885E-2,3.6917252E-3,-3.1357266E-2],"split_indices":[18,0,38,22,0,0,0],"split_type":[0,0,0,0,0,0,0],"sum_hessian":[4.9218536E1,1.0467946E1,3.875059E1,2.7042011E1,1.1708581E1,1.1351667E1,1.5690343E1],"tree_param":{"num_deleted":"0","num_feature":"67","num_nodes":"7","size_leaf_vector":"1"}},{"base_weights":[-4.3916088E-4,1.7410409E-2,-1.1879425E-1,-3.6596808E-1,1.0175267E-2,5.0718966E-3,-3.8417112E-2],"categories":[],"categories_nodes":[],"categories_segments":[],"categories_sizes":[],"default_left":[0,0,0,0,0,0,0],"id":74,"left_children":[1,-1,3,5,-1,-1,-1],"loss_changes":[2.1123836E0,0E0,3.1188474E0,4.21282E0,0E0,0E0,0E0],"parents":[2147483647,0,0,2,2,3,3],"right_children":[2,-1,4,6,-1,-1,-1],"split_conditions":[-3E0,1.7410409E-2,7.136E-1,3E0,1.0175267E-2,5.0718966E-3,-3.8417112E-2],"split_indices":[43,0,22,6,0,0,0],"split_type":[0,0,0,0,0,0,0],"sum_hessian":[4.9189255E1,1.1974125E1,3.721513E1,2.0985619E1,1.622951E1,1.0054272E1,1.0931347E1],"tree_param":{"num_deleted":"0","num_feature":"67","num_nodes":"7","size_leaf_vector":"1"}},{"base_weights":[-5.692376E-4,-1.4990067E-1,1.3840176E-2,8.297785E-3,-2.2625592E-2],"categories":[],"categories_nodes":[],"categories_segments":[],"categories_sizes":[],"default_left":[0,0,0,0,0],"id":75,"left_children":[1,3,-1,-1,-1],"loss_changes":[2.1147904E0,3.247084E0,0E0,0E0,0E0],"parents":[2147483647,0,0,1,1],"right_children":[2,4,-1,-1,-1],"split_conditions":[3.4599E-1,2.8357351E1,1.3840176E-2,8.297785E-3,-2.2625592E-2],"split_indices":[20,4,0,0,0],"split_type":[0,0,0,0,0],"sum_hessian":[4.9054893E1,3.2186146E1,1.6868748E1,1.5969379E1,1.6216766E1],"tree_param":{"num_deleted":"0","num_feature":"67","num_nodes":"5","size_leaf_vector":"1"}},{"base_weights":[-5.578642E-4,1.782853E-2,-1.1567915E-1,-3.4129253E-1,2.0780439E-2,1.1552602E-2,-3.7045483E-2],"categories":[],"categories_nodes":[],"categories_segments":[],"categories_sizes":[],"default_left":[0,0,0,0,0,0,0],"id":76,"left_children":[1,-1,3,5,-1,-1,-1],"loss_changes":[2.0971112E0,0E0,4.765097E0,6.4889793E0,0E0,0E0,0E0],"parents":[2147483647,0,0,2,2,3,3],"right_children":[2,-1,4,6,-1,-1,-1],"split_conditions":[2.5362012E-1,1.782853E-2,3.822907E4,3.0289876E-1,2.0780439E-2,1.1552602E-2,-3.7045483E-2],"split_indices":[16,0,38,26,0,0,0],"split_type":[0,0,0,0,0,0,0],"sum_hessian":[4.9005085E1,1.1434795E1,3.757029E1,2.662254E1,1.0947747E1,1.111915E1,1.550339E1],"tree_param":{"num_deleted":"0","num_feature":"67","num_nodes":"7","size_leaf_vector":"1"}},{"base_weights":[-2.9739665E-4,-1.5845194E-2,1.258595E-1,-8.091525E-3,1.8988222E-2],"categories":[],"categories_nodes":[],"categories_segments":[],"categories_sizes":[],"default_left":[0,0,0,0,0],"id":77,"left_children":[1,-1,3,-1,-1],"loss_changes":[2.0320065E0,0E0,2.7188668E0,0E0,0E0],"parents":[2147483647,0,0,2,2],"right_children":[2,-1,4,-1,-1],"split_conditions":[-2.0191666E-1,-1.5845194E-2,-1.130436E1,-8.091525E-3,1.8988222E-2],"split_indices":[19,0,60,0,0],"split_type":[0,0,0,0,0],"sum_hessian":[4.8875233E1,1.3495245E1,3.537999E1,1.6756487E1,1.86235E1],"tree_param":{"num_deleted":"0","num_feature":"67","num_nodes":"5","size_leaf_vector":"1"}},{"base_weights":[-3.650486E-4,-1.4752147E-1,1.3663167E-2,8.524262E-3,-2.1779258E-2],"categories":[],"categories_nodes":[],"categories_segments":[],"categories_sizes":[],"default_left":[0,0,0,0,0],"id":78,"left_children":[1,3,-1,-1,-1],"loss_changes":[2.0416274E0,3.0944963E0,0E0,0E0,0E0],"parents":[2147483647,0,0,1,1],"right_children":[2,4,-1,-1,-1],"split_conditions":[3.4599E-1,3E0,1.3663167E-2,8.524262E-3,-2.1779258E-2],"split_indices":[20,6,0,0,0],"split_type":[0,0,0,0,0],"sum_hessian":[4.870215E1,3.1969778E1,1.673237E1,1.53891535E1,1.6580626E1],"tree_param":{"num_deleted":"0","num_feature":"67","num_nodes":"5","size_leaf_vector":"1"}},{"base_weights":[-3.4947039E-4,1.7448485E-2,-1.1350354E-1,-3.3241752E-1,1.9980045E-2,1.09490305E-2,-3.5839263E-2],"categories":[],"categories_nodes":[],"categories_segments":[],"categories_sizes":[],"default_left":[0,0,0,0,0,0,0],"id":79,"left_children":[1,-1,3,5,-1,-1,-1],"loss_changes":[2.0009768E0,0E0,4.4275856E0,5.9527416E0,0E0,0E0,0E0],"parents":[2147483647,0,0,2,2,3,3],"right_children":[2,-1,4,6,-1,-1,-1],"split_conditions":[2.5362012E-1,1.7448485E-2,3.822907E4,3.0289876E-1,1.9980045E-2,1.09490305E-2,-3.5839263E-2],"split_indices":[16,0,38,26,0,0,0],"split_type":[0,0,0,0,0,0,0],"sum_hessian":[4.8621098E1,1.13863E1,3.7234795E1,2.6346367E1,1.0888429E1,1.0998564E1,1.5347803E1],"tree_param":{"num_deleted":"0","num_feature":"67","num_nodes":"7","size_leaf_vector":"1"}},{"base_weights":[-1.07174616E-4,1.7181292E-2,-1.1760049E-1,-3.6049175E-1,9.818408E-3,2.9263317E-3,-3.6495876E-2],"categories":[],"categories_nodes":[],"categories_segments":[],"categories_sizes":[],"default_left":[0,0,0,0,0,0,0],"id":80,"left_children":[1,-1,3,5,-1,-1,-1],"loss_changes":[2.039247E0,0E0,2.9404647E0,3.3815484E0,0E0,0E0,0E0],"parents":[2147483647,0,0,2,2,3,3],"right_children":[2,-1,4,6,-1,-1,-1],"split_conditions":[-3E0,1.7181292E-2,7.136E-1,3.7649398E0,9.818408E-3,2.9263317E-3,-3.6495876E-2],"split_indices":[43,0,22,42,0,0,0],"split_type":[0,0,0,0,0,0,0],"sum_hessian":[4.849289E1,1.1862848E1,3.663004E1,2.0569197E1,1.6060844E1,1.0032023E1,1.0537174E1],"tree_param":{"num_deleted":"0","num_feature":"67","num_nodes":"7","size_leaf_vector":"1"}},{"base_weights":[-2.4587705E-4,-1.4773475E-1,1.3737059E-2,8.079536E-3,-2.1430481E-2],"categories":[],"categories_nodes":[],"categories_segments":[],"categories_sizes":[],"default_left":[0,0,0,0,0],"id":81,"left_children":[1,3,-1,-1,-1],"loss_changes":[2.045484E0,2.9212568E0,0E0,0E0,0E0],"parents":[2147483647,0,0,1,1],"right_children":[2,4,-1,-1,-1],"split_conditions":[3.4599E-1,3E0,1.3737059E-2,8.079536E-3,-2.1430481E-2],"split_indices":[20,6,0,0,0],"split_type":[0,0,0,0,0],"sum_hessian":[4.843337E1,3.1826197E1,1.6607172E1,1.5348115E1,1.647808E1],"tree_param":{"num_deleted":"0","num_feature":"67","num_nodes":"5","size_leaf_vector":"1"}},{"base_weights":[-2.3633648E-4,1.7208286E-2,-1.1177402E-1,1.2123462E-1,-2.841883E-2,-9.319926E-3,2.7892953E-2],"categories":[],"categories_nodes":[],"categories_segments":[],"categories_sizes":[],"default_left":[0,0,0,0,0,0,0],"id":82,"left_children":[1,-1,3,5,-1,-1,-1],"loss_changes":[1.9343616E0,0E0,4.115604E0,3.5974066E0,0E0,0E0,0E0],"parents":[2147483647,0,0,2,2,3,3],"right_children":[2,-1,4,6,-1,-1,-1],"split_conditions":[2.5362012E-1,1.7208286E-2,1E0,1.9652E-1,-2.841883E-2,-9.319926E-3,2.7892953E-2],"split_indices":[16,0,8,20,0,0,0],"split_type":[0,0,0,0,0,0,0],"sum_hessian":[4.8354465E1,1.1318857E1,3.7035606E1,2.500818E1,1.2027427E1,1.500745E1,1.000073E1],"tree_param":{"num_deleted":"0","num_feature":"67","num_nodes":"7","size_leaf_vector":"1"}},{"base_weights":[-8.584175E-5,-1.82875E-2,1.0331407E-1,2.5437623E-2,-5.3533256E-2,1.8351981E-2,-1.49323E-2],"categories":[],"categories_nodes":[],"categories_segments":[],"categories_sizes":[],"default_left":[0,0,0,0,0,0,0],"id":83,"left_children":[1,-1,3,-1,5,-1,-1],"loss_changes":[1.9010931E0,0E0,2.5198786E0,0E0,3.1165097E0,0E0,0E0],"parents":[2147483647,0,0,2,2,4,4],"right_children":[2,-1,4,-1,6,-1,-1],"split_conditions":[-6.12245E1,-1.82875E-2,2.5362012E-1,2.5437623E-2,-1.15308E0,1.8351981E-2,-1.49323E-2],"split_indices":[60,0,16,0,29,0,0],"split_type":[0,0,0,0,0,0,0],"sum_hessian":[4.8281235E1,1.0083751E1,3.8197483E1,1.0029186E1,2.8168297E1,1.0188716E1,1.7979582E1],"tree_param":{"num_deleted":"0","num_feature":"67","num_nodes":"7","size_leaf_vector":"1"}},{"base_weights":[1.4174539E-4,-1.5250087E-2,1.21905245E-1,-1.2627862E-2,3.0932036E-1,-6.005814E-3,3.6704343E-2],"categories":[],"categories_nodes":[],"categories_segments":[],"categories_sizes":[],"default_left":[0,0,0,0,0,0,0],"id":84,"left_children":[1,-1,3,-1,5,-1,-1],"loss_changes":[1.8610358E0,0E0,2.5906277E0,0E0,4.522381E0,0E0,0E0],"parents":[2147483647,0,0,2,2,4,4],"right_children":[2,-1,4,-1,6,-1,-1],"split_conditions":[-2.0191666E-1,-1.5250087E-2,1.3521239E2,-1.2627862E-2,5.233E1,-6.005814E-3,3.6704343E-2],"split_indices":[19,0,44,0,42,0,0],"split_type":[0,0,0,0,0,0,0],"sum_hessian":[4.8087284E1,1.3286355E1,3.480093E1,1.1491965E1,2.3308964E1,1.1947412E1,1.1361552E1],"tree_param":{"num_deleted":"0","num_feature":"67","num_nodes":"7","size_leaf_vector":"1"}},{"base_weights":[2.085992E-4,-1.0145212E-1,1.7826874E-2,-2.5832465E-2,1.1229176E-1,2.058055E-2,-1.372085E-2],"categories":[],"categories_nodes":[],"categories_segments":[],"categories_sizes":[],"default_left":[0,0,0,0,0,0,0],"id":85,"left_children":[1,3,-1,-1,5,-1,-1],"loss_changes":[1.8121816E0,3.5123057E0,0E0,0E0,3.182262E0,0E0,0E0],"parents":[2147483647,0,0,1,1,4,4],"right_children":[2,4,-1,-1,6,-1,-1],"split_conditions":[5.699998E-1,1.338515E2,1.7826874E-2,-2.5832465E-2,4.3603E3,2.058055E-2,-1.372085E-2],"split_indices":[59,44,0,0,39,0,0],"split_type":[0,0,0,0,0,0,0],"sum_hessian":[4.8027668E1,3.7923397E1,1.010427E1,1.2406549E1,2.5516848E1,1.4347353E1,1.1169495E1],"tree_param":{"num_deleted":"0","num_feature":"67","num_nodes":"7","size_leaf_vector":"1"}},{"base_weights":[1.756723E-4,1.7338514E-2,-9.991452E-2,-4.0625212E-1,1.3106316E-2,-3.7627246E-2,-1.3486941E-3],"categories":[],"categories_nodes":[],"categories_segments":[],"categories_sizes":[],"default_left":[0,0,0,0,0,0,0],"id":86,"left_children":[1,-1,3,5,-1,-1,-1],"loss_changes":[1.7300822E0,0E0,4.398366E0,2.7843347E0,0E0,0E0,0E0],"parents":[2147483647,0,0,2,2,3,3],"right_children":[2,-1,4,6,-1,-1,-1],"split_conditions":[-2.2891666E-1,1.7338514E-2,6.892E-2,1.075E-2,1.3106316E-2,-3.7627246E-2,-1.3486941E-3],"split_indices":[18,0,20,18,0,0,0],"split_type":[0,0,0,0,0,0,0],"sum_hessian":[4.7872868E1,1.017479E1,3.7698074E1,2.0353786E1,1.734429E1,1.0125103E1,1.02286825E1],"tree_param":{"num_deleted":"0","num_feature":"67","num_nodes":"7","size_leaf_vector":"1"}},{"base_weights":[-2.8267111E-6,1.5782071E-2,-1.0761031E-1,1.0161319E-1,-2.3198536E-2,2.2372043E-2,-1.6322732E-2],"categories":[],"categories_nodes":[],"categories_segments":[],"categories_sizes":[],"default_left":[0,0,0,0,0,0,0],"id":87,"left_children":[1,-1,3,5,-1,-1,-1],"loss_changes":[1.6931956E0,0E0,2.8189695E0,3.7351222E0,0E0,0E0,0E0],"parents":[2147483647,0,0,2,2,3,3],"right_children":[2,-1,4,6,-1,-1,-1],"split_conditions":[-3E0,1.5782071E-2,1.5376827E0,1.053027E4,-2.3198536E-2,2.2372043E-2,-1.6322732E-2],"split_indices":[43,0,26,39,0,0,0],"split_type":[0,0,0,0,0,0,0],"sum_hessian":[4.7850174E1,1.1673911E1,3.617626E1,2.3244183E1,1.2932081E1,1.2832111E1,1.041207E1],"tree_param":{"num_deleted":"0","num_feature":"67","num_nodes":"7","size_leaf_vector":"1"}},{"base_weights":[-2.7025419E-5,-1.1476336E-1,1.4894376E-2,1.3000032E-1,-2.2788132E-2,2.0165516E-2,-7.1658106E-3],"categories":[],"categories_nodes":[],"categories_segments":[],"categories_sizes":[],"default_left":[0,0,0,0,0,0,0],"id":88,"left_children":[1,3,-1,5,-1,-1,-1],"loss_changes":[1.6971021E0,3.0509806E0,0E0,1.6746678E0,0E0,0E0,0E0],"parents":[2147483647,0,0,1,1,3,3],"right_children":[2,4,-1,6,-1,-1,-1],"split_conditions":[1.8E1,4.57592E3,1.4894376E-2,2.840887E4,-2.2788132E-2,2.0165516E-2,-7.1658106E-3],"split_indices":[5,39,0,36,0,0,0],"split_type":[0,0,0,0,0,0,0],"sum_hessian":[4.76494E1,3.4844467E1,1.2804932E1,2.0644762E1,1.4199705E1,1.0084694E1,1.0560068E1],"tree_param":{"num_deleted":"0","num_feature":"67","num_nodes":"7","size_leaf_vector":"1"}},{"base_weights":[7.682597E-5,-1.2135189E-1,1.4090297E-2,1.5128024E-2,-3.314387E-1,-2.241519E-3,-2.8822273E-2],"categories":[],"categories_nodes":[],"categories_segments":[],"categories_sizes":[],"default_left":[0,0,0,0,0,0,0],"id":89,"left_children":[1,3,-1,-1,5,-1,-1],"loss_changes":[1.6937404E0,3.1815572E0,0E0,0E0,1.6321335E0,0E0,0E0],"parents":[2147483647,0,0,1,1,4,4],"right_children":[2,4,-1,-1,6,-1,-1],"split_conditions":[3.898092E4,-2.2479E0,1.4090297E-2,1.5128024E-2,5E-1,-2.241519E-3,-2.8822273E-2],"split_indices":[38,29,0,0,3,0,0],"split_type":[0,0,0,0,0,0,0],"sum_hessian":[4.751045E1,3.359839E1,1.3912059E1,1.098756E1,2.2610828E1,1.0965912E1,1.16449175E1],"tree_param":{"num_deleted":"0","num_feature":"67","num_nodes":"7","size_leaf_vector":"1"}},{"base_weights":[2.8190534E-5,-1.4615565E-2,1.16515554E-1,-7.360405E-3,1.756343E-2],"categories":[],"categories_nodes":[],"categories_segments":[],"categories_sizes":[],"default_left":[0,0,0,0,0],"id":90,"left_children":[1,-1,3,-1,-1],"loss_changes":[1.6836597E0,0E0,2.24045E0,0E0,0E0],"parents":[2147483647,0,0,2,2],"right_children":[2,-1,4,-1,-1],"split_conditions":[-2.0191666E-1,-1.4615565E-2,-1.130436E1,-7.360405E-3,1.756343E-2],"split_indices":[19,0,60,0,0],"split_type":[0,0,0,0,0],"sum_hessian":[4.7440937E1,1.3087316E1,3.4353622E1,1.635415E1,1.7999474E1],"tree_param":{"num_deleted":"0","num_feature":"67","num_nodes":"5","size_leaf_vector":"1"}},{"base_weights":[-4.885227E-5,-1.3625106E-1,1.2667166E-2,8.545649E-3,-2.1007936E-2],"categories":[],"categories_nodes":[],"categories_segments":[],"categories_sizes":[],"default_left":[0,0,0,0,0],"id":91,"left_children":[1,3,-1,-1,-1],"loss_changes":[1.700947E0,2.867174E0,0E0,0E0,0E0],"parents":[2147483647,0,0,1,1],"right_children":[2,4,-1,-1,-1],"split_conditions":[3.4599E-1,3E0,1.2667166E-2,8.545649E-3,-2.1007936E-2],"split_indices":[20,6,0,0,0],"split_type":[0,0,0,0,0],"sum_hessian":[4.7284687E1,3.1054632E1,1.6230053E1,1.5107546E1,1.5947087E1],"tree_param":{"num_deleted":"0","num_feature":"67","num_nodes":"5","size_leaf_vector":"1"}},{"base_weights":[-5.150602E-5,1.6234778E-2,-1.0209163E-1,-2.7890274E-2,9.496978E-2,-9.639553E-3,1.8255314E-2],"categories":[],"categories_nodes":[],"categories_segments":[],"categories_sizes":[],"default_left":[0,0,0,0,0,0,0],"id":92,"left_children":[1,-1,3,-1,5,-1,-1],"loss_changes":[1.6306096E0,0E0,3.4154334E0,0E0,2.1687346E0,0E0,0E0],"parents":[2147483647,0,0,2,2,4,4],"right_children":[2,-1,4,-1,6,-1,-1],"split_conditions":[-6.81E1,1.6234778E-2,-1.2725E-1,-2.7890274E-2,6.644918E4,-9.639553E-3,1.8255314E-2],"split_indices":[42,0,19,0,10,0,0],"split_type":[0,0,0,0,0,0,0],"sum_hessian":[4.7207436E1,1.0765078E1,3.6442356E1,1.0448678E1,2.599368E1,1.2724898E1,1.3268781E1],"tree_param":{"num_deleted":"0","num_feature":"67","num_nodes":"7","size_leaf_vector":"1"}},{"base_weights":[-1.18330645E-4,-1.17451094E-1,1.3602145E-2,7.175527E-3,-2.2511838E-2],"categories":[],"categories_nodes":[],"categories_segments":[],"categories_sizes":[],"default_left":[0,0,0,0,0],"id":93,"left_children":[1,3,-1,-1,-1],"loss_changes":[1.5715686E0,3.0509975E0,0E0,0E0,0E0],"parents":[2147483647,0,0,1,1],"right_children":[2,4,-1,-1,-1],"split_conditions":[3.898092E4,1E0,1.3602145E-2,7.175527E-3,-2.2511838E-2],"split_indices":[38,55,0,0,0],"split_type":[0,0,0,0,0],"sum_hessian":[4.721333E1,3.3387802E1,1.3825529E1,1.9032099E1,1.4355703E1],"tree_param":{"num_deleted":"0","num_feature":"67","num_nodes":"5","size_leaf_vector":"1"}},{"base_weights":[-1.6026465E-4,-1.2170827E-1,1.32209165E-2,-3.126031E-1,1.4567872E-2,1.5657371E-3,-3.4195542E-2],"categories":[],"categories_nodes":[],"categories_segments":[],"categories_sizes":[],"default_left":[0,0,0,0,0,0,0],"id":94,"left_children":[1,3,-1,5,-1,-1,-1],"loss_changes":[1.5803578E0,2.7461708E0,0E0,3.0238204E0,0E0,0E0,0E0],"parents":[2147483647,0,0,1,1,3,3],"right_children":[2,4,-1,6,-1,-1,-1],"split_conditions":[4.2117E-1,5.399999E-1,1.32209165E-2,4.3603E3,1.4567872E-2,1.5657371E-3,-3.4195542E-2],"split_indices":[20,59,0,39,0,0,0],"split_type":[0,0,0,0,0,0,0],"sum_hessian":[4.7141296E1,3.267179E1,1.4469502E1,2.2511503E1,1.0160289E1,1.2162162E1,1.0349342E1],"tree_param":{"num_deleted":"0","num_feature":"67","num_nodes":"7","size_leaf_vector":"1"}},{"base_weights":[-2.894399E-4,-1.1066504E-1,1.4295961E-2,7.2659836E-3,-2.1396473E-2],"categories":[],"categories_nodes":[],"categories_segments":[],"categories_sizes":[],"default_left":[0,0,0,0,0],"id":95,"left_children":[1,3,-1,-1,-1],"loss_changes":[1.5474234E0,2.9330516E0,0E0,0E0,0E0],"parents":[2147483647,0,0,1,1],"right_children":[2,4,-1,-1,-1],"split_conditions":[1.8E1,2.79852E4,1.4295961E-2,7.2659836E-3,-2.1396473E-2],"split_indices":[5,37,0,0,0],"split_type":[0,0,0,0,0],"sum_hessian":[4.698228E1,3.434902E1,1.2633265E1,1.9310392E1,1.5038625E1],"tree_param":{"num_deleted":"0","num_feature":"67","num_nodes":"5","size_leaf_vector":"1"}},{"base_weights":[-2.726122E-4,-1.1585952E-1,1.3391866E-2,1.4880689E-2,-3.2028067E-1,-2.2464956E-3,-2.7766181E-2],"categories":[],"categories_nodes":[],"categories_segments":[],"categories_sizes":[],"default_left":[0,0,0,0,0,0,0],"id":96,"left_children":[1,3,-1,-1,5,-1,-1],"loss_changes":[1.5169545E0,2.9861865E0,0E0,0E0,1.4874482E0,0E0,0E0],"parents":[2147483647,0,0,1,1,4,4],"right_children":[2,4,-1,-1,6,-1,-1],"split_conditions":[3.898092E4,-2.2479E0,1.3391866E-2,1.4880689E-2,5E-1,-2.2464956E-3,-2.7766181E-2],"split_indices":[38,29,0,0,3,0,0],"split_type":[0,0,0,0,0,0,0],"sum_hessian":[4.6948475E1,3.320226E1,1.3746214E1,1.083365E1,2.236861E1,1.0849578E1,1.15190325E1],"tree_param":{"num_deleted":"0","num_feature":"67","num_nodes":"7","size_leaf_vector":"1"}},{"base_weights":[-3.0166667E-4,-1.2958068E-1,1.1972981E-2,8.239868E-3,-2.0848894E-2],"categories":[],"categories_nodes":[],"categories_segments":[],"categories_sizes":[],"default_left":[0,0,0,0,0],"id":97,"left_children":[1,3,-1,-1,-1],"loss_changes":[1.5151473E0,2.7554243E0,0E0,0E0,0E0],"parents":[2147483647,0,0,1,1],"right_children":[2,4,-1,-1,-1],"split_conditions":[3.4599E-1,2.8357351E1,1.1972981E-2,8.239868E-3,-2.0848894E-2],"split_indices":[20,4,0,0,0],"split_type":[0,0,0,0,0],"sum_hessian":[4.6880802E1,3.0756483E1,1.6124317E1,1.5404449E1,1.5352034E1],"tree_param":{"num_deleted":"0","num_feature":"67","num_nodes":"5","size_leaf_vector":"1"}},{"base_weights":[-3.0549188E-4,1.596894E-2,-9.32953E-2,-3.0395743E-1,1.8648133E-2,4.7023054E-3,-2.9035771E-2],"categories":[],"categories_nodes":[],"categories_segments":[],"categories_sizes":[],"default_left":[0,0,0,0,0,0,0],"id":98,"left_children":[1,-1,3,5,-1,-1,-1],"loss_changes":[1.4517589E0,0E0,3.8290207E0,2.9854147E0,0E0,0E0,0E0],"parents":[2147483647,0,0,2,2,3,3],"right_children":[2,-1,4,6,-1,-1,-1],"split_conditions":[-2.215E-1,1.596894E-2,3.822907E4,3.6535E-1,1.8648133E-2,4.7023054E-3,-2.9035771E-2],"split_indices":[18,0,38,22,0,0,0],"split_type":[0,0,0,0,0,0,0],"sum_hessian":[4.6833424E1,1.0004607E1,3.6828815E1,2.5607203E1,1.1221615E1,1.0773746E1,1.4833456E1],"tree_param":{"num_deleted":"0","num_feature":"67","num_nodes":"7","size_leaf_vector":"1"}},{"base_weights":[-7.87216E-5,1.481349E-2,-1.0250081E-1,-1.7379455E-2,1.08646555E-2],"categories":[],"categories_nodes":[],"categories_segments":[],"categories_sizes":[],"default_left":[0,0,0,0,0],"id":99,"left_children":[1,-1,3,-1,-1],"loss_changes":[1.4811999E0,0E0,2.9179132E0,0E0,0E0],"parents":[2147483647,0,0,2,2],"right_children":[2,-1,4,-1,-1],"split_conditions":[-3E0,1.481349E-2,7.136E-1,-1.7379455E-2,1.08646555E-2],"split_indices":[43,0,22,0,0],"split_type":[0,0,0,0,0],"sum_hessian":[4.679921E1,1.1534012E1,3.5265198E1,1.9915302E1,1.5349895E1],"tree_param":{"num_deleted":"0","num_feature":"67","num_nodes":"5","size_leaf_vector":"1"}},{"base_weights":[1.006042E-4,-1.3562039E-2,1.08237065E-1,1.9750996E-2,-9.6437745E-2,-1.6811604E-2,7.7165077E-3],"categories":[],"categories_nodes":[],"categories_segments":[],"categories_sizes":[],"default_left":[0,0,0,0,0,0,0],"id":100,"left_children":[1,-1,3,-1,5,-1,-1],"loss_changes":[1.4312782E0,0E0,2.085363E0,0E0,1.3240932E0,0E0,0E0],"parents":[2147483647,0,0,2,2,4,4],"right_children":[2,-1,4,-1,6,-1,-1],"split_conditions":[-2.0191666E-1,-1.3562039E-2,3.3345E-1,1.9750996E-2,4.5999992E-1,-1.6811604E-2,7.7165077E-3],"split_indices":[19,0,22,0,59,0,0],"split_type":[0,0,0,0,0,0,0],"sum_hessian":[4.677878E1,1.2900325E1,3.3878456E1,1.3721877E1,2.0156578E1,1.0129518E1,1.0027061E1],"tree_param":{"num_deleted":"0","num_feature":"67","num_nodes":"7","size_leaf_vector":"1"}},{"base_weights":[3.1640855E-5,1.5260818E-2,-9.603601E-2,-2.6239932E-2,8.871835E-2,-9.05834E-3,1.7138451E-2],"categories":[],"categories_nodes":[],"categories_segments":[],"categories_sizes":[],"default_left":[0,0,0,0,0,0,0],"id":101,"left_children":[1,-1,3,-1,5,-1,-1],"loss_changes":[1.4283223E0,0E0,2.9818149E0,0E0,1.8962616E0,0E0,0E0],"parents":[2147483647,0,0,2,2,4,4],"right_children":[2,-1,4,-1,6,-1,-1],"split_conditions":[-6.81E1,1.5260818E-2,-1.2725E-1,-2.6239932E-2,6.644918E4,-9.05834E-3,1.7138451E-2],"split_indices":[42,0,19,0,10,0,0],"split_type":[0,0,0,0,0,0,0],"sum_hessian":[4.6717865E1,1.0663929E1,3.6053936E1,1.030302E1,2.5750916E1,1.2625442E1,1.3125474E1],"tree_param":{"num_deleted":"0","num_feature":"67","num_nodes":"7","size_leaf_vector":"1"}},{"base_weights":[-3.605305E-5,9.992939E-3,-1.4818318E-1,-2.7071668E-2,9.359526E-3],"categories":[],"categories_nodes":[],"categories_segments":[],"categories_sizes":[],"default_left":[0,0,0,0,0],"id":102,"left_children":[1,-1,3,-1,-1],"loss_changes":[1.4427787E0,0E0,3.7917273E0,0E0,0E0],"parents":[2147483647,0,0,2,2],"right_children":[2,-1,4,-1,-1],"split_conditions":[3E0,9.992939E-3,6.5192E-1,-2.7071668E-2,9.359526E-3],"split_indices":[6,0,21,0,0],"split_type":[0,0,0,0,0],"sum_hessian":[4.671967E1,1.973806E1,2.6981611E1,1.213639E1,1.4845221E1],"tree_param":{"num_deleted":"0","num_feature":"67","num_nodes":"5","size_leaf_vector":"1"}},{"base_weights":[-2.0967066E-4,1.5301681E-2,-9.9433675E-2,1.2297378E-1,-2.7112454E-2,2.3962282E-2,-9.666626E-3],"categories":[],"categories_nodes":[],"categories_segments":[],"categories_sizes":[],"default_left":[0,0,0,0,0,0,0],"id":103,"left_children":[1,-1,3,5,-1,-1,-1],"loss_changes":[1.4777937E0,0E0,3.684065E0,2.9398024E0,0E0,0E0,0E0],"parents":[2147483647,0,0,2,2,3,3],"right_children":[2,-1,4,6,-1,-1,-1],"split_conditions":[2.5362012E-1,1.5301681E-2,1E0,2.7E-1,-2.7112454E-2,2.3962282E-2,-9.666626E-3],"split_indices":[16,0,8,61,0,0,0],"split_type":[0,0,0,0,0,0,0],"sum_hessian":[4.6631508E1,1.0901386E1,3.573012E1,2.4265087E1,1.1465035E1,1.116935E1,1.3095737E1],"tree_param":{"num_deleted":"0","num_feature":"67","num_nodes":"7","size_leaf_vector":"1"}},{"base_weights":[-1.4103203E-4,1.463361E-2,-9.520708E-2,-2.9491842E-1,1.8312652E-2,1.17556E-2,-3.325315E-2],"categories":[],"categories_nodes":[],"categories_segments":[],"categories_sizes":[],"default_left":[0,0,0,0,0,0,0],"id":104,"left_children":[1,-1,3,5,-1,-1,-1],"loss_changes":[1.3487543E0,0E0,3.478826E0,5.2733355E0,0E0,0E0,0E0],"parents":[2147483647,0,0,2,2,3,3],"right_children":[2,-1,4,6,-1,-1,-1],"split_conditions":[2.5362012E-1,1.463361E-2,3.822907E4,3.0289876E-1,1.8312652E-2,1.17556E-2,-3.325315E-2],"split_indices":[16,0,38,26,0,0,0],"split_type":[0,0,0,0,0,0,0],"sum_hessian":[4.645156E1,1.0875446E1,3.5576115E1,2.5081995E1,1.0494119E1,1.0463518E1,1.4618478E1],"tree_param":{"num_deleted":"0","num_feature":"67","num_nodes":"7","size_leaf_vector":"1"}},{"base_weights":[8.274567E-5,1.4295848E-2,-9.897389E-2,-1.6979268E-2,1.0772549E-2],"categories":[],"categories_nodes":[],"categories_segments":[],"categories_sizes":[],"default_left":[0,0,0,0,0],"id":105,"left_children":[1,-1,3,-1,-1],"loss_changes":[1.3682773E0,0E0,2.7883132E0,0E0,0E0],"parents":[2147483647,0,0,2,2],"right_children":[2,-1,4,-1,-1],"split_conditions":[-3E0,1.4295848E-2,7.136E-1,-1.6979268E-2,1.0772549E-2],"split_indices":[43,0,22,0,0],"split_type":[0,0,0,0,0],"sum_hessian":[4.6326046E1,1.1437118E1,3.4888927E1,1.9719044E1,1.5169884E1],"tree_param":{"num_deleted":"0","num_feature":"67","num_nodes":"5","size_leaf_vector":"1"}},{"base_weights":[2.5125538E-4,-1.14588164E-1,1.243876E-2,8.967205E-3,-1.5979715E-2],"categories":[],"categories_nodes":[],"categories_segments":[],"categories_sizes":[],"default_left":[0,0,0,0,0],"id":106,"left_children":[1,3,-1,-1,-1],"loss_changes":[1.3786408E0,2.0482323E0,0E0,0E0,0E0],"parents":[2147483647,0,0,1,1],"right_children":[2,4,-1,-1,-1],"split_conditions":[4.2117E-1,6.7E-1,1.243876E-2,8.967205E-3,-1.5979715E-2],"split_indices":[20,61,0,0,0],"split_type":[0,0,0,0,0],"sum_hessian":[4.630616E1,3.2039898E1,1.4266261E1,1.3216136E1,1.8823763E1],"tree_param":{"num_deleted":"0","num_feature":"67","num_nodes":"5","size_leaf_vector":"1"}},{"base_weights":[3.500726E-4,-1.3062556E-2,1.0435666E-1,-7.2557256E-3,1.6447298E-2],"categories":[],"categories_nodes":[],"categories_segments":[],"categories_sizes":[],"default_left":[0,0,0,0,0],"id":107,"left_children":[1,-1,3,-1,-1],"loss_changes":[1.3129213E0,0E0,1.982114E0,0E0,0E0],"parents":[2147483647,0,0,2,2],"right_children":[2,-1,4,-1,-1],"split_conditions":[-2.0191666E-1,-1.3062556E-2,-1.130436E1,-7.2557256E-3,1.6447298E-2],"split_indices":[19,0,60,0,0],"split_type":[0,0,0,0,0],"sum_hessian":[4.6252506E1,1.2727631E1,3.3524876E1,1.605028E1,1.7474596E1],"tree_param":{"num_deleted":"0","num_feature":"67","num_nodes":"5","size_leaf_vector":"1"}},{"base_weights":[2.6503496E-4,-1.4824297E-1,1.8016236E-1,9.727936E-3,-2.5937406E-2,2.9541815E-2,-1.1157061E-2],"categories":[],"categories_nodes":[],"categories_segments":[],"categories_sizes":[],"default_left":[0,0,0,0,0,0,0],"id":108,"left_children":[1,3,5,-1,-1,-1,-1],"loss_changes":[1.285281E0,3.4482021E0,3.7349632E0,0E0,0E0,0E0,0E0],"parents":[2147483647,0,0,1,1,2,2],"right_children":[2,4,6,-1,-1,-1,-1],"split_conditions":[6.5197E-1,3E0,5.05E-1,9.727936E-3,-2.5937406E-2,2.9541815E-2,-1.1157061E-2],"split_indices":[21,6,3,0,0,0,0],"split_type":[0,0,0,0,0,0,0],"sum_hessian":[4.6109005E1,2.5354465E1,2.0754541E1,1.3416255E1,1.19382105E1,1.00529175E1,1.0701624E1],"tree_param":{"num_deleted":"0","num_feature":"67","num_nodes":"7","size_leaf_vector":"1"}},{"base_weights":[2.8179187E-4,1.4685054E-2,-9.5261194E-2,1.152764E-1,-2.5756864E-2,2.2488652E-2,-9.052819E-3],"categories":[],"categories_nodes":[],"categories_segments":[],"categories_sizes":[],"default_left":[0,0,0,0,0,0,0],"id":109,"left_children":[1,-1,3,5,-1,-1,-1],"loss_changes":[1.3461133E0,0E0,3.261615E0,2.5539236E0,0E0,0E0,0E0],"parents":[2147483647,0,0,2,2,3,3],"right_children":[2,-1,4,6,-1,-1,-1],"split_conditions":[2.5362012E-1,1.4685054E-2,1E0,2.7E-1,-2.5756864E-2,2.2488652E-2,-9.052819E-3],"split_indices":[16,0,8,61,0,0,0],"split_type":[0,0,0,0,0,0,0],"sum_hessian":[4.6018894E1,1.0794426E1,3.522447E1,2.3943819E1,1.1280649E1,1.1004397E1,1.2939421E1],"tree_param":{"num_deleted":"0","num_feature":"67","num_nodes":"7","size_leaf_vector":"1"}},{"base_weights":[3.2447238E-4,-1.20412976E-1,1.1134966E-2,7.877476E-3,-1.973942E-2],"categories":[],"categories_nodes":[],"categories_segments":[],"categories_sizes":[],"default_left":[0,0,0,0,0],"id":110,"left_children":[1,3,-1,-1,-1],"loss_changes":[1.2846514E0,2.427371E0,0E0,0E0,0E0],"parents":[2147483647,0,0,1,1],"right_children":[2,4,-1,-1,-1],"split_conditions":[3.4599E-1,2.8357351E1,1.1134966E-2,7.877476E-3,-1.973942E-2],"split_indices":[20,4,0,0,0],"split_type":[0,0,0,0,0],"sum_hessian":[4.5848557E1,3.001212E1,1.5836435E1,1.5120116E1,1.4892003E1],"tree_param":{"num_deleted":"0","num_feature":"67","num_nodes":"5","size_leaf_vector":"1"}},{"base_weights":[2.882302E-4,1.41475275E-2,-9.194644E-2,-2.86587E-1,1.7761251E-2,1.1341191E-2,-3.230499E-2],"categories":[],"categories_nodes":[],"categories_segments":[],"categories_sizes":[],"default_left":[0,0,0,0,0,0,0],"id":111,"left_children":[1,-1,3,5,-1,-1,-1],"loss_changes":[1.246246E0,0E0,3.2389402E0,4.883944E0,0E0,0E0,0E0],"parents":[2147483647,0,0,2,2,3,3],"right_children":[2,-1,4,6,-1,-1,-1],"split_conditions":[2.5362012E-1,1.41475275E-2,3.822907E4,3.0289876E-1,1.7761251E-2,1.1341191E-2,-3.230499E-2],"split_indices":[16,0,38,26,0,0,0],"split_type":[0,0,0,0,0,0,0],"sum_hessian":[4.5803627E1,1.07602005E1,3.5043427E1,2.466611E1,1.0377318E1,1.031072E1,1.4355389E1],"tree_param":{"num_deleted":"0","num_feature":"67","num_nodes":"7","size_leaf_vector":"1"}},{"base_weights":[4.8523504E-4,-1.2920934E-2,1.039259E-1,-1.07915215E-2,2.6711002E-1,-7.22693E-3,3.3461355E-2],"categories":[],"categories_nodes":[],"categories_segments":[],"categories_sizes":[],"default_left":[0,0,0,0,0,0,0],"id":112,"left_children":[1,-1,3,-1,5,-1,-1],"loss_changes":[1.2770525E0,0E0,1.8353157E0,0E0,3.9045637E0,0E0,0E0],"parents":[2147483647,0,0,2,2,4,4],"right_children":[2,-1,4,-1,6,-1,-1],"split_conditions":[-2.0191666E-1,-1.2920934E-2,1.3521239E2,-1.07915215E-2,5.233E1,-7.22693E-3,3.3461355E-2],"split_indices":[19,0,44,0,42,0,0],"split_type":[0,0,0,0,0,0,0],"sum_hessian":[4.5681866E1,1.2613365E1,3.30685E1,1.10647335E1,2.2003767E1,1.1189546E1,1.081422E1],"tree_param":{"num_deleted":"0","num_feature":"67","num_nodes":"7","size_leaf_vector":"1"}},{"base_weights":[5.3131615E-4,1.4611468E-2,-9.1184765E-2,-2.4714192E-2,8.284471E-2,-8.923877E-3,1.6441902E-2],"categories":[],"categories_nodes":[],"categories_segments":[],"categories_sizes":[],"default_left":[0,0,0,0,0,0,0],"id":113,"left_children":[1,-1,3,-1,5,-1,-1],"loss_changes":[1.2740045E0,0E0,2.5827694E0,0E0,1.7406027E0,0E0,0E0],"parents":[2147483647,0,0,2,2,4,4],"right_children":[2,-1,4,-1,6,-1,-1],"split_conditions":[-6.81E1,1.4611468E-2,-1.2725E-1,-2.4714192E-2,6.644918E4,-8.923877E-3,1.6441902E-2],"split_indices":[42,0,19,0,10,0,0],"split_type":[0,0,0,0,0,0,0],"sum_hessian":[4.5624264E1,1.0390763E1,3.5233498E1,1.006953E1,2.5163969E1,1.2334895E1,1.2829074E1],"tree_param":{"num_deleted":"0","num_feature":"67","num_nodes":"7","size_leaf_vector":"1"}},{"base_weights":[4.4450554E-4,1.4244393E-1,-9.08685E-3,2.4863342E-2,-5.5563445E-3],"categories":[],"categories_nodes":[],"categories_segments":[],"categories_sizes":[],"default_left":[0,0,0,0,0],"id":114,"left_children":[1,3,-1,-1,-1],"loss_changes":[1.2320111E0,2.463074E0,0E0,0E0,0E0],"parents":[2147483647,0,0,1,1],"right_children":[2,4,-1,-1,-1],"split_conditions":[4.57592E3,-1.7498E-1,-9.08685E-3,2.4863342E-2,-5.5563445E-3],"split_indices":[39,20,0,0,0],"split_type":[0,0,0,0,0],"sum_hessian":[4.562308E1,2.57616E1,1.9861483E1,1.0336554E1,1.5425047E1],"tree_param":{"num_deleted":"0","num_feature":"67","num_nodes":"5","size_leaf_vector":"1"}},{"base_weights":[6.621155E-4,-1.0835514E-1,1.1735602E-2,7.732208E-2,-2.121356E-2,2.315452E-2,-1.5391627E-2],"categories":[],"categories_nodes":[],"categories_segments":[],"categories_sizes":[],"default_left":[0,0,0,0,0,0,0],"id":115,"left_children":[1,3,-1,5,-1,-1,-1],"loss_changes":[1.2124177E0,1.934601E0,0E0,3.3022275E0,0E0,0E0,0E0],"parents":[2147483647,0,0,1,1,3,3],"right_children":[2,4,-1,6,-1,-1,-1],"split_conditions":[4.2117E-1,-2.2911E-1,1.1735602E-2,4.3603E3,-2.121356E-2,2.315452E-2,-1.5391627E-2],"split_indices":[20,20,0,39,0,0,0],"split_type":[0,0,0,0,0,0,0],"sum_hessian":[4.5520206E1,3.142153E1,1.4098677E1,2.0265741E1,1.1155788E1,1.002371E1,1.0242031E1],"tree_param":{"num_deleted":"0","num_feature":"67","num_nodes":"7","size_leaf_vector":"1"}},{"base_weights":[6.078444E-4,1.5615185E-1,-1.6721058E-1,-1.2347716E-2,2.579754E-2,9.270341E-3,-2.7330672E-2],"categories":[],"categories_nodes":[],"categories_segments":[],"categories_sizes":[],"default_left":[0,0,0,0,0,0,0],"id":116,"left_children":[1,3,5,-1,-1,-1,-1],"loss_changes":[1.2382824E0,3.6978464E0,3.154355E0,0E0,0E0,0E0,0E0],"parents":[2147483647,0,0,1,1,2,2],"right_children":[2,4,6,-1,-1,-1,-1],"split_conditions":[1.9331618E2,1.46162E0,4.3603E3,-1.2347716E-2,2.579754E-2,9.270341E-3,-2.7330672E-2],"split_indices":[44,27,39,0,0,0,0],"split_type":[0,0,0,0,0,0,0],"sum_hessian":[4.5437775E1,2.3617348E1,2.1820429E1,1.1286254E1,1.2331093E1,1.1574446E1,1.0245983E1],"tree_param":{"num_deleted":"0","num_feature":"67","num_nodes":"7","size_leaf_vector":"1"}},{"base_weights":[4.7313105E-4,1.0848754E-1,-1.1897584E-2,-1.5380937E-1,2.805498E-2,7.9633305E-3,-2.2760388E-2],"categories":[],"categories_nodes":[],"categories_segments":[],"categories_sizes":[],"default_left":[0,0,0,0,0,0,0],"id":117,"left_children":[1,3,-1,5,-1,-1,-1],"loss_changes":[1.2209914E0,3.9596195E0,0E0,2.0956392E0,0E0,0E0,0E0],"parents":[2147483647,0,0,1,1,3,3],"right_children":[2,4,-1,6,-1,-1,-1],"split_conditions":[1.20007E0,1.25321E0,-1.1897584E-2,3E0,2.805498E-2,7.9633305E-3,-2.2760388E-2],"split_indices":[29,27,0,6,0,0,0],"split_type":[0,0,0,0,0,0,0],"sum_hessian":[4.5408646E1,3.1625996E1,1.3782651E1,2.0440517E1,1.1185478E1,1.0257338E1,1.0183181E1],"tree_param":{"num_deleted":"0","num_feature":"67","num_nodes":"7","size_leaf_vector":"1"}},{"base_weights":[4.86667E-4,-1.0534488E-1,1.2130275E-2,1.4742001E-2,-3.024144E-1,-2.3337794E-3,-2.6082544E-2],"categories":[],"categories_nodes":[],"categories_segments":[],"categories_sizes":[],"default_left":[0,0,0,0,0,0,0],"id":118,"left_children":[1,3,-1,-1,5,-1,-1],"loss_changes":[1.2118028E0,2.6846695E0,0E0,0E0,1.2397115E0,0E0,0E0],"parents":[2147483647,0,0,1,1,4,4],"right_children":[2,4,-1,-1,6,-1,-1],"split_conditions":[3.898092E4,-2.2479E0,1.2130275E-2,1.4742001E-2,5E-1,-2.3337794E-3,-2.6082544E-2],"split_indices":[38,29,0,0,3,0,0],"split_type":[0,0,0,0,0,0,0],"sum_hessian":[4.5294662E1,3.1911058E1,1.3383603E1,1.03656435E1,2.1545414E1,1.0504658E1,1.1040756E1],"tree_param":{"num_deleted":"0","num_feature":"67","num_nodes":"7","size_leaf_vector":"1"}},{"base_weights":[4.2507862E-4,-1.0702621E-1,1.1508069E-2,6.3605197E-3,-1.6538141E-2],"categories":[],"categories_nodes":[],"categories_segments":[],"categories_sizes":[],"default_left":[0,0,0,0,0],"id":119,"left_children":[1,3,-1,-1,-1],"loss_changes":[1.1658443E0,1.7285738E0,0E0,0E0,0E0],"parents":[2147483647,0,0,1,1],"right_children":[2,4,-1,-1,-1],"split_conditions":[4.2117E-1,-4.8918E-1,1.1508069E-2,6.3605197E-3,-1.6538141E-2],"split_indices":[20,20,0,0,0],"split_type":[0,0,0,0,0],"sum_hessian":[4.5230087E1,3.1180576E1,1.4049513E1,1.5443616E1,1.573696E1],"tree_param":{"num_deleted":"0","num_feature":"67","num_nodes":"5","size_leaf_vector":"1"}},{"base_weights":[4.3489746E-4,-1.2450194E-2,9.953424E-2,1.8667929E-2,-4.9628243E-3],"categories":[],"categories_nodes":[],"categories_segments":[],"categories_sizes":[],"default_left":[0,0,0,0,0],"id":120,"left_children":[1,-1,3,-1,-1],"loss_changes":[1.168207E0,0E0,1.8779433E0,0E0,0E0],"parents":[2147483647,0,0,2,2],"right_children":[2,-1,4,-1,-1],"split_conditions":[-2.0191666E-1,-1.2450194E-2,3.3345E-1,1.8667929E-2,-4.9628243E-3],"split_indices":[19,0,22,0,0],"split_type":[0,0,0,0,0],"sum_hessian":[4.5256416E1,1.2437598E1,3.281882E1,1.3434843E1,1.9383976E1],"tree_param":{"num_deleted":"0","num_feature":"67","num_nodes":"5","size_leaf_vector":"1"}},{"base_weights":[4.4078837E-4,1.3277265E-2,-9.184916E-2,-3.005166E-1,1.674701E-2,1.9137039E-3,-3.3524375E-2],"categories":[],"categories_nodes":[],"categories_segments":[],"categories_sizes":[],"default_left":[0,0,0,0,0,0,0],"id":121,"left_children":[1,-1,3,5,-1,-1,-1],"loss_changes":[1.1558872E0,0E0,3.221883E0,3.0421488E0,0E0,0E0,0E0],"parents":[2147483647,0,0,2,2,3,3],"right_children":[2,-1,4,6,-1,-1,-1],"split_conditions":[4.8E-1,1.3277265E-2,3.822907E4,1E0,1.674701E-2,1.9137039E-3,-3.3524375E-2],"split_indices":[3,0,38,55,0,0,0],"split_type":[0,0,0,0,0,0,0],"sum_hessian":[4.524683E1,1.1199313E1,3.4047516E1,2.3065912E1,1.0981605E1,1.2508316E1,1.0557596E1],"tree_param":{"num_deleted":"0","num_feature":"67","num_nodes":"7","size_leaf_vector":"1"}},{"base_weights":[3.5733118E-4,9.019055E-3,-1.3491563E-1,-2.5424048E-2,8.952535E-3],"categories":[],"categories_nodes":[],"categories_segments":[],"categories_sizes":[],"default_left":[0,0,0,0,0],"id":122,"left_children":[1,-1,3,-1,-1],"loss_changes":[1.1482598E0,0E0,3.2488368E0,0E0,0E0],"parents":[2147483647,0,0,2,2],"right_children":[2,-1,4,-1,-1],"split_conditions":[3E0,9.019055E-3,6.5192E-1,-2.5424048E-2,8.952535E-3],"split_indices":[6,0,21,0,0],"split_type":[0,0,0,0,0],"sum_hessian":[4.515257E1,1.9228912E1,2.5923656E1,1.1555308E1,1.4368348E1],"tree_param":{"num_deleted":"0","num_feature":"67","num_nodes":"5","size_leaf_vector":"1"}},{"base_weights":[1.6648496E-4,1.4744063E-1,-1.6440329E-1,-1.1301436E-2,2.9359145E-2,-2.5957642E-2,9.686096E-3],"categories":[],"categories_nodes":[],"categories_segments":[],"categories_sizes":[],"default_left":[0,0,0,0,0,0,0],"id":123,"left_children":[1,3,5,-1,-1,-1,-1],"loss_changes":[1.140953E0,4.212594E0,2.9251032E0,0E0,0E0,0E0,0E0],"parents":[2147483647,0,0,1,1,2,2],"right_children":[2,4,6,-1,-1,-1,-1],"split_conditions":[2.79852E4,2.305101E4,3.497809E4,-1.1301436E-2,2.9359145E-2,-2.5957642E-2,9.686096E-3],"split_indices":[37,36,37,0,0,0,0],"split_type":[0,0,0,0,0,0,0],"sum_hessian":[4.5074974E1,2.3842402E1,2.1232574E1,1.3155524E1,1.0686877E1,1.0440673E1,1.0791901E1],"tree_param":{"num_deleted":"0","num_feature":"67","num_nodes":"7","size_leaf_vector":"1"}},{"base_weights":[1.9824221E-4,-9.643785E-3,1.254721E-1,-7.1238503E-3,2.0236881E-2],"categories":[],"categories_nodes":[],"categories_segments":[],"categories_sizes":[],"default_left":[0,0,0,0,0],"id":124,"left_children":[1,-1,3,-1,-1],"loss_changes":[1.1388289E0,0E0,2.1944036E0,0E0,0E0],"parents":[2147483647,0,0,2,2],"right_children":[2,-1,4,-1,-1],"split_conditions":[-2.6125542E1,-9.643785E-3,6.5418E-1,-7.1238503E-3,2.0236881E-2],"split_indices":[60,0,22,0,0],"split_type":[0,0,0,0,0],"sum_hessian":[4.5083557E1,1.7528595E1,2.7554962E1,1.4312372E1,1.324259E1],"tree_param":{"num_deleted":"0","num_feature":"67","num_nodes":"5","size_leaf_vector":"1"}},{"base_weights":[2.7418297E-4,8.925724E-3,-1.3418464E-1,-2.4897823E-2,8.4891515E-3],"categories":[],"categories_nodes":[],"categories_segments":[],"categories_sizes":[],"default_left":[0,0,0,0,0],"id":125,"left_children":[1,-1,3,-1,-1],"loss_changes":[1.1261472E0,0E0,3.0463364E0,0E0,0E0],"parents":[2147483647,0,0,2,2],"right_children":[2,-1,4,-1,-1],"split_conditions":[3E0,8.925724E-3,6.5192E-1,-2.4897823E-2,8.4891515E-3],"split_indices":[6,0,21,0,0],"split_type":[0,0,0,0,0],"sum_hessian":[4.4989914E1,1.9204517E1,2.5785397E1,1.1447485E1,1.4337911E1],"tree_param":{"num_deleted":"0","num_feature":"67","num_nodes":"5","size_leaf_vector":"1"}},{"base_weights":[8.684821E-5,1.4745526E-1,-1.6017139E-1,-1.1594416E-2,2.4362225E-2,1.0874827E-2,-2.5092859E-2],"categories":[],"categories_nodes":[],"categories_segments":[],"categories_sizes":[],"default_left":[0,0,0,0,0,0,0],"id":126,"left_children":[1,3,5,-1,-1,-1,-1],"loss_changes":[1.1079551E0,3.2631319E0,3.009298E0,0E0,0E0,0E0,0E0],"parents":[2147483647,0,0,1,1,2,2],"right_children":[2,4,6,-1,-1,-1,-1],"split_conditions":[1.9331618E2,1.46162E0,-1.15308E0,-1.1594416E-2,2.4362225E-2,1.0874827E-2,-2.5092859E-2],"split_indices":[44,27,29,0,0,0,0],"split_type":[0,0,0,0,0,0,0],"sum_hessian":[4.4913403E1,2.3439274E1,2.1474127E1,1.1225067E1,1.2214208E1,1.0372635E1,1.1101492E1],"tree_param":{"num_deleted":"0","num_feature":"67","num_nodes":"7","size_leaf_vector":"1"}},{"base_weights":[4.7065707E-5,1.4324492E-1,-1.6062322E-1,-1.0438033E-2,2.7868662E-2,-2.4938922E-2,9.085602E-3],"categories":[],"categories_nodes":[],"categories_segments":[],"categories_sizes":[],"default_left":[0,0,0,0,0,0,0],"id":127,"left_children":[1,3,5,-1,-1,-1,-1],"loss_changes":[1.0784875E0,3.729415E0,2.647835E0,0E0,0E0,0E0,0E0],"parents":[2147483647,0,0,1,1,2,2],"right_children":[2,4,6,-1,-1,-1,-1],"split_conditions":[2.79852E4,2.305101E4,3.497809E4,-1.0438033E-2,2.7868662E-2,-2.4938922E-2,9.085602E-3],"split_indices":[37,36,37,0,0,0,0],"split_type":[0,0,0,0,0,0,0],"sum_hessian":[4.4875156E1,2.3785084E1,2.109007E1,1.3124917E1,1.0660167E1,1.0379912E1,1.0710158E1],"tree_param":{"num_deleted":"0","num_feature":"67","num_nodes":"7","size_leaf_vector":"1"}},{"base_weights":[8.0871796E-5,8.762284E-3,-1.3273756E-1,-2.4411844E-2,8.150162E-3],"categories":[],"categories_nodes":[],"categories_segments":[],"categories_sizes":[],"default_left":[0,0,0,0,0],"id":128,"left_children":[1,-1,3,-1,-1],"loss_changes":[1.0906605E0,0E0,2.8828206E0,0E0,0E0],"parents":[2147483647,0,0,2,2],"right_children":[2,-1,4,-1,-1],"split_conditions":[3E0,8.762284E-3,6.5192E-1,-2.4411844E-2,8.150162E-3],"split_indices":[6,0,21,0,0],"split_type":[0,0,0,0,0],"sum_hessian":[4.48798E1,1.9216753E1,2.5663048E1,1.1358505E1,1.4304543E1],"tree_param":{"num_deleted":"0","num_feature":"67","num_nodes":"5","size_leaf_vector":"1"}},{"base_weights":[-9.7396995E-5,1.0395824E-1,-1.1509271E-2,-1.4282556E-1,2.6613483E-2,7.508979E-3,-2.1430833E-2],"categories":[],"categories_nodes":[],"categories_segments":[],"categories_sizes":[],"default_left":[0,0,0,0,0,0,0],"id":129,"left_children":[1,3,-1,5,-1,-1,-1],"loss_changes":[1.1205733E0,3.4826627E0,0E0,1.8426476E0,0E0,0E0,0E0],"parents":[2147483647,0,0,1,1,3,3],"right_children":[2,4,-1,6,-1,-1,-1],"split_conditions":[1.20007E0,1.25321E0,-1.1509271E-2,3E0,2.6613483E-2,7.508979E-3,-2.1430833E-2],"split_indices":[29,27,0,6,0,0,0],"split_type":[0,0,0,0,0,0,0],"sum_hessian":[4.480426E1,3.1229242E1,1.3575017E1,2.0236147E1,1.0993094E1,1.0226262E1,1.0009885E1],"tree_param":{"num_deleted":"0","num_feature":"67","num_nodes":"7","size_leaf_vector":"1"}},{"base_weights":[-6.0541643E-5,-9.402334E-3,1.2134999E-1,-6.7481524E-3,1.9504499E-2],"categories":[],"categories_nodes":[],"categories_segments":[],"categories_sizes":[],"default_left":[0,0,0,0,0],"id":130,"left_children":[1,-1,3,-1,-1],"loss_changes":[1.0657443E0,0E0,2.006936E0,0E0,0E0],"parents":[2147483647,0,0,2,2],"right_children":[2,-1,4,-1,-1],"split_conditions":[-2.6125542E1,-9.402334E-3,6.5418E-1,-6.7481524E-3,1.9504499E-2],"split_indices":[60,0,22,0,0],"split_type":[0,0,0,0,0],"sum_hessian":[4.4695225E1,1.7323505E1,2.7371717E1,1.4264563E1,1.3107155E1],"tree_param":{"num_deleted":"0","num_feature":"67","num_nodes":"5",